<?xml version="1.0" encoding="UTF-8" standalone="yes"?>
<PMML xmlns="http://www.dmg.org/PMML-4_4" xmlns:data="http://jpmml.org/jpmml-model/InlineTable" version="4.4">
	<Header>
		<Application name="JPMML-SkLearn" version="1.6.32"/>
		<Timestamp>2021-10-26T17:20:57Z</Timestamp>
	</Header>
	<DataDictionary>
		<DataField name="y" optype="categorical" dataType="integer">
			<Value value="0"/>
			<Value value="1"/>
		</DataField>
		<DataField name="x1" optype="continuous" dataType="double"/>
		<DataField name="x2" optype="continuous" dataType="double"/>
		<DataField name="x3" optype="continuous" dataType="double"/>
		<DataField name="x4" optype="continuous" dataType="double"/>
		<DataField name="x5" optype="continuous" dataType="double"/>
		<DataField name="x6" optype="continuous" dataType="double"/>
		<DataField name="x7" optype="continuous" dataType="double"/>
		<DataField name="x8" optype="continuous" dataType="double"/>
		<DataField name="x9" optype="continuous" dataType="double"/>
		<DataField name="x10" optype="continuous" dataType="double"/>
		<DataField name="x11" optype="continuous" dataType="double"/>
		<DataField name="x12" optype="continuous" dataType="double"/>
		<DataField name="x13" optype="continuous" dataType="double"/>
		<DataField name="x14" optype="continuous" dataType="double"/>
		<DataField name="x15" optype="continuous" dataType="double"/>
		<DataField name="x16" optype="continuous" dataType="double"/>
		<DataField name="x18" optype="continuous" dataType="double"/>
		<DataField name="x19" optype="continuous" dataType="double"/>
		<DataField name="x20" optype="continuous" dataType="double"/>
		<DataField name="x21" optype="continuous" dataType="double"/>
		<DataField name="x22" optype="continuous" dataType="double"/>
		<DataField name="x24" optype="continuous" dataType="double"/>
		<DataField name="x25" optype="continuous" dataType="double"/>
		<DataField name="x26" optype="continuous" dataType="double"/>
		<DataField name="x27" optype="continuous" dataType="double"/>
		<DataField name="x28" optype="continuous" dataType="double"/>
		<DataField name="x29" optype="continuous" dataType="double"/>
		<DataField name="x30" optype="continuous" dataType="double"/>
		<DataField name="x31" optype="continuous" dataType="double"/>
		<DataField name="x32" optype="continuous" dataType="double"/>
		<DataField name="x33" optype="continuous" dataType="double"/>
		<DataField name="x34" optype="continuous" dataType="double"/>
		<DataField name="x35" optype="continuous" dataType="double"/>
		<DataField name="x36" optype="continuous" dataType="double"/>
		<DataField name="x37" optype="continuous" dataType="double"/>
		<DataField name="x38" optype="continuous" dataType="double"/>
		<DataField name="x41" optype="continuous" dataType="double"/>
		<DataField name="x42" optype="continuous" dataType="double"/>
		<DataField name="x43" optype="continuous" dataType="double"/>
		<DataField name="x44" optype="continuous" dataType="double"/>
		<DataField name="x45" optype="continuous" dataType="double"/>
		<DataField name="x46" optype="continuous" dataType="double"/>
		<DataField name="x49" optype="continuous" dataType="double"/>
		<DataField name="x50" optype="continuous" dataType="double"/>
		<DataField name="x51" optype="continuous" dataType="double"/>
		<DataField name="x52" optype="continuous" dataType="double"/>
		<DataField name="x55" optype="continuous" dataType="double"/>
		<DataField name="x56" optype="continuous" dataType="double"/>
		<DataField name="x57" optype="continuous" dataType="double"/>
		<DataField name="x58" optype="continuous" dataType="double"/>
		<DataField name="x61" optype="continuous" dataType="double"/>
		<DataField name="x62" optype="continuous" dataType="double"/>
		<DataField name="x64" optype="continuous" dataType="double"/>
		<DataField name="x65" optype="continuous" dataType="double"/>
		<DataField name="x66" optype="continuous" dataType="double"/>
		<DataField name="x67" optype="continuous" dataType="double"/>
		<DataField name="x68" optype="continuous" dataType="double"/>
		<DataField name="x69" optype="continuous" dataType="double"/>
		<DataField name="x70" optype="continuous" dataType="double"/>
		<DataField name="x74" optype="continuous" dataType="double"/>
		<DataField name="x77" optype="continuous" dataType="double"/>
		<DataField name="x78" optype="continuous" dataType="double"/>
	</DataDictionary>
	<MiningModel functionName="classification" algorithmName="sklearn.ensemble._forest.RandomForestClassifier">
		<MiningSchema>
			<MiningField name="y" usageType="target"/>
			<MiningField name="x18"/>
			<MiningField name="x24"/>
			<MiningField name="x64"/>
			<MiningField name="x74"/>
			<MiningField name="x50"/>
			<MiningField name="x78"/>
			<MiningField name="x46"/>
			<MiningField name="x5"/>
			<MiningField name="x68"/>
			<MiningField name="x3"/>
			<MiningField name="x12"/>
			<MiningField name="x20"/>
			<MiningField name="x7"/>
			<MiningField name="x70"/>
			<MiningField name="x8"/>
			<MiningField name="x19"/>
			<MiningField name="x42"/>
			<MiningField name="x22"/>
			<MiningField name="x56"/>
			<MiningField name="x9"/>
			<MiningField name="x4"/>
			<MiningField name="x2"/>
			<MiningField name="x11"/>
			<MiningField name="x6"/>
			<MiningField name="x13"/>
			<MiningField name="x37"/>
			<MiningField name="x62"/>
			<MiningField name="x36"/>
			<MiningField name="x67"/>
			<MiningField name="x41"/>
			<MiningField name="x28"/>
			<MiningField name="x49"/>
			<MiningField name="x35"/>
			<MiningField name="x38"/>
			<MiningField name="x15"/>
			<MiningField name="x61"/>
			<MiningField name="x34"/>
			<MiningField name="x51"/>
			<MiningField name="x26"/>
			<MiningField name="x14"/>
			<MiningField name="x55"/>
			<MiningField name="x16"/>
			<MiningField name="x65"/>
			<MiningField name="x30"/>
			<MiningField name="x10"/>
			<MiningField name="x44"/>
			<MiningField name="x52"/>
			<MiningField name="x1"/>
			<MiningField name="x25"/>
			<MiningField name="x32"/>
			<MiningField name="x27"/>
			<MiningField name="x21"/>
			<MiningField name="x31"/>
			<MiningField name="x58"/>
			<MiningField name="x33"/>
			<MiningField name="x57"/>
			<MiningField name="x77"/>
			<MiningField name="x66"/>
			<MiningField name="x45"/>
			<MiningField name="x29"/>
			<MiningField name="x69"/>
			<MiningField name="x43"/>
		</MiningSchema>
		<Output>
			<OutputField name="probability(0)" optype="continuous" dataType="double" feature="probability" value="0"/>
			<OutputField name="probability(1)" optype="continuous" dataType="double" feature="probability" value="1"/>
		</Output>
		<LocalTransformations>
			<DerivedField name="minMaxScaler(x1)" optype="continuous" dataType="double">
				<Apply function="+">
					<Apply function="*">
						<FieldRef field="x1"/>
						<Constant dataType="double">0.001145475372279496</Constant>
					</Apply>
					<Constant dataType="double">-0.001145475372279496</Constant>
				</Apply>
			</DerivedField>
			<DerivedField name="minMaxScaler(x2)" optype="continuous" dataType="double">
				<Apply function="+">
					<Apply function="*">
						<FieldRef field="x2"/>
						<Constant dataType="double">3.094538140182578E-5</Constant>
					</Apply>
					<Constant dataType="double">-3.094538140182578E-5</Constant>
				</Apply>
			</DerivedField>
			<DerivedField name="minMaxScaler(x3)" optype="continuous" dataType="double">
				<Apply function="+">
					<Apply function="*">
						<FieldRef field="x3"/>
						<Constant dataType="double">0.002898550724637681</Constant>
					</Apply>
					<Constant dataType="double">-0.002898550724637681</Constant>
				</Apply>
			</DerivedField>
			<DerivedField name="minMaxScaler(x4)" optype="continuous" dataType="double">
				<Apply function="*">
					<FieldRef field="x4"/>
					<Constant dataType="double">8.775008775008775E-5</Constant>
				</Apply>
			</DerivedField>
			<DerivedField name="minMaxScaler(x5)" optype="continuous" dataType="double">
				<Apply function="*">
					<FieldRef field="x5"/>
					<Constant dataType="double">0.033520533520533524</Constant>
				</Apply>
			</DerivedField>
			<DerivedField name="minMaxScaler(x6)" optype="continuous" dataType="double">
				<Apply function="*">
					<FieldRef field="x6"/>
					<Constant dataType="double">0.006802721088435374</Constant>
				</Apply>
			</DerivedField>
			<DerivedField name="minMaxScaler(x7)" optype="continuous" dataType="double">
				<Apply function="*">
					<FieldRef field="x7"/>
					<Constant dataType="double">0.12</Constant>
				</Apply>
			</DerivedField>
			<DerivedField name="minMaxScaler(x8)" optype="continuous" dataType="double">
				<Apply function="*">
					<FieldRef field="x8"/>
					<Constant dataType="double">0.00684931506849315</Constant>
				</Apply>
			</DerivedField>
			<DerivedField name="minMaxScaler(x9)" optype="continuous" dataType="double">
				<Apply function="*">
					<FieldRef field="x9"/>
					<Constant dataType="double">0.17391304347826086</Constant>
				</Apply>
			</DerivedField>
			<DerivedField name="minMaxScaler(x10)" optype="continuous" dataType="double">
				<Apply function="*">
					<FieldRef field="x10"/>
					<Constant dataType="double">0.017241379310344827</Constant>
				</Apply>
			</DerivedField>
			<DerivedField name="minMaxScaler(x11)" optype="continuous" dataType="double">
				<Apply function="*">
					<FieldRef field="x11"/>
					<Constant dataType="double">0.23076923076923078</Constant>
				</Apply>
			</DerivedField>
			<DerivedField name="minMaxScaler(x12)" optype="continuous" dataType="double">
				<Apply function="+">
					<Apply function="*">
						<FieldRef field="x12"/>
						<Constant dataType="double">9.398496240601503E-4</Constant>
					</Apply>
					<Constant dataType="double">-0.002819548872180451</Constant>
				</Apply>
			</DerivedField>
			<DerivedField name="minMaxScaler(x13)" optype="continuous" dataType="double">
				<Apply function="+">
					<Apply function="*">
						<FieldRef field="x13"/>
						<Constant dataType="double">2.9186002393252197E-5</Constant>
					</Apply>
					<Constant dataType="double">-8.755800717975659E-4</Constant>
				</Apply>
			</DerivedField>
			<DerivedField name="minMaxScaler(x14)" optype="continuous" dataType="double">
				<Apply function="+">
					<Apply function="*">
						<FieldRef field="x14"/>
						<Constant dataType="double">0.0045535859489347855</Constant>
					</Apply>
					<Constant dataType="double">-0.042120670027646766</Constant>
				</Apply>
			</DerivedField>
			<DerivedField name="minMaxScaler(x15)" optype="continuous" dataType="double">
				<Apply function="+">
					<Apply function="*">
						<FieldRef field="x15"/>
						<Constant dataType="double">8.451656524678837E-5</Constant>
					</Apply>
					<Constant dataType="double">-8.451656524678837E-5</Constant>
				</Apply>
			</DerivedField>
			<DerivedField name="minMaxScaler(x16)" optype="continuous" dataType="double">
				<Apply function="+">
					<Apply function="*">
						<FieldRef field="x16"/>
						<Constant dataType="double">0.03298974055321257</Constant>
					</Apply>
					<Constant dataType="double">-9.425640158060711E-4</Constant>
				</Apply>
			</DerivedField>
			<DerivedField name="minMaxScaler(x19)" optype="continuous" dataType="double">
				<Apply function="*">
					<FieldRef field="x19"/>
					<Constant dataType="double">0.019230769230769232</Constant>
				</Apply>
			</DerivedField>
			<DerivedField name="minMaxScaler(x20)" optype="continuous" dataType="double">
				<Apply function="*">
					<FieldRef field="x20"/>
					<Constant dataType="double">0.3333333333333333</Constant>
				</Apply>
			</DerivedField>
			<DerivedField name="minMaxScaler(x21)" optype="continuous" dataType="double">
				<Apply function="*">
					<FieldRef field="x21"/>
					<Constant dataType="double">0.012658227848101266</Constant>
				</Apply>
			</DerivedField>
			<DerivedField name="minMaxScaler(x22)" optype="continuous" dataType="double">
				<Apply function="*">
					<FieldRef field="x22"/>
					<Constant dataType="double">0.3076923076923077</Constant>
				</Apply>
			</DerivedField>
			<DerivedField name="minMaxScaler(x25)" optype="continuous" dataType="double">
				<Apply function="*">
					<FieldRef field="x25"/>
					<Constant dataType="double">0.006896551724137931</Constant>
				</Apply>
			</DerivedField>
			<DerivedField name="minMaxScaler(x26)" optype="continuous" dataType="double">
				<Apply function="*">
					<FieldRef field="x26"/>
					<Constant dataType="double">0.5</Constant>
				</Apply>
			</DerivedField>
			<DerivedField name="minMaxScaler(x27)" optype="continuous" dataType="double">
				<Apply function="*">
					<FieldRef field="x27"/>
					<Constant dataType="double">0.09090909090909091</Constant>
				</Apply>
			</DerivedField>
			<DerivedField name="minMaxScaler(x28)" optype="continuous" dataType="double">
				<Apply function="*">
					<FieldRef field="x28"/>
					<Constant dataType="double">1.5</Constant>
				</Apply>
			</DerivedField>
			<DerivedField name="minMaxScaler(x29)" optype="continuous" dataType="double">
				<Apply function="*">
					<FieldRef field="x29"/>
					<Constant dataType="double">0.038461538461538464</Constant>
				</Apply>
			</DerivedField>
			<DerivedField name="minMaxScaler(x30)" optype="continuous" dataType="double">
				<Apply function="*">
					<FieldRef field="x30"/>
					<Constant dataType="double">0.7142857142857143</Constant>
				</Apply>
			</DerivedField>
			<DerivedField name="minMaxScaler(x31)" optype="continuous" dataType="double">
				<Apply function="*">
					<FieldRef field="x31"/>
					<Constant dataType="double">0.008333333333333333</Constant>
				</Apply>
			</DerivedField>
			<DerivedField name="minMaxScaler(x32)" optype="continuous" dataType="double">
				<Apply function="*">
					<FieldRef field="x32"/>
					<Constant dataType="double">0.16666666666666666</Constant>
				</Apply>
			</DerivedField>
			<DerivedField name="minMaxScaler(x33)" optype="continuous" dataType="double">
				<Apply function="*">
					<FieldRef field="x33"/>
					<Constant dataType="double">0.00909090909090909</Constant>
				</Apply>
			</DerivedField>
			<DerivedField name="minMaxScaler(x34)" optype="continuous" dataType="double">
				<Apply function="*">
					<FieldRef field="x34"/>
					<Constant dataType="double">0.3333333333333333</Constant>
				</Apply>
			</DerivedField>
			<DerivedField name="minMaxScaler(x35)" optype="continuous" dataType="double">
				<Apply function="*">
					<FieldRef field="x35"/>
					<Constant dataType="double">0.011627906976744186</Constant>
				</Apply>
			</DerivedField>
			<DerivedField name="minMaxScaler(x36)" optype="continuous" dataType="double">
				<Apply function="*">
					<FieldRef field="x36"/>
					<Constant dataType="double">0.27272727272727276</Constant>
				</Apply>
			</DerivedField>
			<DerivedField name="minMaxScaler(x37)" optype="continuous" dataType="double">
				<Apply function="*">
					<FieldRef field="x37"/>
					<Constant dataType="double">0.015151515151515152</Constant>
				</Apply>
			</DerivedField>
			<DerivedField name="minMaxScaler(x38)" optype="continuous" dataType="double">
				<Apply function="*">
					<FieldRef field="x38"/>
					<Constant dataType="double">0.875</Constant>
				</Apply>
			</DerivedField>
			<DerivedField name="minMaxScaler(x41)" optype="continuous" dataType="double">
				<Apply function="*">
					<FieldRef field="x41"/>
					<Constant dataType="double">0.034482758620689655</Constant>
				</Apply>
			</DerivedField>
			<DerivedField name="minMaxScaler(x42)" optype="continuous" dataType="double">
				<Apply function="*">
					<FieldRef field="x42"/>
					<Constant dataType="double">0.625</Constant>
				</Apply>
			</DerivedField>
			<DerivedField name="minMaxScaler(x43)" optype="continuous" dataType="double">
				<Apply function="*">
					<FieldRef field="x43"/>
					<Constant dataType="double">0.014084507042253521</Constant>
				</Apply>
			</DerivedField>
			<DerivedField name="minMaxScaler(x44)" optype="continuous" dataType="double">
				<Apply function="*">
					<FieldRef field="x44"/>
					<Constant dataType="double">0.3333333333333333</Constant>
				</Apply>
			</DerivedField>
			<DerivedField name="minMaxScaler(x45)" optype="continuous" dataType="double">
				<Apply function="*">
					<FieldRef field="x45"/>
					<Constant dataType="double">0.02040816326530612</Constant>
				</Apply>
			</DerivedField>
			<DerivedField name="minMaxScaler(x49)" optype="continuous" dataType="double">
				<Apply function="*">
					<FieldRef field="x49"/>
					<Constant dataType="double">0.006896551724137931</Constant>
				</Apply>
			</DerivedField>
			<DerivedField name="minMaxScaler(x51)" optype="continuous" dataType="double">
				<Apply function="*">
					<FieldRef field="x51"/>
					<Constant dataType="double">0.014705882352941176</Constant>
				</Apply>
			</DerivedField>
			<DerivedField name="minMaxScaler(x52)" optype="continuous" dataType="double">
				<Apply function="*">
					<FieldRef field="x52"/>
					<Constant dataType="double">0.5833333333333334</Constant>
				</Apply>
			</DerivedField>
			<DerivedField name="minMaxScaler(x55)" optype="continuous" dataType="double">
				<Apply function="*">
					<FieldRef field="x55"/>
					<Constant dataType="double">0.006896551724137931</Constant>
				</Apply>
			</DerivedField>
			<DerivedField name="minMaxScaler(x56)" optype="continuous" dataType="double">
				<Apply function="*">
					<FieldRef field="x56"/>
					<Constant dataType="double">1.3333333333333333</Constant>
				</Apply>
			</DerivedField>
			<DerivedField name="minMaxScaler(x57)" optype="continuous" dataType="double">
				<Apply function="*">
					<FieldRef field="x57"/>
					<Constant dataType="double">0.005263157894736842</Constant>
				</Apply>
			</DerivedField>
			<DerivedField name="minMaxScaler(x58)" optype="continuous" dataType="double">
				<Apply function="*">
					<FieldRef field="x58"/>
					<Constant dataType="double">0.3333333333333333</Constant>
				</Apply>
			</DerivedField>
			<DerivedField name="minMaxScaler(x61)" optype="continuous" dataType="double">
				<Apply function="*">
					<FieldRef field="x61"/>
					<Constant dataType="double">0.006896551724137931</Constant>
				</Apply>
			</DerivedField>
			<DerivedField name="minMaxScaler(x62)" optype="continuous" dataType="double">
				<Apply function="*">
					<FieldRef field="x62"/>
					<Constant dataType="double">0.25</Constant>
				</Apply>
			</DerivedField>
			<DerivedField name="minMaxScaler(x65)" optype="continuous" dataType="double">
				<Apply function="*">
					<FieldRef field="x65"/>
					<Constant dataType="double">0.02127659574468085</Constant>
				</Apply>
			</DerivedField>
			<DerivedField name="minMaxScaler(x66)" optype="continuous" dataType="double">
				<Apply function="*">
					<FieldRef field="x66"/>
					<Constant dataType="double">0.5</Constant>
				</Apply>
			</DerivedField>
			<DerivedField name="minMaxScaler(x67)" optype="continuous" dataType="double">
				<Apply function="*">
					<FieldRef field="x67"/>
					<Constant dataType="double">0.2</Constant>
				</Apply>
			</DerivedField>
			<DerivedField name="minMaxScaler(x68)" optype="continuous" dataType="double">
				<Apply function="*">
					<FieldRef field="x68"/>
					<Constant dataType="double">2.0</Constant>
				</Apply>
			</DerivedField>
			<DerivedField name="minMaxScaler(x69)" optype="continuous" dataType="double">
				<Apply function="*">
					<FieldRef field="x69"/>
					<Constant dataType="double">0.025</Constant>
				</Apply>
			</DerivedField>
			<DerivedField name="minMaxScaler(x70)" optype="continuous" dataType="double">
				<Apply function="*">
					<FieldRef field="x70"/>
					<Constant dataType="double">0.5</Constant>
				</Apply>
			</DerivedField>
			<DerivedField name="minMaxScaler(x77)" optype="continuous" dataType="double">
				<Apply function="*">
					<FieldRef field="x77"/>
					<Constant dataType="double">0.07142857142857142</Constant>
				</Apply>
			</DerivedField>
			<DerivedField name="float(minMaxScaler(x1))" optype="continuous" dataType="float">
				<FieldRef field="minMaxScaler(x1)"/>
			</DerivedField>
			<DerivedField name="float(minMaxScaler(x2))" optype="continuous" dataType="float">
				<FieldRef field="minMaxScaler(x2)"/>
			</DerivedField>
			<DerivedField name="float(minMaxScaler(x3))" optype="continuous" dataType="float">
				<FieldRef field="minMaxScaler(x3)"/>
			</DerivedField>
			<DerivedField name="float(minMaxScaler(x4))" optype="continuous" dataType="float">
				<FieldRef field="minMaxScaler(x4)"/>
			</DerivedField>
			<DerivedField name="float(minMaxScaler(x5))" optype="continuous" dataType="float">
				<FieldRef field="minMaxScaler(x5)"/>
			</DerivedField>
			<DerivedField name="float(minMaxScaler(x6))" optype="continuous" dataType="float">
				<FieldRef field="minMaxScaler(x6)"/>
			</DerivedField>
			<DerivedField name="float(minMaxScaler(x7))" optype="continuous" dataType="float">
				<FieldRef field="minMaxScaler(x7)"/>
			</DerivedField>
			<DerivedField name="float(minMaxScaler(x8))" optype="continuous" dataType="float">
				<FieldRef field="minMaxScaler(x8)"/>
			</DerivedField>
			<DerivedField name="float(minMaxScaler(x9))" optype="continuous" dataType="float">
				<FieldRef field="minMaxScaler(x9)"/>
			</DerivedField>
			<DerivedField name="float(minMaxScaler(x10))" optype="continuous" dataType="float">
				<FieldRef field="minMaxScaler(x10)"/>
			</DerivedField>
			<DerivedField name="float(minMaxScaler(x11))" optype="continuous" dataType="float">
				<FieldRef field="minMaxScaler(x11)"/>
			</DerivedField>
			<DerivedField name="float(minMaxScaler(x12))" optype="continuous" dataType="float">
				<FieldRef field="minMaxScaler(x12)"/>
			</DerivedField>
			<DerivedField name="float(minMaxScaler(x13))" optype="continuous" dataType="float">
				<FieldRef field="minMaxScaler(x13)"/>
			</DerivedField>
			<DerivedField name="float(minMaxScaler(x14))" optype="continuous" dataType="float">
				<FieldRef field="minMaxScaler(x14)"/>
			</DerivedField>
			<DerivedField name="float(minMaxScaler(x15))" optype="continuous" dataType="float">
				<FieldRef field="minMaxScaler(x15)"/>
			</DerivedField>
			<DerivedField name="float(minMaxScaler(x16))" optype="continuous" dataType="float">
				<FieldRef field="minMaxScaler(x16)"/>
			</DerivedField>
			<DerivedField name="float(minMaxScaler(x19))" optype="continuous" dataType="float">
				<FieldRef field="minMaxScaler(x19)"/>
			</DerivedField>
			<DerivedField name="float(minMaxScaler(x20))" optype="continuous" dataType="float">
				<FieldRef field="minMaxScaler(x20)"/>
			</DerivedField>
			<DerivedField name="float(minMaxScaler(x21))" optype="continuous" dataType="float">
				<FieldRef field="minMaxScaler(x21)"/>
			</DerivedField>
			<DerivedField name="float(minMaxScaler(x22))" optype="continuous" dataType="float">
				<FieldRef field="minMaxScaler(x22)"/>
			</DerivedField>
			<DerivedField name="float(minMaxScaler(x25))" optype="continuous" dataType="float">
				<FieldRef field="minMaxScaler(x25)"/>
			</DerivedField>
			<DerivedField name="float(minMaxScaler(x26))" optype="continuous" dataType="float">
				<FieldRef field="minMaxScaler(x26)"/>
			</DerivedField>
			<DerivedField name="float(minMaxScaler(x27))" optype="continuous" dataType="float">
				<FieldRef field="minMaxScaler(x27)"/>
			</DerivedField>
			<DerivedField name="float(minMaxScaler(x28))" optype="continuous" dataType="float">
				<FieldRef field="minMaxScaler(x28)"/>
			</DerivedField>
			<DerivedField name="float(minMaxScaler(x29))" optype="continuous" dataType="float">
				<FieldRef field="minMaxScaler(x29)"/>
			</DerivedField>
			<DerivedField name="float(minMaxScaler(x30))" optype="continuous" dataType="float">
				<FieldRef field="minMaxScaler(x30)"/>
			</DerivedField>
			<DerivedField name="float(minMaxScaler(x31))" optype="continuous" dataType="float">
				<FieldRef field="minMaxScaler(x31)"/>
			</DerivedField>
			<DerivedField name="float(minMaxScaler(x32))" optype="continuous" dataType="float">
				<FieldRef field="minMaxScaler(x32)"/>
			</DerivedField>
			<DerivedField name="float(minMaxScaler(x33))" optype="continuous" dataType="float">
				<FieldRef field="minMaxScaler(x33)"/>
			</DerivedField>
			<DerivedField name="float(minMaxScaler(x34))" optype="continuous" dataType="float">
				<FieldRef field="minMaxScaler(x34)"/>
			</DerivedField>
			<DerivedField name="float(minMaxScaler(x35))" optype="continuous" dataType="float">
				<FieldRef field="minMaxScaler(x35)"/>
			</DerivedField>
			<DerivedField name="float(minMaxScaler(x36))" optype="continuous" dataType="float">
				<FieldRef field="minMaxScaler(x36)"/>
			</DerivedField>
			<DerivedField name="float(minMaxScaler(x37))" optype="continuous" dataType="float">
				<FieldRef field="minMaxScaler(x37)"/>
			</DerivedField>
			<DerivedField name="float(minMaxScaler(x38))" optype="continuous" dataType="float">
				<FieldRef field="minMaxScaler(x38)"/>
			</DerivedField>
			<DerivedField name="float(minMaxScaler(x41))" optype="continuous" dataType="float">
				<FieldRef field="minMaxScaler(x41)"/>
			</DerivedField>
			<DerivedField name="float(minMaxScaler(x42))" optype="continuous" dataType="float">
				<FieldRef field="minMaxScaler(x42)"/>
			</DerivedField>
			<DerivedField name="float(minMaxScaler(x43))" optype="continuous" dataType="float">
				<FieldRef field="minMaxScaler(x43)"/>
			</DerivedField>
			<DerivedField name="float(minMaxScaler(x44))" optype="continuous" dataType="float">
				<FieldRef field="minMaxScaler(x44)"/>
			</DerivedField>
			<DerivedField name="float(minMaxScaler(x45))" optype="continuous" dataType="float">
				<FieldRef field="minMaxScaler(x45)"/>
			</DerivedField>
			<DerivedField name="float(x46)" optype="continuous" dataType="float">
				<FieldRef field="x46"/>
			</DerivedField>
			<DerivedField name="float(minMaxScaler(x49))" optype="continuous" dataType="float">
				<FieldRef field="minMaxScaler(x49)"/>
			</DerivedField>
			<DerivedField name="float(x50)" optype="continuous" dataType="float">
				<FieldRef field="x50"/>
			</DerivedField>
			<DerivedField name="float(minMaxScaler(x51))" optype="continuous" dataType="float">
				<FieldRef field="minMaxScaler(x51)"/>
			</DerivedField>
			<DerivedField name="float(minMaxScaler(x52))" optype="continuous" dataType="float">
				<FieldRef field="minMaxScaler(x52)"/>
			</DerivedField>
			<DerivedField name="float(minMaxScaler(x55))" optype="continuous" dataType="float">
				<FieldRef field="minMaxScaler(x55)"/>
			</DerivedField>
			<DerivedField name="float(minMaxScaler(x56))" optype="continuous" dataType="float">
				<FieldRef field="minMaxScaler(x56)"/>
			</DerivedField>
			<DerivedField name="float(minMaxScaler(x57))" optype="continuous" dataType="float">
				<FieldRef field="minMaxScaler(x57)"/>
			</DerivedField>
			<DerivedField name="float(minMaxScaler(x58))" optype="continuous" dataType="float">
				<FieldRef field="minMaxScaler(x58)"/>
			</DerivedField>
			<DerivedField name="float(minMaxScaler(x61))" optype="continuous" dataType="float">
				<FieldRef field="minMaxScaler(x61)"/>
			</DerivedField>
			<DerivedField name="float(minMaxScaler(x62))" optype="continuous" dataType="float">
				<FieldRef field="minMaxScaler(x62)"/>
			</DerivedField>
			<DerivedField name="float(minMaxScaler(x65))" optype="continuous" dataType="float">
				<FieldRef field="minMaxScaler(x65)"/>
			</DerivedField>
			<DerivedField name="float(minMaxScaler(x66))" optype="continuous" dataType="float">
				<FieldRef field="minMaxScaler(x66)"/>
			</DerivedField>
			<DerivedField name="float(minMaxScaler(x67))" optype="continuous" dataType="float">
				<FieldRef field="minMaxScaler(x67)"/>
			</DerivedField>
			<DerivedField name="float(minMaxScaler(x68))" optype="continuous" dataType="float">
				<FieldRef field="minMaxScaler(x68)"/>
			</DerivedField>
			<DerivedField name="float(minMaxScaler(x69))" optype="continuous" dataType="float">
				<FieldRef field="minMaxScaler(x69)"/>
			</DerivedField>
			<DerivedField name="float(minMaxScaler(x70))" optype="continuous" dataType="float">
				<FieldRef field="minMaxScaler(x70)"/>
			</DerivedField>
			<DerivedField name="float(minMaxScaler(x77))" optype="continuous" dataType="float">
				<FieldRef field="minMaxScaler(x77)"/>
			</DerivedField>
			<DerivedField name="float(x78)" optype="continuous" dataType="float">
				<FieldRef field="x78"/>
			</DerivedField>
			<DerivedField name="double(float(minMaxScaler(x5)))" optype="continuous" dataType="double">
				<FieldRef field="float(minMaxScaler(x5))"/>
			</DerivedField>
			<DerivedField name="double(float(minMaxScaler(x68)))" optype="continuous" dataType="double">
				<FieldRef field="float(minMaxScaler(x68))"/>
			</DerivedField>
			<DerivedField name="double(float(minMaxScaler(x3)))" optype="continuous" dataType="double">
				<FieldRef field="float(minMaxScaler(x3))"/>
			</DerivedField>
			<DerivedField name="double(float(minMaxScaler(x12)))" optype="continuous" dataType="double">
				<FieldRef field="float(minMaxScaler(x12))"/>
			</DerivedField>
			<DerivedField name="double(float(minMaxScaler(x20)))" optype="continuous" dataType="double">
				<FieldRef field="float(minMaxScaler(x20))"/>
			</DerivedField>
			<DerivedField name="double(float(minMaxScaler(x7)))" optype="continuous" dataType="double">
				<FieldRef field="float(minMaxScaler(x7))"/>
			</DerivedField>
			<DerivedField name="double(float(minMaxScaler(x70)))" optype="continuous" dataType="double">
				<FieldRef field="float(minMaxScaler(x70))"/>
			</DerivedField>
			<DerivedField name="double(float(minMaxScaler(x8)))" optype="continuous" dataType="double">
				<FieldRef field="float(minMaxScaler(x8))"/>
			</DerivedField>
			<DerivedField name="double(float(minMaxScaler(x19)))" optype="continuous" dataType="double">
				<FieldRef field="float(minMaxScaler(x19))"/>
			</DerivedField>
			<DerivedField name="double(float(minMaxScaler(x42)))" optype="continuous" dataType="double">
				<FieldRef field="float(minMaxScaler(x42))"/>
			</DerivedField>
			<DerivedField name="double(float(minMaxScaler(x22)))" optype="continuous" dataType="double">
				<FieldRef field="float(minMaxScaler(x22))"/>
			</DerivedField>
			<DerivedField name="double(float(minMaxScaler(x56)))" optype="continuous" dataType="double">
				<FieldRef field="float(minMaxScaler(x56))"/>
			</DerivedField>
			<DerivedField name="double(float(minMaxScaler(x9)))" optype="continuous" dataType="double">
				<FieldRef field="float(minMaxScaler(x9))"/>
			</DerivedField>
			<DerivedField name="double(float(minMaxScaler(x4)))" optype="continuous" dataType="double">
				<FieldRef field="float(minMaxScaler(x4))"/>
			</DerivedField>
			<DerivedField name="double(float(minMaxScaler(x2)))" optype="continuous" dataType="double">
				<FieldRef field="float(minMaxScaler(x2))"/>
			</DerivedField>
			<DerivedField name="double(float(minMaxScaler(x11)))" optype="continuous" dataType="double">
				<FieldRef field="float(minMaxScaler(x11))"/>
			</DerivedField>
			<DerivedField name="double(float(minMaxScaler(x6)))" optype="continuous" dataType="double">
				<FieldRef field="float(minMaxScaler(x6))"/>
			</DerivedField>
			<DerivedField name="double(float(minMaxScaler(x13)))" optype="continuous" dataType="double">
				<FieldRef field="float(minMaxScaler(x13))"/>
			</DerivedField>
			<DerivedField name="double(float(minMaxScaler(x37)))" optype="continuous" dataType="double">
				<FieldRef field="float(minMaxScaler(x37))"/>
			</DerivedField>
			<DerivedField name="double(float(minMaxScaler(x62)))" optype="continuous" dataType="double">
				<FieldRef field="float(minMaxScaler(x62))"/>
			</DerivedField>
			<DerivedField name="double(float(minMaxScaler(x36)))" optype="continuous" dataType="double">
				<FieldRef field="float(minMaxScaler(x36))"/>
			</DerivedField>
			<DerivedField name="double(float(minMaxScaler(x67)))" optype="continuous" dataType="double">
				<FieldRef field="float(minMaxScaler(x67))"/>
			</DerivedField>
			<DerivedField name="double(float(minMaxScaler(x41)))" optype="continuous" dataType="double">
				<FieldRef field="float(minMaxScaler(x41))"/>
			</DerivedField>
			<DerivedField name="double(float(minMaxScaler(x28)))" optype="continuous" dataType="double">
				<FieldRef field="float(minMaxScaler(x28))"/>
			</DerivedField>
			<DerivedField name="double(float(minMaxScaler(x49)))" optype="continuous" dataType="double">
				<FieldRef field="float(minMaxScaler(x49))"/>
			</DerivedField>
			<DerivedField name="double(float(minMaxScaler(x35)))" optype="continuous" dataType="double">
				<FieldRef field="float(minMaxScaler(x35))"/>
			</DerivedField>
			<DerivedField name="double(float(minMaxScaler(x38)))" optype="continuous" dataType="double">
				<FieldRef field="float(minMaxScaler(x38))"/>
			</DerivedField>
			<DerivedField name="double(float(minMaxScaler(x15)))" optype="continuous" dataType="double">
				<FieldRef field="float(minMaxScaler(x15))"/>
			</DerivedField>
			<DerivedField name="double(float(minMaxScaler(x61)))" optype="continuous" dataType="double">
				<FieldRef field="float(minMaxScaler(x61))"/>
			</DerivedField>
			<DerivedField name="double(float(minMaxScaler(x34)))" optype="continuous" dataType="double">
				<FieldRef field="float(minMaxScaler(x34))"/>
			</DerivedField>
			<DerivedField name="double(float(minMaxScaler(x51)))" optype="continuous" dataType="double">
				<FieldRef field="float(minMaxScaler(x51))"/>
			</DerivedField>
			<DerivedField name="double(float(minMaxScaler(x26)))" optype="continuous" dataType="double">
				<FieldRef field="float(minMaxScaler(x26))"/>
			</DerivedField>
			<DerivedField name="double(float(minMaxScaler(x14)))" optype="continuous" dataType="double">
				<FieldRef field="float(minMaxScaler(x14))"/>
			</DerivedField>
			<DerivedField name="double(float(minMaxScaler(x55)))" optype="continuous" dataType="double">
				<FieldRef field="float(minMaxScaler(x55))"/>
			</DerivedField>
			<DerivedField name="double(float(minMaxScaler(x16)))" optype="continuous" dataType="double">
				<FieldRef field="float(minMaxScaler(x16))"/>
			</DerivedField>
			<DerivedField name="double(float(minMaxScaler(x65)))" optype="continuous" dataType="double">
				<FieldRef field="float(minMaxScaler(x65))"/>
			</DerivedField>
			<DerivedField name="double(float(minMaxScaler(x30)))" optype="continuous" dataType="double">
				<FieldRef field="float(minMaxScaler(x30))"/>
			</DerivedField>
			<DerivedField name="double(float(minMaxScaler(x10)))" optype="continuous" dataType="double">
				<FieldRef field="float(minMaxScaler(x10))"/>
			</DerivedField>
			<DerivedField name="double(float(minMaxScaler(x44)))" optype="continuous" dataType="double">
				<FieldRef field="float(minMaxScaler(x44))"/>
			</DerivedField>
			<DerivedField name="double(float(minMaxScaler(x52)))" optype="continuous" dataType="double">
				<FieldRef field="float(minMaxScaler(x52))"/>
			</DerivedField>
			<DerivedField name="double(float(minMaxScaler(x1)))" optype="continuous" dataType="double">
				<FieldRef field="float(minMaxScaler(x1))"/>
			</DerivedField>
			<DerivedField name="double(float(minMaxScaler(x25)))" optype="continuous" dataType="double">
				<FieldRef field="float(minMaxScaler(x25))"/>
			</DerivedField>
			<DerivedField name="double(float(minMaxScaler(x32)))" optype="continuous" dataType="double">
				<FieldRef field="float(minMaxScaler(x32))"/>
			</DerivedField>
			<DerivedField name="double(float(minMaxScaler(x27)))" optype="continuous" dataType="double">
				<FieldRef field="float(minMaxScaler(x27))"/>
			</DerivedField>
			<DerivedField name="double(float(minMaxScaler(x21)))" optype="continuous" dataType="double">
				<FieldRef field="float(minMaxScaler(x21))"/>
			</DerivedField>
			<DerivedField name="double(float(minMaxScaler(x31)))" optype="continuous" dataType="double">
				<FieldRef field="float(minMaxScaler(x31))"/>
			</DerivedField>
			<DerivedField name="double(float(x50))" optype="continuous" dataType="double">
				<FieldRef field="float(x50)"/>
			</DerivedField>
			<DerivedField name="double(float(minMaxScaler(x58)))" optype="continuous" dataType="double">
				<FieldRef field="float(minMaxScaler(x58))"/>
			</DerivedField>
			<DerivedField name="double(float(minMaxScaler(x33)))" optype="continuous" dataType="double">
				<FieldRef field="float(minMaxScaler(x33))"/>
			</DerivedField>
			<DerivedField name="double(float(minMaxScaler(x57)))" optype="continuous" dataType="double">
				<FieldRef field="float(minMaxScaler(x57))"/>
			</DerivedField>
			<DerivedField name="double(float(minMaxScaler(x77)))" optype="continuous" dataType="double">
				<FieldRef field="float(minMaxScaler(x77))"/>
			</DerivedField>
			<DerivedField name="double(float(x78))" optype="continuous" dataType="double">
				<FieldRef field="float(x78)"/>
			</DerivedField>
			<DerivedField name="double(float(x46))" optype="continuous" dataType="double">
				<FieldRef field="float(x46)"/>
			</DerivedField>
			<DerivedField name="double(float(minMaxScaler(x66)))" optype="continuous" dataType="double">
				<FieldRef field="float(minMaxScaler(x66))"/>
			</DerivedField>
			<DerivedField name="double(float(minMaxScaler(x45)))" optype="continuous" dataType="double">
				<FieldRef field="float(minMaxScaler(x45))"/>
			</DerivedField>
			<DerivedField name="double(float(minMaxScaler(x29)))" optype="continuous" dataType="double">
				<FieldRef field="float(minMaxScaler(x29))"/>
			</DerivedField>
			<DerivedField name="double(float(minMaxScaler(x69)))" optype="continuous" dataType="double">
				<FieldRef field="float(minMaxScaler(x69))"/>
			</DerivedField>
			<DerivedField name="double(float(minMaxScaler(x43)))" optype="continuous" dataType="double">
				<FieldRef field="float(minMaxScaler(x43))"/>
			</DerivedField>
		</LocalTransformations>
		<Segmentation multipleModelMethod="average">
			<Segment id="1">
				<True/>
				<TreeModel functionName="classification" splitCharacteristic="binarySplit">
					<MiningSchema>
						<MiningField name="double(float(minMaxScaler(x5)))"/>
						<MiningField name="double(float(minMaxScaler(x68)))"/>
						<MiningField name="double(float(minMaxScaler(x3)))"/>
						<MiningField name="double(float(minMaxScaler(x12)))"/>
						<MiningField name="double(float(minMaxScaler(x20)))"/>
						<MiningField name="double(float(minMaxScaler(x7)))"/>
						<MiningField name="double(float(minMaxScaler(x70)))"/>
						<MiningField name="double(float(minMaxScaler(x8)))"/>
						<MiningField name="double(float(minMaxScaler(x19)))"/>
						<MiningField name="double(float(minMaxScaler(x42)))"/>
						<MiningField name="double(float(minMaxScaler(x22)))"/>
						<MiningField name="double(float(minMaxScaler(x56)))"/>
						<MiningField name="double(float(minMaxScaler(x9)))"/>
					</MiningSchema>
					<Node>
						<True/>
						<Node>
							<SimplePredicate field="double(float(minMaxScaler(x5)))" operator="lessOrEqual" value="0.05125908553600311"/>
							<Node>
								<SimplePredicate field="double(float(minMaxScaler(x68)))" operator="lessOrEqual" value="0.0218585766851902"/>
								<Node>
									<SimplePredicate field="double(float(minMaxScaler(x3)))" operator="lessOrEqual" value="0.0631818175315857"/>
									<Node score="0" recordCount="9497">
										<SimplePredicate field="double(float(minMaxScaler(x12)))" operator="lessOrEqual" value="0.002349624061025679"/>
										<ScoreDistribution value="0" recordCount="9497"/>
										<ScoreDistribution value="1" recordCount="0"/>
									</Node>
									<Node score="0" recordCount="57472">
										<SimplePredicate field="double(float(minMaxScaler(x12)))" operator="greaterThan" value="0.002349624061025679"/>
										<ScoreDistribution value="0" recordCount="57427"/>
										<ScoreDistribution value="1" recordCount="45"/>
									</Node>
								</Node>
								<Node>
									<SimplePredicate field="double(float(minMaxScaler(x3)))" operator="greaterThan" value="0.0631818175315857"/>
									<Node score="0" recordCount="865137">
										<SimplePredicate field="double(float(minMaxScaler(x20)))" operator="lessOrEqual" value="0.6000000238418579"/>
										<ScoreDistribution value="0" recordCount="861443"/>
										<ScoreDistribution value="1" recordCount="3694"/>
									</Node>
									<Node score="1" recordCount="45">
										<SimplePredicate field="double(float(minMaxScaler(x20)))" operator="greaterThan" value="0.6000000238418579"/>
										<ScoreDistribution value="0" recordCount="2"/>
										<ScoreDistribution value="1" recordCount="43"/>
									</Node>
								</Node>
							</Node>
							<Node>
								<SimplePredicate field="double(float(minMaxScaler(x68)))" operator="greaterThan" value="0.0218585766851902"/>
								<Node>
									<SimplePredicate field="double(float(minMaxScaler(x7)))" operator="lessOrEqual" value="0.021088235080242157"/>
									<Node score="0" recordCount="2421">
										<SimplePredicate field="double(float(minMaxScaler(x70)))" operator="lessOrEqual" value="0.02580752596259117"/>
										<ScoreDistribution value="0" recordCount="2406"/>
										<ScoreDistribution value="1" recordCount="15"/>
									</Node>
									<Node score="0" recordCount="106">
										<SimplePredicate field="double(float(minMaxScaler(x70)))" operator="greaterThan" value="0.02580752596259117"/>
										<ScoreDistribution value="0" recordCount="94"/>
										<ScoreDistribution value="1" recordCount="12"/>
									</Node>
								</Node>
								<Node>
									<SimplePredicate field="double(float(minMaxScaler(x7)))" operator="greaterThan" value="0.021088235080242157"/>
									<Node score="0" recordCount="1357">
										<SimplePredicate field="double(float(minMaxScaler(x8)))" operator="lessOrEqual" value="0.030821917578577995"/>
										<ScoreDistribution value="0" recordCount="1316"/>
										<ScoreDistribution value="1" recordCount="41"/>
									</Node>
									<Node score="0" recordCount="396">
										<SimplePredicate field="double(float(minMaxScaler(x8)))" operator="greaterThan" value="0.030821917578577995"/>
										<ScoreDistribution value="0" recordCount="352"/>
										<ScoreDistribution value="1" recordCount="44"/>
									</Node>
								</Node>
							</Node>
						</Node>
						<Node>
							<SimplePredicate field="double(float(minMaxScaler(x5)))" operator="greaterThan" value="0.05125908553600311"/>
							<Node>
								<SimplePredicate field="double(float(minMaxScaler(x19)))" operator="lessOrEqual" value="0.009615384973585606"/>
								<Node>
									<SimplePredicate field="double(float(minMaxScaler(x42)))" operator="lessOrEqual" value="0.027056783437728882"/>
									<Node score="0" recordCount="2567">
										<SimplePredicate field="double(float(minMaxScaler(x22)))" operator="lessOrEqual" value="0.009186891838908195"/>
										<ScoreDistribution value="0" recordCount="2562"/>
										<ScoreDistribution value="1" recordCount="5"/>
									</Node>
									<Node score="0" recordCount="2899">
										<SimplePredicate field="double(float(minMaxScaler(x22)))" operator="greaterThan" value="0.009186891838908195"/>
										<ScoreDistribution value="0" recordCount="2849"/>
										<ScoreDistribution value="1" recordCount="50"/>
									</Node>
								</Node>
								<Node>
									<SimplePredicate field="double(float(minMaxScaler(x42)))" operator="greaterThan" value="0.027056783437728882"/>
									<Node score="0" recordCount="513">
										<SimplePredicate field="double(float(minMaxScaler(x7)))" operator="lessOrEqual" value="0.030652173794806004"/>
										<ScoreDistribution value="0" recordCount="506"/>
										<ScoreDistribution value="1" recordCount="7"/>
									</Node>
									<Node score="0" recordCount="177">
										<SimplePredicate field="double(float(minMaxScaler(x7)))" operator="greaterThan" value="0.030652173794806004"/>
										<ScoreDistribution value="0" recordCount="141"/>
										<ScoreDistribution value="1" recordCount="36"/>
									</Node>
								</Node>
							</Node>
							<Node>
								<SimplePredicate field="double(float(minMaxScaler(x19)))" operator="greaterThan" value="0.009615384973585606"/>
								<Node>
									<SimplePredicate field="double(float(minMaxScaler(x56)))" operator="lessOrEqual" value="0.05211781710386276"/>
									<Node score="0" recordCount="3842">
										<SimplePredicate field="double(float(minMaxScaler(x7)))" operator="lessOrEqual" value="0.008158705662935972"/>
										<ScoreDistribution value="0" recordCount="3818"/>
										<ScoreDistribution value="1" recordCount="24"/>
									</Node>
									<Node score="0" recordCount="6282">
										<SimplePredicate field="double(float(minMaxScaler(x7)))" operator="greaterThan" value="0.008158705662935972"/>
										<ScoreDistribution value="0" recordCount="6053"/>
										<ScoreDistribution value="1" recordCount="229"/>
									</Node>
								</Node>
								<Node>
									<SimplePredicate field="double(float(minMaxScaler(x56)))" operator="greaterThan" value="0.05211781710386276"/>
									<Node score="1" recordCount="474">
										<SimplePredicate field="double(float(minMaxScaler(x9)))" operator="lessOrEqual" value="4.5055191731080413E-4"/>
										<ScoreDistribution value="0" recordCount="232"/>
										<ScoreDistribution value="1" recordCount="242"/>
									</Node>
									<Node score="0" recordCount="1422">
										<SimplePredicate field="double(float(minMaxScaler(x9)))" operator="greaterThan" value="4.5055191731080413E-4"/>
										<ScoreDistribution value="0" recordCount="1346"/>
										<ScoreDistribution value="1" recordCount="76"/>
									</Node>
								</Node>
							</Node>
						</Node>
					</Node>
				</TreeModel>
			</Segment>
			<Segment id="2">
				<True/>
				<TreeModel functionName="classification" splitCharacteristic="binarySplit">
					<MiningSchema>
						<MiningField name="double(float(minMaxScaler(x12)))"/>
						<MiningField name="double(float(minMaxScaler(x20)))"/>
						<MiningField name="double(float(minMaxScaler(x8)))"/>
						<MiningField name="double(float(minMaxScaler(x22)))"/>
						<MiningField name="double(float(minMaxScaler(x9)))"/>
						<MiningField name="double(float(minMaxScaler(x4)))"/>
						<MiningField name="double(float(minMaxScaler(x2)))"/>
						<MiningField name="double(float(minMaxScaler(x11)))"/>
						<MiningField name="double(float(minMaxScaler(x6)))"/>
						<MiningField name="double(float(minMaxScaler(x13)))"/>
						<MiningField name="double(float(minMaxScaler(x37)))"/>
						<MiningField name="double(float(minMaxScaler(x62)))"/>
						<MiningField name="double(float(minMaxScaler(x36)))"/>
					</MiningSchema>
					<Node>
						<True/>
						<Node>
							<SimplePredicate field="double(float(minMaxScaler(x4)))" operator="lessOrEqual" value="0.0017988767940551043"/>
							<Node>
								<SimplePredicate field="double(float(minMaxScaler(x2)))" operator="lessOrEqual" value="0.027123626321554184"/>
								<Node>
									<SimplePredicate field="double(float(minMaxScaler(x11)))" operator="lessOrEqual" value="0.22469636052846909"/>
									<Node score="0" recordCount="747714">
										<SimplePredicate field="double(float(minMaxScaler(x20)))" operator="lessOrEqual" value="0.6000000238418579"/>
										<ScoreDistribution value="0" recordCount="744825"/>
										<ScoreDistribution value="1" recordCount="2889"/>
									</Node>
									<Node score="1" recordCount="47">
										<SimplePredicate field="double(float(minMaxScaler(x20)))" operator="greaterThan" value="0.6000000238418579"/>
										<ScoreDistribution value="0" recordCount="3"/>
										<ScoreDistribution value="1" recordCount="44"/>
									</Node>
								</Node>
								<Node>
									<SimplePredicate field="double(float(minMaxScaler(x11)))" operator="greaterThan" value="0.22469636052846909"/>
									<Node score="1" recordCount="387">
										<SimplePredicate field="double(float(minMaxScaler(x6)))" operator="lessOrEqual" value="0.010204081423580647"/>
										<ScoreDistribution value="0" recordCount="161"/>
										<ScoreDistribution value="1" recordCount="226"/>
									</Node>
									<Node score="0" recordCount="8124">
										<SimplePredicate field="double(float(minMaxScaler(x6)))" operator="greaterThan" value="0.010204081423580647"/>
										<ScoreDistribution value="0" recordCount="7817"/>
										<ScoreDistribution value="1" recordCount="307"/>
									</Node>
								</Node>
							</Node>
							<Node>
								<SimplePredicate field="double(float(minMaxScaler(x2)))" operator="greaterThan" value="0.027123626321554184"/>
								<Node>
									<SimplePredicate field="double(float(minMaxScaler(x4)))" operator="lessOrEqual" value="4.3875043047592044E-5"/>
									<Node score="0" recordCount="70127">
										<SimplePredicate field="double(float(minMaxScaler(x8)))" operator="lessOrEqual" value="0.02397260256111622"/>
										<ScoreDistribution value="0" recordCount="70101"/>
										<ScoreDistribution value="1" recordCount="26"/>
									</Node>
									<Node score="0" recordCount="28032">
										<SimplePredicate field="double(float(minMaxScaler(x8)))" operator="greaterThan" value="0.02397260256111622"/>
										<ScoreDistribution value="0" recordCount="28001"/>
										<ScoreDistribution value="1" recordCount="31"/>
									</Node>
								</Node>
								<Node>
									<SimplePredicate field="double(float(minMaxScaler(x4)))" operator="greaterThan" value="4.3875043047592044E-5"/>
									<Node score="0" recordCount="13458">
										<SimplePredicate field="double(float(minMaxScaler(x13)))" operator="lessOrEqual" value="0.06544961035251617"/>
										<ScoreDistribution value="0" recordCount="13326"/>
										<ScoreDistribution value="1" recordCount="132"/>
									</Node>
									<Node score="0" recordCount="36728">
										<SimplePredicate field="double(float(minMaxScaler(x13)))" operator="greaterThan" value="0.06544961035251617"/>
										<ScoreDistribution value="0" recordCount="36678"/>
										<ScoreDistribution value="1" recordCount="50"/>
									</Node>
								</Node>
							</Node>
						</Node>
						<Node>
							<SimplePredicate field="double(float(minMaxScaler(x4)))" operator="greaterThan" value="0.0017988767940551043"/>
							<Node>
								<SimplePredicate field="double(float(minMaxScaler(x12)))" operator="lessOrEqual" value="0.025845864787697792"/>
								<Node>
									<SimplePredicate field="double(float(minMaxScaler(x22)))" operator="lessOrEqual" value="0.003016591304913163"/>
									<Node score="0" recordCount="1166">
										<SimplePredicate field="double(float(minMaxScaler(x37)))" operator="lessOrEqual" value="0.007575757801532745"/>
										<ScoreDistribution value="0" recordCount="1158"/>
										<ScoreDistribution value="1" recordCount="8"/>
									</Node>
									<Node score="1" recordCount="385">
										<SimplePredicate field="double(float(minMaxScaler(x37)))" operator="greaterThan" value="0.007575757801532745"/>
										<ScoreDistribution value="0" recordCount="154"/>
										<ScoreDistribution value="1" recordCount="231"/>
									</Node>
								</Node>
								<Node>
									<SimplePredicate field="double(float(minMaxScaler(x22)))" operator="greaterThan" value="0.003016591304913163"/>
									<Node score="0" recordCount="71">
										<SimplePredicate field="double(float(minMaxScaler(x2)))" operator="lessOrEqual" value="0.013167260214686394"/>
										<ScoreDistribution value="0" recordCount="57"/>
										<ScoreDistribution value="1" recordCount="14"/>
									</Node>
									<Node score="0" recordCount="2684">
										<SimplePredicate field="double(float(minMaxScaler(x2)))" operator="greaterThan" value="0.013167260214686394"/>
										<ScoreDistribution value="0" recordCount="2625"/>
										<ScoreDistribution value="1" recordCount="59"/>
									</Node>
								</Node>
							</Node>
							<Node>
								<SimplePredicate field="double(float(minMaxScaler(x12)))" operator="greaterThan" value="0.025845864787697792"/>
								<Node>
									<SimplePredicate field="double(float(minMaxScaler(x62)))" operator="lessOrEqual" value="0.0026845686370506883"/>
									<Node score="0" recordCount="8395">
										<SimplePredicate field="double(float(minMaxScaler(x9)))" operator="lessOrEqual" value="0.004037793260067701"/>
										<ScoreDistribution value="0" recordCount="8381"/>
										<ScoreDistribution value="1" recordCount="14"/>
									</Node>
									<Node score="0" recordCount="14979">
										<SimplePredicate field="double(float(minMaxScaler(x9)))" operator="greaterThan" value="0.004037793260067701"/>
										<ScoreDistribution value="0" recordCount="14854"/>
										<ScoreDistribution value="1" recordCount="125"/>
									</Node>
								</Node>
								<Node>
									<SimplePredicate field="double(float(minMaxScaler(x62)))" operator="greaterThan" value="0.0026845686370506883"/>
									<Node score="0" recordCount="19713">
										<SimplePredicate field="double(float(minMaxScaler(x36)))" operator="lessOrEqual" value="0.009552648290991783"/>
										<ScoreDistribution value="0" recordCount="19403"/>
										<ScoreDistribution value="1" recordCount="310"/>
									</Node>
									<Node score="0" recordCount="2597">
										<SimplePredicate field="double(float(minMaxScaler(x36)))" operator="greaterThan" value="0.009552648290991783"/>
										<ScoreDistribution value="0" recordCount="2436"/>
										<ScoreDistribution value="1" recordCount="161"/>
									</Node>
								</Node>
							</Node>
						</Node>
					</Node>
				</TreeModel>
			</Segment>
			<Segment id="3">
				<True/>
				<TreeModel functionName="classification" splitCharacteristic="binarySplit">
					<MiningSchema>
						<MiningField name="double(float(minMaxScaler(x5)))"/>
						<MiningField name="double(float(minMaxScaler(x20)))"/>
						<MiningField name="double(float(minMaxScaler(x7)))"/>
						<MiningField name="double(float(minMaxScaler(x8)))"/>
						<MiningField name="double(float(minMaxScaler(x9)))"/>
						<MiningField name="double(float(minMaxScaler(x13)))"/>
						<MiningField name="double(float(minMaxScaler(x67)))"/>
						<MiningField name="double(float(minMaxScaler(x41)))"/>
						<MiningField name="double(float(minMaxScaler(x28)))"/>
						<MiningField name="double(float(minMaxScaler(x49)))"/>
						<MiningField name="double(float(minMaxScaler(x35)))"/>
						<MiningField name="double(float(minMaxScaler(x38)))"/>
						<MiningField name="double(float(minMaxScaler(x15)))"/>
					</MiningSchema>
					<Node>
						<True/>
						<Node>
							<SimplePredicate field="double(float(minMaxScaler(x67)))" operator="lessOrEqual" value="0.10000000149011612"/>
							<Node>
								<SimplePredicate field="double(float(minMaxScaler(x20)))" operator="lessOrEqual" value="0.6000000238418579"/>
								<Node>
									<SimplePredicate field="double(float(minMaxScaler(x41)))" operator="lessOrEqual" value="0.017241379246115685"/>
									<Node score="0" recordCount="900176">
										<SimplePredicate field="double(float(minMaxScaler(x28)))" operator="lessOrEqual" value="0.014634494669735432"/>
										<ScoreDistribution value="0" recordCount="896653"/>
										<ScoreDistribution value="1" recordCount="3523"/>
									</Node>
									<Node score="0" recordCount="1981">
										<SimplePredicate field="double(float(minMaxScaler(x28)))" operator="greaterThan" value="0.014634494669735432"/>
										<ScoreDistribution value="0" recordCount="1925"/>
										<ScoreDistribution value="1" recordCount="56"/>
									</Node>
								</Node>
								<Node>
									<SimplePredicate field="double(float(minMaxScaler(x41)))" operator="greaterThan" value="0.017241379246115685"/>
									<Node score="0" recordCount="20018">
										<SimplePredicate field="double(float(minMaxScaler(x9)))" operator="lessOrEqual" value="0.007373663131147623"/>
										<ScoreDistribution value="0" recordCount="19898"/>
										<ScoreDistribution value="1" recordCount="120"/>
									</Node>
									<Node score="0" recordCount="26284">
										<SimplePredicate field="double(float(minMaxScaler(x9)))" operator="greaterThan" value="0.007373663131147623"/>
										<ScoreDistribution value="0" recordCount="25872"/>
										<ScoreDistribution value="1" recordCount="412"/>
									</Node>
								</Node>
							</Node>
							<Node>
								<SimplePredicate field="double(float(minMaxScaler(x20)))" operator="greaterThan" value="0.6000000238418579"/>
								<Node score="1" recordCount="31">
									<SimplePredicate field="double(float(minMaxScaler(x13)))" operator="lessOrEqual" value="0.011980853974819183"/>
									<ScoreDistribution value="0" recordCount="3"/>
									<ScoreDistribution value="1" recordCount="28"/>
								</Node>
								<Node score="1" recordCount="37">
									<SimplePredicate field="double(float(minMaxScaler(x13)))" operator="greaterThan" value="0.011980853974819183"/>
									<ScoreDistribution value="0" recordCount="3"/>
									<ScoreDistribution value="1" recordCount="34"/>
								</Node>
							</Node>
						</Node>
						<Node>
							<SimplePredicate field="double(float(minMaxScaler(x67)))" operator="greaterThan" value="0.10000000149011612"/>
							<Node>
								<SimplePredicate field="double(float(minMaxScaler(x49)))" operator="lessOrEqual" value="0.003448275849223137"/>
								<Node>
									<SimplePredicate field="double(float(minMaxScaler(x35)))" operator="lessOrEqual" value="0.0755813978612423"/>
									<Node score="0" recordCount="3662">
										<SimplePredicate field="double(float(minMaxScaler(x7)))" operator="lessOrEqual" value="0.02655367273837328"/>
										<ScoreDistribution value="0" recordCount="3623"/>
										<ScoreDistribution value="1" recordCount="39"/>
									</Node>
									<Node score="0" recordCount="1616">
										<SimplePredicate field="double(float(minMaxScaler(x7)))" operator="greaterThan" value="0.02655367273837328"/>
										<ScoreDistribution value="0" recordCount="1554"/>
										<ScoreDistribution value="1" recordCount="62"/>
									</Node>
								</Node>
								<Node>
									<SimplePredicate field="double(float(minMaxScaler(x35)))" operator="greaterThan" value="0.0755813978612423"/>
									<Node score="0" recordCount="67">
										<SimplePredicate field="double(float(minMaxScaler(x38)))" operator="lessOrEqual" value="0.0016447368543595076"/>
										<ScoreDistribution value="0" recordCount="36"/>
										<ScoreDistribution value="1" recordCount="31"/>
									</Node>
									<Node score="0" recordCount="42">
										<SimplePredicate field="double(float(minMaxScaler(x38)))" operator="greaterThan" value="0.0016447368543595076"/>
										<ScoreDistribution value="0" recordCount="41"/>
										<ScoreDistribution value="1" recordCount="1"/>
									</Node>
								</Node>
							</Node>
							<Node>
								<SimplePredicate field="double(float(minMaxScaler(x49)))" operator="greaterThan" value="0.003448275849223137"/>
								<Node>
									<SimplePredicate field="double(float(minMaxScaler(x15)))" operator="lessOrEqual" value="0.005578093230724335"/>
									<Node score="0" recordCount="71">
										<SimplePredicate field="double(float(minMaxScaler(x5)))" operator="lessOrEqual" value="0.05367475561797619"/>
										<ScoreDistribution value="0" recordCount="65"/>
										<ScoreDistribution value="1" recordCount="6"/>
									</Node>
									<Node score="1" recordCount="205">
										<SimplePredicate field="double(float(minMaxScaler(x5)))" operator="greaterThan" value="0.05367475561797619"/>
										<ScoreDistribution value="0" recordCount="0"/>
										<ScoreDistribution value="1" recordCount="205"/>
									</Node>
								</Node>
								<Node>
									<SimplePredicate field="double(float(minMaxScaler(x15)))" operator="greaterThan" value="0.005578093230724335"/>
									<Node score="0" recordCount="325">
										<SimplePredicate field="double(float(minMaxScaler(x8)))" operator="lessOrEqual" value="0.030821917578577995"/>
										<ScoreDistribution value="0" recordCount="317"/>
										<ScoreDistribution value="1" recordCount="8"/>
									</Node>
									<Node score="0" recordCount="92">
										<SimplePredicate field="double(float(minMaxScaler(x8)))" operator="greaterThan" value="0.030821917578577995"/>
										<ScoreDistribution value="0" recordCount="65"/>
										<ScoreDistribution value="1" recordCount="27"/>
									</Node>
								</Node>
							</Node>
						</Node>
					</Node>
				</TreeModel>
			</Segment>
			<Segment id="4">
				<True/>
				<TreeModel functionName="classification" splitCharacteristic="binarySplit">
					<MiningSchema>
						<MiningField name="double(float(minMaxScaler(x5)))"/>
						<MiningField name="double(float(minMaxScaler(x68)))"/>
						<MiningField name="double(float(minMaxScaler(x20)))"/>
						<MiningField name="double(float(minMaxScaler(x7)))"/>
						<MiningField name="double(float(minMaxScaler(x22)))"/>
						<MiningField name="double(float(minMaxScaler(x11)))"/>
						<MiningField name="double(float(minMaxScaler(x6)))"/>
						<MiningField name="double(float(minMaxScaler(x13)))"/>
						<MiningField name="double(float(minMaxScaler(x61)))"/>
						<MiningField name="double(float(minMaxScaler(x34)))"/>
						<MiningField name="double(float(minMaxScaler(x51)))"/>
						<MiningField name="double(float(minMaxScaler(x26)))"/>
						<MiningField name="double(float(minMaxScaler(x14)))"/>
					</MiningSchema>
					<Node>
						<True/>
						<Node>
							<SimplePredicate field="double(float(minMaxScaler(x7)))" operator="lessOrEqual" value="0.1184999980032444"/>
							<Node>
								<SimplePredicate field="double(float(minMaxScaler(x68)))" operator="lessOrEqual" value="0.011019367724657059"/>
								<Node>
									<SimplePredicate field="double(float(minMaxScaler(x61)))" operator="lessOrEqual" value="0.003448275849223137"/>
									<Node score="0" recordCount="615818">
										<SimplePredicate field="double(float(minMaxScaler(x5)))" operator="lessOrEqual" value="0.003893429646268487"/>
										<ScoreDistribution value="0" recordCount="614818"/>
										<ScoreDistribution value="1" recordCount="1000"/>
									</Node>
									<Node score="0" recordCount="171027">
										<SimplePredicate field="double(float(minMaxScaler(x5)))" operator="greaterThan" value="0.003893429646268487"/>
										<ScoreDistribution value="0" recordCount="169973"/>
										<ScoreDistribution value="1" recordCount="1054"/>
									</Node>
								</Node>
								<Node>
									<SimplePredicate field="double(float(minMaxScaler(x61)))" operator="greaterThan" value="0.003448275849223137"/>
									<Node score="0" recordCount="43928">
										<SimplePredicate field="double(float(minMaxScaler(x6)))" operator="lessOrEqual" value="0.010204081423580647"/>
										<ScoreDistribution value="0" recordCount="43767"/>
										<ScoreDistribution value="1" recordCount="161"/>
									</Node>
									<Node score="0" recordCount="50429">
										<SimplePredicate field="double(float(minMaxScaler(x6)))" operator="greaterThan" value="0.010204081423580647"/>
										<ScoreDistribution value="0" recordCount="49804"/>
										<ScoreDistribution value="1" recordCount="625"/>
									</Node>
								</Node>
							</Node>
							<Node>
								<SimplePredicate field="double(float(minMaxScaler(x68)))" operator="greaterThan" value="0.011019367724657059"/>
								<Node>
									<SimplePredicate field="double(float(minMaxScaler(x22)))" operator="lessOrEqual" value="0.007757496787235141"/>
									<Node score="0" recordCount="1061">
										<SimplePredicate field="double(float(minMaxScaler(x34)))" operator="lessOrEqual" value="0.026600331999361515"/>
										<ScoreDistribution value="0" recordCount="1039"/>
										<ScoreDistribution value="1" recordCount="22"/>
									</Node>
									<Node score="0" recordCount="970">
										<SimplePredicate field="double(float(minMaxScaler(x34)))" operator="greaterThan" value="0.026600331999361515"/>
										<ScoreDistribution value="0" recordCount="684"/>
										<ScoreDistribution value="1" recordCount="286"/>
									</Node>
								</Node>
								<Node>
									<SimplePredicate field="double(float(minMaxScaler(x22)))" operator="greaterThan" value="0.007757496787235141"/>
									<Node score="0" recordCount="3012">
										<SimplePredicate field="double(float(minMaxScaler(x51)))" operator="lessOrEqual" value="0.022058823611587286"/>
										<ScoreDistribution value="0" recordCount="2956"/>
										<ScoreDistribution value="1" recordCount="56"/>
									</Node>
									<Node score="0" recordCount="634">
										<SimplePredicate field="double(float(minMaxScaler(x51)))" operator="greaterThan" value="0.022058823611587286"/>
										<ScoreDistribution value="0" recordCount="585"/>
										<ScoreDistribution value="1" recordCount="49"/>
									</Node>
								</Node>
							</Node>
						</Node>
						<Node>
							<SimplePredicate field="double(float(minMaxScaler(x7)))" operator="greaterThan" value="0.1184999980032444"/>
							<Node>
								<SimplePredicate field="double(float(minMaxScaler(x11)))" operator="lessOrEqual" value="0.22469636052846909"/>
								<Node>
									<SimplePredicate field="double(float(minMaxScaler(x20)))" operator="lessOrEqual" value="0.5000000149011612"/>
									<Node score="0" recordCount="55595">
										<SimplePredicate field="double(float(minMaxScaler(x13)))" operator="lessOrEqual" value="0.19913609325885773"/>
										<ScoreDistribution value="0" recordCount="54952"/>
										<ScoreDistribution value="1" recordCount="643"/>
									</Node>
									<Node score="0" recordCount="3575">
										<SimplePredicate field="double(float(minMaxScaler(x13)))" operator="greaterThan" value="0.19913609325885773"/>
										<ScoreDistribution value="0" recordCount="3574"/>
										<ScoreDistribution value="1" recordCount="1"/>
									</Node>
								</Node>
								<Node score="1" recordCount="41">
									<SimplePredicate field="double(float(minMaxScaler(x20)))" operator="greaterThan" value="0.5000000149011612"/>
									<ScoreDistribution value="0" recordCount="0"/>
									<ScoreDistribution value="1" recordCount="41"/>
								</Node>
							</Node>
							<Node>
								<SimplePredicate field="double(float(minMaxScaler(x11)))" operator="greaterThan" value="0.22469636052846909"/>
								<Node>
									<SimplePredicate field="double(float(minMaxScaler(x7)))" operator="lessOrEqual" value="0.35538461804389954"/>
									<Node score="0" recordCount="8033">
										<SimplePredicate field="double(float(minMaxScaler(x26)))" operator="lessOrEqual" value="0.45000000298023224"/>
										<ScoreDistribution value="0" recordCount="7592"/>
										<ScoreDistribution value="1" recordCount="441"/>
									</Node>
									<Node score="0" recordCount="90">
										<SimplePredicate field="double(float(minMaxScaler(x26)))" operator="greaterThan" value="0.45000000298023224"/>
										<ScoreDistribution value="0" recordCount="65"/>
										<ScoreDistribution value="1" recordCount="25"/>
									</Node>
								</Node>
								<Node>
									<SimplePredicate field="double(float(minMaxScaler(x7)))" operator="greaterThan" value="0.35538461804389954"/>
									<Node score="0" recordCount="305">
										<SimplePredicate field="double(float(minMaxScaler(x14)))" operator="lessOrEqual" value="0.15047531574964523"/>
										<ScoreDistribution value="0" recordCount="270"/>
										<ScoreDistribution value="1" recordCount="35"/>
									</Node>
									<Node score="0" recordCount="89">
										<SimplePredicate field="double(float(minMaxScaler(x14)))" operator="greaterThan" value="0.15047531574964523"/>
										<ScoreDistribution value="0" recordCount="46"/>
										<ScoreDistribution value="1" recordCount="43"/>
									</Node>
								</Node>
							</Node>
						</Node>
					</Node>
				</TreeModel>
			</Segment>
			<Segment id="5">
				<True/>
				<TreeModel functionName="classification" splitCharacteristic="binarySplit">
					<MiningSchema>
						<MiningField name="double(float(minMaxScaler(x20)))"/>
						<MiningField name="double(float(minMaxScaler(x70)))"/>
						<MiningField name="double(float(minMaxScaler(x8)))"/>
						<MiningField name="double(float(minMaxScaler(x19)))"/>
						<MiningField name="double(float(minMaxScaler(x22)))"/>
						<MiningField name="double(float(minMaxScaler(x9)))"/>
						<MiningField name="double(float(minMaxScaler(x4)))"/>
						<MiningField name="double(float(minMaxScaler(x36)))"/>
						<MiningField name="double(float(minMaxScaler(x38)))"/>
						<MiningField name="double(float(minMaxScaler(x61)))"/>
						<MiningField name="double(float(minMaxScaler(x55)))"/>
						<MiningField name="double(float(minMaxScaler(x16)))"/>
						<MiningField name="double(float(minMaxScaler(x65)))"/>
					</MiningSchema>
					<Node>
						<True/>
						<Node>
							<SimplePredicate field="double(float(minMaxScaler(x38)))" operator="lessOrEqual" value="0.0010802468750625849"/>
							<Node>
								<SimplePredicate field="double(float(minMaxScaler(x9)))" operator="lessOrEqual" value="0.1628681644797325"/>
								<Node>
									<SimplePredicate field="double(float(minMaxScaler(x55)))" operator="lessOrEqual" value="0.003448275849223137"/>
									<Node score="0" recordCount="860802">
										<SimplePredicate field="double(float(minMaxScaler(x22)))" operator="lessOrEqual" value="0.3041144907474518"/>
										<ScoreDistribution value="0" recordCount="858145"/>
										<ScoreDistribution value="1" recordCount="2657"/>
									</Node>
									<Node score="0" recordCount="2845">
										<SimplePredicate field="double(float(minMaxScaler(x22)))" operator="greaterThan" value="0.3041144907474518"/>
										<ScoreDistribution value="0" recordCount="2688"/>
										<ScoreDistribution value="1" recordCount="157"/>
									</Node>
								</Node>
								<Node>
									<SimplePredicate field="double(float(minMaxScaler(x55)))" operator="greaterThan" value="0.003448275849223137"/>
									<Node score="0" recordCount="40006">
										<SimplePredicate field="double(float(minMaxScaler(x36)))" operator="lessOrEqual" value="0.023688342422246933"/>
										<ScoreDistribution value="0" recordCount="39653"/>
										<ScoreDistribution value="1" recordCount="353"/>
									</Node>
									<Node score="0" recordCount="2935">
										<SimplePredicate field="double(float(minMaxScaler(x36)))" operator="greaterThan" value="0.023688342422246933"/>
										<ScoreDistribution value="0" recordCount="2802"/>
										<ScoreDistribution value="1" recordCount="133"/>
									</Node>
								</Node>
							</Node>
							<Node>
								<SimplePredicate field="double(float(minMaxScaler(x9)))" operator="greaterThan" value="0.1628681644797325"/>
								<Node>
									<SimplePredicate field="double(float(minMaxScaler(x8)))" operator="lessOrEqual" value="0.010273972526192665"/>
									<Node score="1" recordCount="631">
										<SimplePredicate field="double(float(minMaxScaler(x16)))" operator="lessOrEqual" value="0.058884067460894585"/>
										<ScoreDistribution value="0" recordCount="167"/>
										<ScoreDistribution value="1" recordCount="464"/>
									</Node>
									<Node score="1" recordCount="157">
										<SimplePredicate field="double(float(minMaxScaler(x16)))" operator="greaterThan" value="0.058884067460894585"/>
										<ScoreDistribution value="0" recordCount="68"/>
										<ScoreDistribution value="1" recordCount="89"/>
									</Node>
								</Node>
								<Node>
									<SimplePredicate field="double(float(minMaxScaler(x8)))" operator="greaterThan" value="0.010273972526192665"/>
									<Node score="0" recordCount="34475">
										<SimplePredicate field="double(float(minMaxScaler(x22)))" operator="lessOrEqual" value="0.29807692766189575"/>
										<ScoreDistribution value="0" recordCount="34266"/>
										<ScoreDistribution value="1" recordCount="209"/>
									</Node>
									<Node score="0" recordCount="528">
										<SimplePredicate field="double(float(minMaxScaler(x22)))" operator="greaterThan" value="0.29807692766189575"/>
										<ScoreDistribution value="0" recordCount="391"/>
										<ScoreDistribution value="1" recordCount="137"/>
									</Node>
								</Node>
							</Node>
						</Node>
						<Node>
							<SimplePredicate field="double(float(minMaxScaler(x38)))" operator="greaterThan" value="0.0010802468750625849"/>
							<Node>
								<SimplePredicate field="double(float(minMaxScaler(x61)))" operator="lessOrEqual" value="0.003448275849223137"/>
								<Node>
									<SimplePredicate field="double(float(minMaxScaler(x70)))" operator="lessOrEqual" value="0.08088235557079315"/>
									<Node score="0" recordCount="6886">
										<SimplePredicate field="double(float(minMaxScaler(x19)))" operator="lessOrEqual" value="0.028846154920756817"/>
										<ScoreDistribution value="0" recordCount="6866"/>
										<ScoreDistribution value="1" recordCount="20"/>
									</Node>
									<Node score="0" recordCount="1668">
										<SimplePredicate field="double(float(minMaxScaler(x19)))" operator="greaterThan" value="0.028846154920756817"/>
										<ScoreDistribution value="0" recordCount="1638"/>
										<ScoreDistribution value="1" recordCount="30"/>
									</Node>
								</Node>
								<Node score="0" recordCount="90">
									<SimplePredicate field="double(float(minMaxScaler(x70)))" operator="greaterThan" value="0.08088235557079315"/>
									<ScoreDistribution value="0" recordCount="81"/>
									<ScoreDistribution value="1" recordCount="9"/>
								</Node>
							</Node>
							<Node>
								<SimplePredicate field="double(float(minMaxScaler(x61)))" operator="greaterThan" value="0.003448275849223137"/>
								<Node>
									<SimplePredicate field="double(float(minMaxScaler(x20)))" operator="lessOrEqual" value="0.011445132084190845"/>
									<Node score="0" recordCount="1229">
										<SimplePredicate field="double(float(minMaxScaler(x4)))" operator="lessOrEqual" value="0.012723762542009354"/>
										<ScoreDistribution value="0" recordCount="1220"/>
										<ScoreDistribution value="1" recordCount="9"/>
									</Node>
									<Node score="0" recordCount="548">
										<SimplePredicate field="double(float(minMaxScaler(x4)))" operator="greaterThan" value="0.012723762542009354"/>
										<ScoreDistribution value="0" recordCount="525"/>
										<ScoreDistribution value="1" recordCount="23"/>
									</Node>
								</Node>
								<Node>
									<SimplePredicate field="double(float(minMaxScaler(x20)))" operator="greaterThan" value="0.011445132084190845"/>
									<Node score="0" recordCount="1100">
										<SimplePredicate field="double(float(minMaxScaler(x65)))" operator="lessOrEqual" value="0.010638297535479069"/>
										<ScoreDistribution value="0" recordCount="1055"/>
										<ScoreDistribution value="1" recordCount="45"/>
									</Node>
									<Node score="0" recordCount="707">
										<SimplePredicate field="double(float(minMaxScaler(x65)))" operator="greaterThan" value="0.010638297535479069"/>
										<ScoreDistribution value="0" recordCount="422"/>
										<ScoreDistribution value="1" recordCount="285"/>
									</Node>
								</Node>
							</Node>
						</Node>
					</Node>
				</TreeModel>
			</Segment>
			<Segment id="6">
				<True/>
				<TreeModel functionName="classification" splitCharacteristic="binarySplit">
					<MiningSchema>
						<MiningField name="double(float(minMaxScaler(x8)))"/>
						<MiningField name="double(float(minMaxScaler(x19)))"/>
						<MiningField name="double(float(minMaxScaler(x9)))"/>
						<MiningField name="double(float(minMaxScaler(x4)))"/>
						<MiningField name="double(float(minMaxScaler(x2)))"/>
						<MiningField name="double(float(minMaxScaler(x11)))"/>
						<MiningField name="double(float(minMaxScaler(x37)))"/>
						<MiningField name="double(float(minMaxScaler(x62)))"/>
						<MiningField name="double(float(minMaxScaler(x61)))"/>
						<MiningField name="double(float(minMaxScaler(x51)))"/>
						<MiningField name="double(float(minMaxScaler(x14)))"/>
						<MiningField name="double(float(minMaxScaler(x30)))"/>
						<MiningField name="double(float(minMaxScaler(x10)))"/>
						<MiningField name="double(float(minMaxScaler(x44)))"/>
					</MiningSchema>
					<Node>
						<True/>
						<Node>
							<SimplePredicate field="double(float(minMaxScaler(x9)))" operator="lessOrEqual" value="0.1628681644797325"/>
							<Node>
								<SimplePredicate field="double(float(minMaxScaler(x30)))" operator="lessOrEqual" value="0.006985721178352833"/>
								<Node>
									<SimplePredicate field="double(float(minMaxScaler(x62)))" operator="lessOrEqual" value="0.004219484515488148"/>
									<Node score="0" recordCount="529387">
										<SimplePredicate field="double(float(minMaxScaler(x10)))" operator="lessOrEqual" value="0.008620689623057842"/>
										<ScoreDistribution value="0" recordCount="528217"/>
										<ScoreDistribution value="1" recordCount="1170"/>
									</Node>
									<Node score="0" recordCount="276158">
										<SimplePredicate field="double(float(minMaxScaler(x10)))" operator="greaterThan" value="0.008620689623057842"/>
										<ScoreDistribution value="0" recordCount="274986"/>
										<ScoreDistribution value="1" recordCount="1172"/>
									</Node>
								</Node>
								<Node>
									<SimplePredicate field="double(float(minMaxScaler(x62)))" operator="greaterThan" value="0.004219484515488148"/>
									<Node score="0" recordCount="86215">
										<SimplePredicate field="double(float(minMaxScaler(x37)))" operator="lessOrEqual" value="0.007575757801532745"/>
										<ScoreDistribution value="0" recordCount="85504"/>
										<ScoreDistribution value="1" recordCount="711"/>
									</Node>
									<Node score="0" recordCount="2541">
										<SimplePredicate field="double(float(minMaxScaler(x37)))" operator="greaterThan" value="0.007575757801532745"/>
										<ScoreDistribution value="0" recordCount="2314"/>
										<ScoreDistribution value="1" recordCount="227"/>
									</Node>
								</Node>
							</Node>
							<Node>
								<SimplePredicate field="double(float(minMaxScaler(x30)))" operator="greaterThan" value="0.006985721178352833"/>
								<Node>
									<SimplePredicate field="double(float(minMaxScaler(x19)))" operator="lessOrEqual" value="0.08653846383094788"/>
									<Node score="0" recordCount="16482">
										<SimplePredicate field="double(float(minMaxScaler(x51)))" operator="lessOrEqual" value="0.007352941203862429"/>
										<ScoreDistribution value="0" recordCount="16393"/>
										<ScoreDistribution value="1" recordCount="89"/>
									</Node>
									<Node score="0" recordCount="6611">
										<SimplePredicate field="double(float(minMaxScaler(x51)))" operator="greaterThan" value="0.007352941203862429"/>
										<ScoreDistribution value="0" recordCount="6460"/>
										<ScoreDistribution value="1" recordCount="151"/>
									</Node>
								</Node>
								<Node>
									<SimplePredicate field="double(float(minMaxScaler(x19)))" operator="greaterThan" value="0.08653846383094788"/>
									<Node score="0" recordCount="768">
										<SimplePredicate field="double(float(minMaxScaler(x4)))" operator="lessOrEqual" value="0.012460512109100819"/>
										<ScoreDistribution value="0" recordCount="756"/>
										<ScoreDistribution value="1" recordCount="12"/>
									</Node>
									<Node score="0" recordCount="246">
										<SimplePredicate field="double(float(minMaxScaler(x4)))" operator="greaterThan" value="0.012460512109100819"/>
										<ScoreDistribution value="0" recordCount="173"/>
										<ScoreDistribution value="1" recordCount="73"/>
									</Node>
								</Node>
							</Node>
						</Node>
						<Node>
							<SimplePredicate field="double(float(minMaxScaler(x9)))" operator="greaterThan" value="0.1628681644797325"/>
							<Node>
								<SimplePredicate field="double(float(minMaxScaler(x14)))" operator="lessOrEqual" value="0.18349867314100266"/>
								<Node>
									<SimplePredicate field="double(float(minMaxScaler(x8)))" operator="lessOrEqual" value="0.010273972526192665"/>
									<Node score="1" recordCount="529">
										<SimplePredicate field="double(float(minMaxScaler(x11)))" operator="lessOrEqual" value="0.11538461595773697"/>
										<ScoreDistribution value="0" recordCount="201"/>
										<ScoreDistribution value="1" recordCount="328"/>
									</Node>
									<Node score="1" recordCount="102">
										<SimplePredicate field="double(float(minMaxScaler(x11)))" operator="greaterThan" value="0.11538461595773697"/>
										<ScoreDistribution value="0" recordCount="11"/>
										<ScoreDistribution value="1" recordCount="91"/>
									</Node>
								</Node>
								<Node>
									<SimplePredicate field="double(float(minMaxScaler(x8)))" operator="greaterThan" value="0.010273972526192665"/>
									<Node score="0" recordCount="29550">
										<SimplePredicate field="double(float(minMaxScaler(x44)))" operator="lessOrEqual" value="0.3095238208770752"/>
										<ScoreDistribution value="0" recordCount="29389"/>
										<ScoreDistribution value="1" recordCount="161"/>
									</Node>
									<Node score="0" recordCount="97">
										<SimplePredicate field="double(float(minMaxScaler(x44)))" operator="greaterThan" value="0.3095238208770752"/>
										<ScoreDistribution value="0" recordCount="80"/>
										<ScoreDistribution value="1" recordCount="17"/>
									</Node>
								</Node>
							</Node>
							<Node>
								<SimplePredicate field="double(float(minMaxScaler(x14)))" operator="greaterThan" value="0.18349867314100266"/>
								<Node>
									<SimplePredicate field="double(float(minMaxScaler(x8)))" operator="lessOrEqual" value="0.010273972526192665"/>
									<Node score="1" recordCount="109">
										<SimplePredicate field="double(float(minMaxScaler(x2)))" operator="lessOrEqual" value="0.0019031409756280482"/>
										<ScoreDistribution value="0" recordCount="19"/>
										<ScoreDistribution value="1" recordCount="90"/>
									</Node>
									<Node score="1" recordCount="114">
										<SimplePredicate field="double(float(minMaxScaler(x2)))" operator="greaterThan" value="0.0019031409756280482"/>
										<ScoreDistribution value="0" recordCount="1"/>
										<ScoreDistribution value="1" recordCount="113"/>
									</Node>
								</Node>
								<Node>
									<SimplePredicate field="double(float(minMaxScaler(x8)))" operator="greaterThan" value="0.010273972526192665"/>
									<Node score="0" recordCount="5638">
										<SimplePredicate field="double(float(minMaxScaler(x61)))" operator="lessOrEqual" value="0.017241379246115685"/>
										<ScoreDistribution value="0" recordCount="5480"/>
										<ScoreDistribution value="1" recordCount="158"/>
									</Node>
									<Node score="0" recordCount="60">
										<SimplePredicate field="double(float(minMaxScaler(x61)))" operator="greaterThan" value="0.017241379246115685"/>
										<ScoreDistribution value="0" recordCount="47"/>
										<ScoreDistribution value="1" recordCount="13"/>
									</Node>
								</Node>
							</Node>
						</Node>
					</Node>
				</TreeModel>
			</Segment>
			<Segment id="7">
				<True/>
				<TreeModel functionName="classification" splitCharacteristic="binarySplit">
					<MiningSchema>
						<MiningField name="double(float(minMaxScaler(x5)))"/>
						<MiningField name="double(float(minMaxScaler(x56)))"/>
						<MiningField name="double(float(minMaxScaler(x9)))"/>
						<MiningField name="double(float(minMaxScaler(x2)))"/>
						<MiningField name="double(float(minMaxScaler(x11)))"/>
						<MiningField name="double(float(minMaxScaler(x37)))"/>
						<MiningField name="double(float(minMaxScaler(x67)))"/>
						<MiningField name="double(float(minMaxScaler(x15)))"/>
						<MiningField name="double(float(minMaxScaler(x14)))"/>
						<MiningField name="double(float(minMaxScaler(x16)))"/>
						<MiningField name="double(float(minMaxScaler(x44)))"/>
						<MiningField name="double(float(minMaxScaler(x52)))"/>
						<MiningField name="double(float(minMaxScaler(x1)))"/>
					</MiningSchema>
					<Node>
						<True/>
						<Node>
							<SimplePredicate field="double(float(minMaxScaler(x16)))" operator="lessOrEqual" value="0.050442492589354515"/>
							<Node>
								<SimplePredicate field="double(float(minMaxScaler(x15)))" operator="lessOrEqual" value="0.004606152884662151"/>
								<Node>
									<SimplePredicate field="double(float(minMaxScaler(x2)))" operator="lessOrEqual" value="6.343803252093494E-4"/>
									<Node score="0" recordCount="4878">
										<SimplePredicate field="double(float(minMaxScaler(x14)))" operator="lessOrEqual" value="0.05411449074745178"/>
										<ScoreDistribution value="0" recordCount="4864"/>
										<ScoreDistribution value="1" recordCount="14"/>
									</Node>
									<Node score="0" recordCount="21231">
										<SimplePredicate field="double(float(minMaxScaler(x14)))" operator="greaterThan" value="0.05411449074745178"/>
										<ScoreDistribution value="0" recordCount="21228"/>
										<ScoreDistribution value="1" recordCount="3"/>
									</Node>
								</Node>
								<Node>
									<SimplePredicate field="double(float(minMaxScaler(x2)))" operator="greaterThan" value="6.343803252093494E-4"/>
									<Node score="0" recordCount="495169">
										<SimplePredicate field="double(float(minMaxScaler(x11)))" operator="lessOrEqual" value="0.19147157669067383"/>
										<ScoreDistribution value="0" recordCount="493208"/>
										<ScoreDistribution value="1" recordCount="1961"/>
									</Node>
									<Node score="0" recordCount="7602">
										<SimplePredicate field="double(float(minMaxScaler(x11)))" operator="greaterThan" value="0.19147157669067383"/>
										<ScoreDistribution value="0" recordCount="7214"/>
										<ScoreDistribution value="1" recordCount="388"/>
									</Node>
								</Node>
							</Node>
							<Node>
								<SimplePredicate field="double(float(minMaxScaler(x15)))" operator="greaterThan" value="0.004606152884662151"/>
								<Node>
									<SimplePredicate field="double(float(minMaxScaler(x2)))" operator="lessOrEqual" value="0.0024911031359806657"/>
									<Node score="0" recordCount="11514">
										<SimplePredicate field="double(float(minMaxScaler(x9)))" operator="lessOrEqual" value="0.15217391401529312"/>
										<ScoreDistribution value="0" recordCount="11480"/>
										<ScoreDistribution value="1" recordCount="34"/>
									</Node>
									<Node score="0" recordCount="517">
										<SimplePredicate field="double(float(minMaxScaler(x9)))" operator="greaterThan" value="0.15217391401529312"/>
										<ScoreDistribution value="0" recordCount="452"/>
										<ScoreDistribution value="1" recordCount="65"/>
									</Node>
								</Node>
								<Node>
									<SimplePredicate field="double(float(minMaxScaler(x2)))" operator="greaterThan" value="0.0024911031359806657"/>
									<Node score="0" recordCount="182661">
										<SimplePredicate field="double(float(minMaxScaler(x44)))" operator="lessOrEqual" value="0.26428572833538055"/>
										<ScoreDistribution value="0" recordCount="182438"/>
										<ScoreDistribution value="1" recordCount="223"/>
									</Node>
									<Node score="0" recordCount="83">
										<SimplePredicate field="double(float(minMaxScaler(x44)))" operator="greaterThan" value="0.26428572833538055"/>
										<ScoreDistribution value="0" recordCount="73"/>
										<ScoreDistribution value="1" recordCount="10"/>
									</Node>
								</Node>
							</Node>
						</Node>
						<Node>
							<SimplePredicate field="double(float(minMaxScaler(x16)))" operator="greaterThan" value="0.050442492589354515"/>
							<Node>
								<SimplePredicate field="double(float(minMaxScaler(x52)))" operator="lessOrEqual" value="0.0027711953734979033"/>
								<Node>
									<SimplePredicate field="double(float(minMaxScaler(x56)))" operator="lessOrEqual" value="0.06319257616996765"/>
									<Node score="0" recordCount="180977">
										<SimplePredicate field="double(float(minMaxScaler(x9)))" operator="lessOrEqual" value="0.17043478786945343"/>
										<ScoreDistribution value="0" recordCount="180215"/>
										<ScoreDistribution value="1" recordCount="762"/>
									</Node>
									<Node score="0" recordCount="4580">
										<SimplePredicate field="double(float(minMaxScaler(x9)))" operator="greaterThan" value="0.17043478786945343"/>
										<ScoreDistribution value="0" recordCount="4363"/>
										<ScoreDistribution value="1" recordCount="217"/>
									</Node>
								</Node>
								<Node>
									<SimplePredicate field="double(float(minMaxScaler(x56)))" operator="greaterThan" value="0.06319257616996765"/>
									<Node score="0" recordCount="6407">
										<SimplePredicate field="double(float(minMaxScaler(x37)))" operator="lessOrEqual" value="0.007575757801532745"/>
										<ScoreDistribution value="0" recordCount="6314"/>
										<ScoreDistribution value="1" recordCount="93"/>
									</Node>
									<Node score="0" recordCount="564">
										<SimplePredicate field="double(float(minMaxScaler(x37)))" operator="greaterThan" value="0.007575757801532745"/>
										<ScoreDistribution value="0" recordCount="382"/>
										<ScoreDistribution value="1" recordCount="182"/>
									</Node>
								</Node>
							</Node>
							<Node>
								<SimplePredicate field="double(float(minMaxScaler(x52)))" operator="greaterThan" value="0.0027711953734979033"/>
								<Node>
									<SimplePredicate field="double(float(minMaxScaler(x5)))" operator="lessOrEqual" value="0.04335546866059303"/>
									<Node score="0" recordCount="9746">
										<SimplePredicate field="double(float(minMaxScaler(x1)))" operator="lessOrEqual" value="0.005154639249667525"/>
										<ScoreDistribution value="0" recordCount="9730"/>
										<ScoreDistribution value="1" recordCount="16"/>
									</Node>
									<Node score="0" recordCount="19386">
										<SimplePredicate field="double(float(minMaxScaler(x1)))" operator="greaterThan" value="0.005154639249667525"/>
										<ScoreDistribution value="0" recordCount="19184"/>
										<ScoreDistribution value="1" recordCount="202"/>
									</Node>
								</Node>
								<Node>
									<SimplePredicate field="double(float(minMaxScaler(x5)))" operator="greaterThan" value="0.04335546866059303"/>
									<Node score="0" recordCount="8241">
										<SimplePredicate field="double(float(minMaxScaler(x67)))" operator="lessOrEqual" value="0.10000000149011612"/>
										<ScoreDistribution value="0" recordCount="8010"/>
										<ScoreDistribution value="1" recordCount="231"/>
									</Node>
									<Node score="0" recordCount="1051">
										<SimplePredicate field="double(float(minMaxScaler(x67)))" operator="greaterThan" value="0.10000000149011612"/>
										<ScoreDistribution value="0" recordCount="890"/>
										<ScoreDistribution value="1" recordCount="161"/>
									</Node>
								</Node>
							</Node>
						</Node>
					</Node>
				</TreeModel>
			</Segment>
			<Segment id="8">
				<True/>
				<TreeModel functionName="classification" splitCharacteristic="binarySplit">
					<MiningSchema>
						<MiningField name="double(float(minMaxScaler(x5)))"/>
						<MiningField name="double(float(minMaxScaler(x68)))"/>
						<MiningField name="double(float(minMaxScaler(x8)))"/>
						<MiningField name="double(float(minMaxScaler(x9)))"/>
						<MiningField name="double(float(minMaxScaler(x11)))"/>
						<MiningField name="double(float(minMaxScaler(x62)))"/>
						<MiningField name="double(float(minMaxScaler(x36)))"/>
						<MiningField name="double(float(minMaxScaler(x61)))"/>
						<MiningField name="double(float(minMaxScaler(x1)))"/>
						<MiningField name="double(float(minMaxScaler(x25)))"/>
						<MiningField name="double(float(minMaxScaler(x32)))"/>
						<MiningField name="double(float(minMaxScaler(x27)))"/>
					</MiningSchema>
					<Node>
						<True/>
						<Node>
							<SimplePredicate field="double(float(minMaxScaler(x5)))" operator="lessOrEqual" value="0.05281658098101616"/>
							<Node>
								<SimplePredicate field="double(float(minMaxScaler(x9)))" operator="lessOrEqual" value="0.16268116235733032"/>
								<Node>
									<SimplePredicate field="double(float(minMaxScaler(x25)))" operator="lessOrEqual" value="0.003448275849223137"/>
									<Node score="0" recordCount="589794">
										<SimplePredicate field="double(float(minMaxScaler(x62)))" operator="lessOrEqual" value="0.007122565060853958"/>
										<ScoreDistribution value="0" recordCount="587594"/>
										<ScoreDistribution value="1" recordCount="2200"/>
									</Node>
									<Node score="0" recordCount="49384">
										<SimplePredicate field="double(float(minMaxScaler(x62)))" operator="greaterThan" value="0.007122565060853958"/>
										<ScoreDistribution value="0" recordCount="48902"/>
										<ScoreDistribution value="1" recordCount="482"/>
									</Node>
								</Node>
								<Node>
									<SimplePredicate field="double(float(minMaxScaler(x25)))" operator="greaterThan" value="0.003448275849223137"/>
									<Node score="0" recordCount="257543">
										<SimplePredicate field="double(float(minMaxScaler(x36)))" operator="lessOrEqual" value="0.005994729697704315"/>
										<ScoreDistribution value="0" recordCount="257177"/>
										<ScoreDistribution value="1" recordCount="366"/>
									</Node>
									<Node score="0" recordCount="4924">
										<SimplePredicate field="double(float(minMaxScaler(x36)))" operator="greaterThan" value="0.005994729697704315"/>
										<ScoreDistribution value="0" recordCount="4867"/>
										<ScoreDistribution value="1" recordCount="57"/>
									</Node>
								</Node>
							</Node>
							<Node>
								<SimplePredicate field="double(float(minMaxScaler(x9)))" operator="greaterThan" value="0.16268116235733032"/>
								<Node>
									<SimplePredicate field="double(float(minMaxScaler(x32)))" operator="lessOrEqual" value="0.2708333283662796"/>
									<Node score="0" recordCount="8008">
										<SimplePredicate field="double(float(minMaxScaler(x1)))" operator="lessOrEqual" value="5.727377138100564E-4"/>
										<ScoreDistribution value="0" recordCount="7266"/>
										<ScoreDistribution value="1" recordCount="742"/>
									</Node>
									<Node score="0" recordCount="27974">
										<SimplePredicate field="double(float(minMaxScaler(x1)))" operator="greaterThan" value="5.727377138100564E-4"/>
										<ScoreDistribution value="0" recordCount="27853"/>
										<ScoreDistribution value="1" recordCount="121"/>
									</Node>
								</Node>
								<Node score="1" recordCount="31">
									<SimplePredicate field="double(float(minMaxScaler(x32)))" operator="greaterThan" value="0.2708333283662796"/>
									<ScoreDistribution value="0" recordCount="14"/>
									<ScoreDistribution value="1" recordCount="17"/>
								</Node>
							</Node>
						</Node>
						<Node>
							<SimplePredicate field="double(float(minMaxScaler(x5)))" operator="greaterThan" value="0.05281658098101616"/>
							<Node>
								<SimplePredicate field="double(float(minMaxScaler(x11)))" operator="lessOrEqual" value="0.019837060011923313"/>
								<Node>
									<SimplePredicate field="double(float(minMaxScaler(x27)))" operator="lessOrEqual" value="0.04545454680919647"/>
									<Node score="0" recordCount="9092">
										<SimplePredicate field="double(float(minMaxScaler(x61)))" operator="lessOrEqual" value="0.01034482754766941"/>
										<ScoreDistribution value="0" recordCount="9005"/>
										<ScoreDistribution value="1" recordCount="87"/>
									</Node>
									<Node score="0" recordCount="3826">
										<SimplePredicate field="double(float(minMaxScaler(x61)))" operator="greaterThan" value="0.01034482754766941"/>
										<ScoreDistribution value="0" recordCount="3702"/>
										<ScoreDistribution value="1" recordCount="124"/>
									</Node>
								</Node>
								<Node>
									<SimplePredicate field="double(float(minMaxScaler(x27)))" operator="greaterThan" value="0.04545454680919647"/>
									<Node score="0" recordCount="273">
										<SimplePredicate field="double(float(minMaxScaler(x62)))" operator="lessOrEqual" value="0.006494601955637336"/>
										<ScoreDistribution value="0" recordCount="264"/>
										<ScoreDistribution value="1" recordCount="9"/>
									</Node>
									<Node score="0" recordCount="196">
										<SimplePredicate field="double(float(minMaxScaler(x62)))" operator="greaterThan" value="0.006494601955637336"/>
										<ScoreDistribution value="0" recordCount="162"/>
										<ScoreDistribution value="1" recordCount="34"/>
									</Node>
								</Node>
							</Node>
							<Node>
								<SimplePredicate field="double(float(minMaxScaler(x11)))" operator="greaterThan" value="0.019837060011923313"/>
								<Node>
									<SimplePredicate field="double(float(minMaxScaler(x68)))" operator="lessOrEqual" value="0.07549857720732689"/>
									<Node score="0" recordCount="1630">
										<SimplePredicate field="double(float(minMaxScaler(x62)))" operator="lessOrEqual" value="0.0026884828694164753"/>
										<ScoreDistribution value="0" recordCount="1604"/>
										<ScoreDistribution value="1" recordCount="26"/>
									</Node>
									<Node score="0" recordCount="1655">
										<SimplePredicate field="double(float(minMaxScaler(x62)))" operator="greaterThan" value="0.0026884828694164753"/>
										<ScoreDistribution value="0" recordCount="1540"/>
										<ScoreDistribution value="1" recordCount="115"/>
									</Node>
								</Node>
								<Node>
									<SimplePredicate field="double(float(minMaxScaler(x68)))" operator="greaterThan" value="0.07549857720732689"/>
									<Node score="1" recordCount="222">
										<SimplePredicate field="double(float(minMaxScaler(x8)))" operator="lessOrEqual" value="0.0034246575087308884"/>
										<ScoreDistribution value="0" recordCount="15"/>
										<ScoreDistribution value="1" recordCount="207"/>
									</Node>
									<Node score="0" recordCount="55">
										<SimplePredicate field="double(float(minMaxScaler(x8)))" operator="greaterThan" value="0.0034246575087308884"/>
										<ScoreDistribution value="0" recordCount="55"/>
										<ScoreDistribution value="1" recordCount="0"/>
									</Node>
								</Node>
							</Node>
						</Node>
					</Node>
				</TreeModel>
			</Segment>
			<Segment id="9">
				<True/>
				<TreeModel functionName="classification" splitCharacteristic="binarySplit">
					<MiningSchema>
						<MiningField name="double(float(minMaxScaler(x5)))"/>
						<MiningField name="double(float(minMaxScaler(x56)))"/>
						<MiningField name="double(float(minMaxScaler(x9)))"/>
						<MiningField name="double(float(minMaxScaler(x6)))"/>
						<MiningField name="double(float(minMaxScaler(x37)))"/>
						<MiningField name="double(float(minMaxScaler(x62)))"/>
						<MiningField name="double(float(minMaxScaler(x36)))"/>
						<MiningField name="double(float(minMaxScaler(x15)))"/>
						<MiningField name="double(float(minMaxScaler(x25)))"/>
						<MiningField name="double(float(minMaxScaler(x21)))"/>
						<MiningField name="double(float(minMaxScaler(x31)))"/>
						<MiningField name="double(float(x50))"/>
