<?xml version="1.0" encoding="UTF-8" standalone="yes"?>
<PMML xmlns="http://www.dmg.org/PMML-4_4" xmlns:data="http://jpmml.org/jpmml-model/InlineTable" version="4.4">
	<Header>
		<Application name="JPMML-SkLearn" version="1.6.25"/>
		<Timestamp>2021-08-12T12:25:57Z</Timestamp>
	</Header>
	<MiningBuildTask>
		<Extension name="repr">PMMLPipeline(steps=[('pipeline', Pipeline(steps=[('preprocessor', MinMaxScaler()), ('sampler', SMOTE()),
                ('classifier',
                 RandomForestClassifier(criterion='entropy', max_depth=3,
                                        min_samples_leaf=15,
                                        min_samples_split=30,
                                        n_estimators=101))]))])</Extension>
	</MiningBuildTask>
	<DataDictionary>
		<DataField name="y" optype="categorical" dataType="integer">
			<Value value="0"/>
			<Value value="1"/>
		</DataField>
		<DataField name="x1" optype="continuous" dataType="double"/>
		<DataField name="x2" optype="continuous" dataType="double"/>
		<DataField name="x3" optype="continuous" dataType="double"/>
		<DataField name="x4" optype="continuous" dataType="double"/>
		<DataField name="x5" optype="continuous" dataType="double"/>
		<DataField name="x6" optype="continuous" dataType="double"/>
		<DataField name="x7" optype="continuous" dataType="double"/>
		<DataField name="x8" optype="continuous" dataType="double"/>
		<DataField name="x9" optype="continuous" dataType="double"/>
		<DataField name="x10" optype="continuous" dataType="double"/>
		<DataField name="x11" optype="continuous" dataType="double"/>
		<DataField name="x12" optype="continuous" dataType="double"/>
		<DataField name="x13" optype="continuous" dataType="double"/>
		<DataField name="x15" optype="continuous" dataType="double"/>
		<DataField name="x16" optype="continuous" dataType="double"/>
		<DataField name="x17" optype="continuous" dataType="double"/>
		<DataField name="x18" optype="continuous" dataType="double"/>
		<DataField name="x19" optype="continuous" dataType="double"/>
		<DataField name="x20" optype="continuous" dataType="double"/>
		<DataField name="x23" optype="continuous" dataType="double"/>
		<DataField name="x24" optype="continuous" dataType="double"/>
		<DataField name="x25" optype="continuous" dataType="double"/>
		<DataField name="x26" optype="continuous" dataType="double"/>
		<DataField name="x29" optype="continuous" dataType="double"/>
		<DataField name="x30" optype="continuous" dataType="double"/>
		<DataField name="x33" optype="continuous" dataType="double"/>
		<DataField name="x34" optype="continuous" dataType="double"/>
		<DataField name="x35" optype="continuous" dataType="double"/>
		<DataField name="x36" optype="continuous" dataType="double"/>
		<DataField name="x37" optype="continuous" dataType="double"/>
		<DataField name="x38" optype="continuous" dataType="double"/>
		<DataField name="x40" optype="continuous" dataType="double"/>
		<DataField name="x43" optype="continuous" dataType="double"/>
		<DataField name="x44" optype="continuous" dataType="double"/>
		<DataField name="x45" optype="continuous" dataType="double"/>
		<DataField name="x46" optype="continuous" dataType="double"/>
		<DataField name="x49" optype="continuous" dataType="double"/>
		<DataField name="x50" optype="continuous" dataType="double"/>
		<DataField name="x55" optype="continuous" dataType="double"/>
		<DataField name="x56" optype="continuous" dataType="double"/>
		<DataField name="x59" optype="continuous" dataType="double"/>
		<DataField name="x60" optype="continuous" dataType="double"/>
		<DataField name="x64" optype="continuous" dataType="double"/>
		<DataField name="x65" optype="continuous" dataType="double"/>
		<DataField name="x66" optype="continuous" dataType="double"/>
		<DataField name="x67" optype="continuous" dataType="double"/>
		<DataField name="x69" optype="continuous" dataType="double"/>
		<DataField name="x70" optype="continuous" dataType="double"/>
		<DataField name="x79" optype="continuous" dataType="double"/>
		<DataField name="x80" optype="continuous" dataType="double"/>
	</DataDictionary>
	<MiningModel functionName="classification" algorithmName="sklearn.ensemble._forest.RandomForestClassifier">
		<MiningSchema>
			<MiningField name="y" usageType="target"/>
			<MiningField name="x33"/>
			<MiningField name="x35"/>
			<MiningField name="x40"/>
			<MiningField name="x44"/>
			<MiningField name="x45"/>
			<MiningField name="x60"/>
			<MiningField name="x64"/>
			<MiningField name="x79"/>
			<MiningField name="x56"/>
			<MiningField name="x19"/>
			<MiningField name="x12"/>
			<MiningField name="x29"/>
			<MiningField name="x16"/>
			<MiningField name="x5"/>
			<MiningField name="x46"/>
			<MiningField name="x4"/>
			<MiningField name="x11"/>
			<MiningField name="x15"/>
			<MiningField name="x30"/>
			<MiningField name="x9"/>
			<MiningField name="x24"/>
			<MiningField name="x70"/>
			<MiningField name="x2"/>
			<MiningField name="x8"/>
			<MiningField name="x26"/>
			<MiningField name="x17"/>
			<MiningField name="x1"/>
			<MiningField name="x13"/>
			<MiningField name="x65"/>
			<MiningField name="x7"/>
			<MiningField name="x6"/>
			<MiningField name="x55"/>
			<MiningField name="x20"/>
			<MiningField name="x37"/>
			<MiningField name="x59"/>
			<MiningField name="x3"/>
			<MiningField name="x10"/>
			<MiningField name="x23"/>
			<MiningField name="x38"/>
			<MiningField name="x66"/>
			<MiningField name="x69"/>
			<MiningField name="x25"/>
			<MiningField name="x67"/>
			<MiningField name="x36"/>
			<MiningField name="x18"/>
			<MiningField name="x34"/>
			<MiningField name="x49"/>
			<MiningField name="x50"/>
			<MiningField name="x43"/>
			<MiningField name="x80"/>
		</MiningSchema>
		<Output>
			<OutputField name="probability(0)" optype="continuous" dataType="double" feature="probability" value="0"/>
			<OutputField name="probability(1)" optype="continuous" dataType="double" feature="probability" value="1"/>
		</Output>
		<LocalTransformations>
			<DerivedField name="minMaxScaler(x1)" optype="continuous" dataType="double">
				<Apply function="+">
					<Apply function="*">
						<FieldRef field="x1"/>
						<Constant dataType="double">0.002717391304347826</Constant>
					</Apply>
					<Constant dataType="double">-0.002717391304347826</Constant>
				</Apply>
			</DerivedField>
			<DerivedField name="minMaxScaler(x2)" optype="continuous" dataType="double">
				<Apply function="+">
					<Apply function="*">
						<FieldRef field="x2"/>
						<Constant dataType="double">5.832604257801108E-5</Constant>
					</Apply>
					<Constant dataType="double">-3.4995625546806647E-4</Constant>
				</Apply>
			</DerivedField>
			<DerivedField name="minMaxScaler(x3)" optype="continuous" dataType="double">
				<Apply function="+">
					<Apply function="*">
						<FieldRef field="x3"/>
						<Constant dataType="double">0.003484320557491289</Constant>
					</Apply>
					<Constant dataType="double">-0.020905923344947737</Constant>
				</Apply>
			</DerivedField>
			<DerivedField name="minMaxScaler(x4)" optype="continuous" dataType="double">
				<Apply function="*">
					<FieldRef field="x4"/>
					<Constant dataType="double">2.4396194193705782E-4</Constant>
				</Apply>
			</DerivedField>
			<DerivedField name="minMaxScaler(x5)" optype="continuous" dataType="double">
				<Apply function="*">
					<FieldRef field="x5"/>
					<Constant dataType="double">0.04342522566479629</Constant>
				</Apply>
			</DerivedField>
			<DerivedField name="minMaxScaler(x6)" optype="continuous" dataType="double">
				<Apply function="+">
					<Apply function="*">
						<FieldRef field="x6"/>
						<Constant dataType="double">0.02</Constant>
					</Apply>
					<Constant dataType="double">-0.02</Constant>
				</Apply>
			</DerivedField>
			<DerivedField name="minMaxScaler(x7)" optype="continuous" dataType="double">
				<Apply function="+">
					<Apply function="*">
						<FieldRef field="x7"/>
						<Constant dataType="double">0.043478260869565216</Constant>
					</Apply>
					<Constant dataType="double">-0.043478260869565216</Constant>
				</Apply>
			</DerivedField>
			<DerivedField name="minMaxScaler(x8)" optype="continuous" dataType="double">
				<Apply function="*">
					<FieldRef field="x8"/>
					<Constant dataType="double">1.6899437233699618E-9</Constant>
				</Apply>
			</DerivedField>
			<DerivedField name="minMaxScaler(x9)" optype="continuous" dataType="double">
				<Apply function="*">
					<FieldRef field="x9"/>
					<Constant dataType="double">6.000615497314832E-9</Constant>
				</Apply>
			</DerivedField>
			<DerivedField name="minMaxScaler(x10)" optype="continuous" dataType="double">
				<Apply function="*">
					<FieldRef field="x10"/>
					<Constant dataType="double">0.020833333333333332</Constant>
				</Apply>
			</DerivedField>
			<DerivedField name="minMaxScaler(x11)" optype="continuous" dataType="double">
				<Apply function="*">
					<FieldRef field="x11"/>
					<Constant dataType="double">0.3333333333333333</Constant>
				</Apply>
			</DerivedField>
			<DerivedField name="minMaxScaler(x12)" optype="continuous" dataType="double">
				<Apply function="*">
					<FieldRef field="x12"/>
					<Constant dataType="double">0.027777777777777776</Constant>
				</Apply>
			</DerivedField>
			<DerivedField name="minMaxScaler(x13)" optype="continuous" dataType="double">
				<Apply function="*">
					<FieldRef field="x13"/>
					<Constant dataType="double">0.3333333333333333</Constant>
				</Apply>
			</DerivedField>
			<DerivedField name="minMaxScaler(x15)" optype="continuous" dataType="double">
				<Apply function="*">
					<FieldRef field="x15"/>
					<Constant dataType="double">0.6</Constant>
				</Apply>
			</DerivedField>
			<DerivedField name="minMaxScaler(x16)" optype="continuous" dataType="double">
				<Apply function="+">
					<Apply function="*">
						<FieldRef field="x16"/>
						<Constant dataType="double">0.002717391304347826</Constant>
					</Apply>
					<Constant dataType="double">-0.002717391304347826</Constant>
				</Apply>
			</DerivedField>
			<DerivedField name="minMaxScaler(x17)" optype="continuous" dataType="double">
				<Apply function="+">
					<Apply function="*">
						<FieldRef field="x17"/>
						<Constant dataType="double">5.838393274170948E-5</Constant>
					</Apply>
					<Constant dataType="double">-0.002568893040635217</Constant>
				</Apply>
			</DerivedField>
			<DerivedField name="minMaxScaler(x18)" optype="continuous" dataType="double">
				<Apply function="+">
					<Apply function="*">
						<FieldRef field="x18"/>
						<Constant dataType="double">0.008906481939633846</Constant>
					</Apply>
					<Constant dataType="double">-0.15586343394359228</Constant>
				</Apply>
			</DerivedField>
			<DerivedField name="minMaxScaler(x19)" optype="continuous" dataType="double">
				<Apply function="*">
					<FieldRef field="x19"/>
					<Constant dataType="double">2.4396194193705782E-4</Constant>
				</Apply>
			</DerivedField>
			<DerivedField name="minMaxScaler(x20)" optype="continuous" dataType="double">
				<Apply function="*">
					<FieldRef field="x20"/>
					<Constant dataType="double">0.02977963073257892</Constant>
				</Apply>
			</DerivedField>
			<DerivedField name="minMaxScaler(x23)" optype="continuous" dataType="double">
				<Apply function="*">
					<FieldRef field="x23"/>
					<Constant dataType="double">0.02127659574468085</Constant>
				</Apply>
			</DerivedField>
			<DerivedField name="minMaxScaler(x24)" optype="continuous" dataType="double">
				<Apply function="*">
					<FieldRef field="x24"/>
					<Constant dataType="double">0.5</Constant>
				</Apply>
			</DerivedField>
			<DerivedField name="minMaxScaler(x25)" optype="continuous" dataType="double">
				<Apply function="*">
					<FieldRef field="x25"/>
					<Constant dataType="double">0.02040816326530612</Constant>
				</Apply>
			</DerivedField>
			<DerivedField name="minMaxScaler(x26)" optype="continuous" dataType="double">
				<Apply function="*">
					<FieldRef field="x26"/>
					<Constant dataType="double">0.6</Constant>
				</Apply>
			</DerivedField>
			<DerivedField name="minMaxScaler(x29)" optype="continuous" dataType="double">
				<Apply function="*">
					<FieldRef field="x29"/>
					<Constant dataType="double">0.0125</Constant>
				</Apply>
			</DerivedField>
			<DerivedField name="minMaxScaler(x30)" optype="continuous" dataType="double">
				<Apply function="*">
					<FieldRef field="x30"/>
					<Constant dataType="double">0.625</Constant>
				</Apply>
			</DerivedField>
			<DerivedField name="minMaxScaler(x34)" optype="continuous" dataType="double">
				<Apply function="*">
					<FieldRef field="x34"/>
					<Constant dataType="double">0.6666666666666666</Constant>
				</Apply>
			</DerivedField>
			<DerivedField name="minMaxScaler(x36)" optype="continuous" dataType="double">
				<Apply function="*">
					<FieldRef field="x36"/>
					<Constant dataType="double">0.6</Constant>
				</Apply>
			</DerivedField>
			<DerivedField name="minMaxScaler(x37)" optype="continuous" dataType="double">
				<Apply function="*">
					<FieldRef field="x37"/>
					<Constant dataType="double">0.02127659574468085</Constant>
				</Apply>
			</DerivedField>
			<DerivedField name="minMaxScaler(x38)" optype="continuous" dataType="double">
				<Apply function="*">
					<FieldRef field="x38"/>
					<Constant dataType="double">0.375</Constant>
				</Apply>
			</DerivedField>
			<DerivedField name="minMaxScaler(x43)" optype="continuous" dataType="double">
				<Apply function="*">
					<FieldRef field="x43"/>
					<Constant dataType="double">0.07692307692307693</Constant>
				</Apply>
			</DerivedField>
			<DerivedField name="minMaxScaler(x46)" optype="continuous" dataType="double">
				<Apply function="*">
					<FieldRef field="x46"/>
					<Constant dataType="double">0.6</Constant>
				</Apply>
			</DerivedField>
			<DerivedField name="minMaxScaler(x49)" optype="continuous" dataType="double">
				<Apply function="*">
					<FieldRef field="x49"/>
					<Constant dataType="double">0.125</Constant>
				</Apply>
			</DerivedField>
			<DerivedField name="minMaxScaler(x50)" optype="continuous" dataType="double">
				<Apply function="*">
					<FieldRef field="x50"/>
					<Constant dataType="double">2.5</Constant>
				</Apply>
			</DerivedField>
			<DerivedField name="minMaxScaler(x55)" optype="continuous" dataType="double">
				<Apply function="*">
					<FieldRef field="x55"/>
					<Constant dataType="double">0.05263157894736842</Constant>
				</Apply>
			</DerivedField>
			<DerivedField name="minMaxScaler(x59)" optype="continuous" dataType="double">
				<Apply function="*">
					<FieldRef field="x59"/>
					<Constant dataType="double">0.14285714285714285</Constant>
				</Apply>
			</DerivedField>
			<DerivedField name="minMaxScaler(x65)" optype="continuous" dataType="double">
				<Apply function="*">
					<FieldRef field="x65"/>
					<Constant dataType="double">0.03333333333333333</Constant>
				</Apply>
			</DerivedField>
			<DerivedField name="minMaxScaler(x66)" optype="continuous" dataType="double">
				<Apply function="*">
					<FieldRef field="x66"/>
					<Constant dataType="double">0.6666666666666666</Constant>
				</Apply>
			</DerivedField>
			<DerivedField name="minMaxScaler(x67)" optype="continuous" dataType="double">
				<Apply function="*">
					<FieldRef field="x67"/>
					<Constant dataType="double">0.023255813953488372</Constant>
				</Apply>
			</DerivedField>
			<DerivedField name="minMaxScaler(x69)" optype="continuous" dataType="double">
				<Apply function="*">
					<FieldRef field="x69"/>
					<Constant dataType="double">0.03333333333333333</Constant>
				</Apply>
			</DerivedField>
			<DerivedField name="minMaxScaler(x70)" optype="continuous" dataType="double">
				<Apply function="*">
					<FieldRef field="x70"/>
					<Constant dataType="double">0.6666666666666666</Constant>
				</Apply>
			</DerivedField>
			<DerivedField name="minMaxScaler(x80)" optype="continuous" dataType="double">
				<Apply function="*">
					<FieldRef field="x80"/>
					<Constant dataType="double">0.75</Constant>
				</Apply>
			</DerivedField>
			<DerivedField name="float(minMaxScaler(x1))" optype="continuous" dataType="float">
				<FieldRef field="minMaxScaler(x1)"/>
			</DerivedField>
			<DerivedField name="float(minMaxScaler(x2))" optype="continuous" dataType="float">
				<FieldRef field="minMaxScaler(x2)"/>
			</DerivedField>
			<DerivedField name="float(minMaxScaler(x3))" optype="continuous" dataType="float">
				<FieldRef field="minMaxScaler(x3)"/>
			</DerivedField>
			<DerivedField name="float(minMaxScaler(x4))" optype="continuous" dataType="float">
				<FieldRef field="minMaxScaler(x4)"/>
			</DerivedField>
			<DerivedField name="float(minMaxScaler(x5))" optype="continuous" dataType="float">
				<FieldRef field="minMaxScaler(x5)"/>
			</DerivedField>
			<DerivedField name="float(minMaxScaler(x6))" optype="continuous" dataType="float">
				<FieldRef field="minMaxScaler(x6)"/>
			</DerivedField>
			<DerivedField name="float(minMaxScaler(x7))" optype="continuous" dataType="float">
				<FieldRef field="minMaxScaler(x7)"/>
			</DerivedField>
			<DerivedField name="float(minMaxScaler(x8))" optype="continuous" dataType="float">
				<FieldRef field="minMaxScaler(x8)"/>
			</DerivedField>
			<DerivedField name="float(minMaxScaler(x9))" optype="continuous" dataType="float">
				<FieldRef field="minMaxScaler(x9)"/>
			</DerivedField>
			<DerivedField name="float(minMaxScaler(x10))" optype="continuous" dataType="float">
				<FieldRef field="minMaxScaler(x10)"/>
			</DerivedField>
			<DerivedField name="float(minMaxScaler(x11))" optype="continuous" dataType="float">
				<FieldRef field="minMaxScaler(x11)"/>
			</DerivedField>
			<DerivedField name="float(minMaxScaler(x12))" optype="continuous" dataType="float">
				<FieldRef field="minMaxScaler(x12)"/>
			</DerivedField>
			<DerivedField name="float(minMaxScaler(x13))" optype="continuous" dataType="float">
				<FieldRef field="minMaxScaler(x13)"/>
			</DerivedField>
			<DerivedField name="float(minMaxScaler(x15))" optype="continuous" dataType="float">
				<FieldRef field="minMaxScaler(x15)"/>
			</DerivedField>
			<DerivedField name="float(minMaxScaler(x16))" optype="continuous" dataType="float">
				<FieldRef field="minMaxScaler(x16)"/>
			</DerivedField>
			<DerivedField name="float(minMaxScaler(x17))" optype="continuous" dataType="float">
				<FieldRef field="minMaxScaler(x17)"/>
			</DerivedField>
			<DerivedField name="float(minMaxScaler(x18))" optype="continuous" dataType="float">
				<FieldRef field="minMaxScaler(x18)"/>
			</DerivedField>
			<DerivedField name="float(minMaxScaler(x19))" optype="continuous" dataType="float">
				<FieldRef field="minMaxScaler(x19)"/>
			</DerivedField>
			<DerivedField name="float(minMaxScaler(x20))" optype="continuous" dataType="float">
				<FieldRef field="minMaxScaler(x20)"/>
			</DerivedField>
			<DerivedField name="float(minMaxScaler(x23))" optype="continuous" dataType="float">
				<FieldRef field="minMaxScaler(x23)"/>
			</DerivedField>
			<DerivedField name="float(minMaxScaler(x24))" optype="continuous" dataType="float">
				<FieldRef field="minMaxScaler(x24)"/>
			</DerivedField>
			<DerivedField name="float(minMaxScaler(x25))" optype="continuous" dataType="float">
				<FieldRef field="minMaxScaler(x25)"/>
			</DerivedField>
			<DerivedField name="float(minMaxScaler(x26))" optype="continuous" dataType="float">
				<FieldRef field="minMaxScaler(x26)"/>
			</DerivedField>
			<DerivedField name="float(minMaxScaler(x29))" optype="continuous" dataType="float">
				<FieldRef field="minMaxScaler(x29)"/>
			</DerivedField>
			<DerivedField name="float(minMaxScaler(x30))" optype="continuous" dataType="float">
				<FieldRef field="minMaxScaler(x30)"/>
			</DerivedField>
			<DerivedField name="float(minMaxScaler(x34))" optype="continuous" dataType="float">
				<FieldRef field="minMaxScaler(x34)"/>
			</DerivedField>
			<DerivedField name="float(minMaxScaler(x36))" optype="continuous" dataType="float">
				<FieldRef field="minMaxScaler(x36)"/>
			</DerivedField>
			<DerivedField name="float(minMaxScaler(x37))" optype="continuous" dataType="float">
				<FieldRef field="minMaxScaler(x37)"/>
			</DerivedField>
			<DerivedField name="float(minMaxScaler(x38))" optype="continuous" dataType="float">
				<FieldRef field="minMaxScaler(x38)"/>
			</DerivedField>
			<DerivedField name="float(minMaxScaler(x43))" optype="continuous" dataType="float">
				<FieldRef field="minMaxScaler(x43)"/>
			</DerivedField>
			<DerivedField name="float(minMaxScaler(x46))" optype="continuous" dataType="float">
				<FieldRef field="minMaxScaler(x46)"/>
			</DerivedField>
			<DerivedField name="float(minMaxScaler(x49))" optype="continuous" dataType="float">
				<FieldRef field="minMaxScaler(x49)"/>
			</DerivedField>
			<DerivedField name="float(minMaxScaler(x50))" optype="continuous" dataType="float">
				<FieldRef field="minMaxScaler(x50)"/>
			</DerivedField>
			<DerivedField name="float(minMaxScaler(x55))" optype="continuous" dataType="float">
				<FieldRef field="minMaxScaler(x55)"/>
			</DerivedField>
			<DerivedField name="float(x56)" optype="continuous" dataType="float">
				<FieldRef field="x56"/>
			</DerivedField>
			<DerivedField name="float(minMaxScaler(x59))" optype="continuous" dataType="float">
				<FieldRef field="minMaxScaler(x59)"/>
			</DerivedField>
			<DerivedField name="float(minMaxScaler(x65))" optype="continuous" dataType="float">
				<FieldRef field="minMaxScaler(x65)"/>
			</DerivedField>
			<DerivedField name="float(minMaxScaler(x66))" optype="continuous" dataType="float">
				<FieldRef field="minMaxScaler(x66)"/>
			</DerivedField>
			<DerivedField name="float(minMaxScaler(x67))" optype="continuous" dataType="float">
				<FieldRef field="minMaxScaler(x67)"/>
			</DerivedField>
			<DerivedField name="float(minMaxScaler(x69))" optype="continuous" dataType="float">
				<FieldRef field="minMaxScaler(x69)"/>
			</DerivedField>
			<DerivedField name="float(minMaxScaler(x70))" optype="continuous" dataType="float">
				<FieldRef field="minMaxScaler(x70)"/>
			</DerivedField>
			<DerivedField name="float(minMaxScaler(x80))" optype="continuous" dataType="float">
				<FieldRef field="minMaxScaler(x80)"/>
			</DerivedField>
			<DerivedField name="double(float(minMaxScaler(x19)))" optype="continuous" dataType="double">
				<FieldRef field="float(minMaxScaler(x19))"/>
			</DerivedField>
			<DerivedField name="double(float(minMaxScaler(x12)))" optype="continuous" dataType="double">
				<FieldRef field="float(minMaxScaler(x12))"/>
			</DerivedField>
			<DerivedField name="double(float(minMaxScaler(x29)))" optype="continuous" dataType="double">
				<FieldRef field="float(minMaxScaler(x29))"/>
			</DerivedField>
			<DerivedField name="double(float(minMaxScaler(x16)))" optype="continuous" dataType="double">
				<FieldRef field="float(minMaxScaler(x16))"/>
			</DerivedField>
			<DerivedField name="double(float(minMaxScaler(x5)))" optype="continuous" dataType="double">
				<FieldRef field="float(minMaxScaler(x5))"/>
			</DerivedField>
			<DerivedField name="double(float(x56))" optype="continuous" dataType="double">
				<FieldRef field="float(x56)"/>
			</DerivedField>
			<DerivedField name="double(float(minMaxScaler(x46)))" optype="continuous" dataType="double">
				<FieldRef field="float(minMaxScaler(x46))"/>
			</DerivedField>
			<DerivedField name="double(float(minMaxScaler(x4)))" optype="continuous" dataType="double">
				<FieldRef field="float(minMaxScaler(x4))"/>
			</DerivedField>
			<DerivedField name="double(float(minMaxScaler(x11)))" optype="continuous" dataType="double">
				<FieldRef field="float(minMaxScaler(x11))"/>
			</DerivedField>
			<DerivedField name="double(float(minMaxScaler(x15)))" optype="continuous" dataType="double">
				<FieldRef field="float(minMaxScaler(x15))"/>
			</DerivedField>
			<DerivedField name="double(float(minMaxScaler(x30)))" optype="continuous" dataType="double">
				<FieldRef field="float(minMaxScaler(x30))"/>
			</DerivedField>
			<DerivedField name="double(float(minMaxScaler(x9)))" optype="continuous" dataType="double">
				<FieldRef field="float(minMaxScaler(x9))"/>
			</DerivedField>
			<DerivedField name="double(float(minMaxScaler(x24)))" optype="continuous" dataType="double">
				<FieldRef field="float(minMaxScaler(x24))"/>
			</DerivedField>
			<DerivedField name="double(float(minMaxScaler(x70)))" optype="continuous" dataType="double">
				<FieldRef field="float(minMaxScaler(x70))"/>
			</DerivedField>
			<DerivedField name="double(float(minMaxScaler(x2)))" optype="continuous" dataType="double">
				<FieldRef field="float(minMaxScaler(x2))"/>
			</DerivedField>
			<DerivedField name="double(float(minMaxScaler(x8)))" optype="continuous" dataType="double">
				<FieldRef field="float(minMaxScaler(x8))"/>
			</DerivedField>
			<DerivedField name="double(float(minMaxScaler(x26)))" optype="continuous" dataType="double">
				<FieldRef field="float(minMaxScaler(x26))"/>
			</DerivedField>
			<DerivedField name="double(float(minMaxScaler(x17)))" optype="continuous" dataType="double">
				<FieldRef field="float(minMaxScaler(x17))"/>
			</DerivedField>
			<DerivedField name="double(float(minMaxScaler(x1)))" optype="continuous" dataType="double">
				<FieldRef field="float(minMaxScaler(x1))"/>
			</DerivedField>
			<DerivedField name="double(float(minMaxScaler(x13)))" optype="continuous" dataType="double">
				<FieldRef field="float(minMaxScaler(x13))"/>
			</DerivedField>
			<DerivedField name="double(float(minMaxScaler(x65)))" optype="continuous" dataType="double">
				<FieldRef field="float(minMaxScaler(x65))"/>
			</DerivedField>
			<DerivedField name="double(float(minMaxScaler(x7)))" optype="continuous" dataType="double">
				<FieldRef field="float(minMaxScaler(x7))"/>
			</DerivedField>
			<DerivedField name="double(float(minMaxScaler(x6)))" optype="continuous" dataType="double">
				<FieldRef field="float(minMaxScaler(x6))"/>
			</DerivedField>
			<DerivedField name="double(float(minMaxScaler(x55)))" optype="continuous" dataType="double">
				<FieldRef field="float(minMaxScaler(x55))"/>
			</DerivedField>
			<DerivedField name="double(float(minMaxScaler(x20)))" optype="continuous" dataType="double">
				<FieldRef field="float(minMaxScaler(x20))"/>
			</DerivedField>
			<DerivedField name="double(float(minMaxScaler(x37)))" optype="continuous" dataType="double">
				<FieldRef field="float(minMaxScaler(x37))"/>
			</DerivedField>
			<DerivedField name="double(float(minMaxScaler(x59)))" optype="continuous" dataType="double">
				<FieldRef field="float(minMaxScaler(x59))"/>
			</DerivedField>
			<DerivedField name="double(float(minMaxScaler(x3)))" optype="continuous" dataType="double">
				<FieldRef field="float(minMaxScaler(x3))"/>
			</DerivedField>
			<DerivedField name="double(float(minMaxScaler(x10)))" optype="continuous" dataType="double">
				<FieldRef field="float(minMaxScaler(x10))"/>
			</DerivedField>
			<DerivedField name="double(float(minMaxScaler(x23)))" optype="continuous" dataType="double">
				<FieldRef field="float(minMaxScaler(x23))"/>
			</DerivedField>
			<DerivedField name="double(float(minMaxScaler(x38)))" optype="continuous" dataType="double">
				<FieldRef field="float(minMaxScaler(x38))"/>
			</DerivedField>
			<DerivedField name="double(float(minMaxScaler(x66)))" optype="continuous" dataType="double">
				<FieldRef field="float(minMaxScaler(x66))"/>
			</DerivedField>
			<DerivedField name="double(float(minMaxScaler(x69)))" optype="continuous" dataType="double">
				<FieldRef field="float(minMaxScaler(x69))"/>
			</DerivedField>
			<DerivedField name="double(float(minMaxScaler(x25)))" optype="continuous" dataType="double">
				<FieldRef field="float(minMaxScaler(x25))"/>
			</DerivedField>
			<DerivedField name="double(float(minMaxScaler(x67)))" optype="continuous" dataType="double">
				<FieldRef field="float(minMaxScaler(x67))"/>
			</DerivedField>
			<DerivedField name="double(float(minMaxScaler(x36)))" optype="continuous" dataType="double">
				<FieldRef field="float(minMaxScaler(x36))"/>
			</DerivedField>
			<DerivedField name="double(float(minMaxScaler(x18)))" optype="continuous" dataType="double">
				<FieldRef field="float(minMaxScaler(x18))"/>
			</DerivedField>
			<DerivedField name="double(float(minMaxScaler(x34)))" optype="continuous" dataType="double">
				<FieldRef field="float(minMaxScaler(x34))"/>
			</DerivedField>
			<DerivedField name="double(float(minMaxScaler(x49)))" optype="continuous" dataType="double">
				<FieldRef field="float(minMaxScaler(x49))"/>
			</DerivedField>
			<DerivedField name="double(float(minMaxScaler(x50)))" optype="continuous" dataType="double">
				<FieldRef field="float(minMaxScaler(x50))"/>
			</DerivedField>
			<DerivedField name="double(float(minMaxScaler(x43)))" optype="continuous" dataType="double">
				<FieldRef field="float(minMaxScaler(x43))"/>
			</DerivedField>
			<DerivedField name="double(float(minMaxScaler(x80)))" optype="continuous" dataType="double">
				<FieldRef field="float(minMaxScaler(x80))"/>
			</DerivedField>
		</LocalTransformations>
		<Segmentation multipleModelMethod="average">
			<Segment id="1">
				<True/>
				<TreeModel functionName="classification" splitCharacteristic="binarySplit">
					<MiningSchema>
						<MiningField name="double(float(minMaxScaler(x19)))"/>
						<MiningField name="double(float(minMaxScaler(x12)))"/>
						<MiningField name="double(float(minMaxScaler(x29)))"/>
						<MiningField name="double(float(minMaxScaler(x16)))"/>
						<MiningField name="double(float(minMaxScaler(x5)))"/>
						<MiningField name="double(float(x56))"/>
						<MiningField name="double(float(minMaxScaler(x46)))"/>
					</MiningSchema>
					<Node>
						<True/>
						<Node>
							<SimplePredicate field="double(float(minMaxScaler(x19)))" operator="lessOrEqual" value="0.0034153368324041367"/>
							<Node>
								<SimplePredicate field="double(float(minMaxScaler(x12)))" operator="lessOrEqual" value="3.6999517760705203E-6"/>
								<Node score="1" recordCount="37463">
									<SimplePredicate field="double(float(minMaxScaler(x29)))" operator="lessOrEqual" value="0.012471066322177649"/>
									<ScoreDistribution value="0" recordCount="3330"/>
									<ScoreDistribution value="1" recordCount="34133"/>
								</Node>
								<Node score="0" recordCount="8738">
									<SimplePredicate field="double(float(minMaxScaler(x29)))" operator="greaterThan" value="0.012471066322177649"/>
									<ScoreDistribution value="0" recordCount="6602"/>
									<ScoreDistribution value="1" recordCount="2136"/>
								</Node>
							</Node>
							<Node>
								<SimplePredicate field="double(float(minMaxScaler(x12)))" operator="greaterThan" value="3.6999517760705203E-6"/>
								<Node score="1" recordCount="44925">
									<SimplePredicate field="double(float(minMaxScaler(x16)))" operator="lessOrEqual" value="0.02445631567388773"/>
									<ScoreDistribution value="0" recordCount="884"/>
									<ScoreDistribution value="1" recordCount="44041"/>
								</Node>
								<Node score="1" recordCount="13345">
									<SimplePredicate field="double(float(minMaxScaler(x16)))" operator="greaterThan" value="0.02445631567388773"/>
									<ScoreDistribution value="0" recordCount="2735"/>
									<ScoreDistribution value="1" recordCount="10610"/>
								</Node>
							</Node>
						</Node>
						<Node>
							<SimplePredicate field="double(float(minMaxScaler(x19)))" operator="greaterThan" value="0.0034153368324041367"/>
							<Node>
								<SimplePredicate field="double(float(minMaxScaler(x5)))" operator="lessOrEqual" value="0.037230636924505234"/>
								<Node score="0" recordCount="118629">
									<SimplePredicate field="double(float(x56))" operator="lessOrEqual" value="6.562289781868458E-4"/>
									<ScoreDistribution value="0" recordCount="118562"/>
									<ScoreDistribution value="1" recordCount="67"/>
								</Node>
								<Node score="0" recordCount="5432">
									<SimplePredicate field="double(float(x56))" operator="greaterThan" value="6.562289781868458E-4"/>
									<ScoreDistribution value="0" recordCount="4038"/>
									<ScoreDistribution value="1" recordCount="1394"/>
								</Node>
							</Node>
							<Node>
								<SimplePredicate field="double(float(minMaxScaler(x5)))" operator="greaterThan" value="0.037230636924505234"/>
								<Node score="1" recordCount="26792">
									<SimplePredicate field="double(float(minMaxScaler(x46)))" operator="lessOrEqual" value="1.5694294575041567E-7"/>
									<ScoreDistribution value="0" recordCount="1755"/>
									<ScoreDistribution value="1" recordCount="25037"/>
								</Node>
								<Node score="1" recordCount="20912">
									<SimplePredicate field="double(float(minMaxScaler(x46)))" operator="greaterThan" value="1.5694294575041567E-7"/>
									<ScoreDistribution value="0" recordCount="121"/>
									<ScoreDistribution value="1" recordCount="20791"/>
								</Node>
							</Node>
						</Node>
					</Node>
				</TreeModel>
			</Segment>
			<Segment id="2">
				<True/>
				<TreeModel functionName="classification" splitCharacteristic="binarySplit">
					<MiningSchema>
						<MiningField name="double(float(minMaxScaler(x16)))"/>
						<MiningField name="double(float(x56))"/>
						<MiningField name="double(float(minMaxScaler(x4)))"/>
						<MiningField name="double(float(minMaxScaler(x11)))"/>
						<MiningField name="double(float(minMaxScaler(x15)))"/>
						<MiningField name="double(float(minMaxScaler(x30)))"/>
						<MiningField name="double(float(minMaxScaler(x9)))"/>
					</MiningSchema>
					<Node>
						<True/>
						<Node>
							<SimplePredicate field="double(float(minMaxScaler(x4)))" operator="lessOrEqual" value="2.21835398406256E-6"/>
							<Node>
								<SimplePredicate field="double(float(minMaxScaler(x11)))" operator="lessOrEqual" value="0.31481482088565826"/>
								<Node score="0" recordCount="122603">
									<SimplePredicate field="double(float(x56))" operator="lessOrEqual" value="0.13809524476528168"/>
									<ScoreDistribution value="0" recordCount="122603"/>
									<ScoreDistribution value="1" recordCount="0"/>
								</Node>
								<Node score="0" recordCount="22">
									<SimplePredicate field="double(float(x56))" operator="greaterThan" value="0.13809524476528168"/>
									<ScoreDistribution value="0" recordCount="21"/>
									<ScoreDistribution value="1" recordCount="1"/>
								</Node>
							</Node>
							<Node>
								<SimplePredicate field="double(float(minMaxScaler(x11)))" operator="greaterThan" value="0.31481482088565826"/>
								<Node score="0" recordCount="1610">
									<SimplePredicate field="double(float(minMaxScaler(x15)))" operator="lessOrEqual" value="0.5571428835391998"/>
									<ScoreDistribution value="0" recordCount="1610"/>
									<ScoreDistribution value="1" recordCount="0"/>
								</Node>
								<Node score="1" recordCount="878">
									<SimplePredicate field="double(float(minMaxScaler(x15)))" operator="greaterThan" value="0.5571428835391998"/>
									<ScoreDistribution value="0" recordCount="412"/>
									<ScoreDistribution value="1" recordCount="466"/>
								</Node>
							</Node>
						</Node>
						<Node>
							<SimplePredicate field="double(float(minMaxScaler(x4)))" operator="greaterThan" value="2.21835398406256E-6"/>
							<Node>
								<SimplePredicate field="double(float(minMaxScaler(x16)))" operator="lessOrEqual" value="0.054346511140465736"/>
								<Node score="1" recordCount="111947">
									<SimplePredicate field="double(float(minMaxScaler(x30)))" operator="lessOrEqual" value="0.12485580891370773"/>
									<ScoreDistribution value="0" recordCount="977"/>
									<ScoreDistribution value="1" recordCount="110970"/>
								</Node>
								<Node score="0" recordCount="3464">
									<SimplePredicate field="double(float(minMaxScaler(x30)))" operator="greaterThan" value="0.12485580891370773"/>
									<ScoreDistribution value="0" recordCount="1885"/>
									<ScoreDistribution value="1" recordCount="1579"/>
								</Node>
							</Node>
							<Node>
								<SimplePredicate field="double(float(minMaxScaler(x16)))" operator="greaterThan" value="0.054346511140465736"/>
								<Node score="0" recordCount="10937">
									<SimplePredicate field="double(float(minMaxScaler(x9)))" operator="lessOrEqual" value="1.3463957202475285E-6"/>
									<ScoreDistribution value="0" recordCount="6855"/>
									<ScoreDistribution value="1" recordCount="4082"/>
								</Node>
								<Node score="1" recordCount="24775">
									<SimplePredicate field="double(float(minMaxScaler(x9)))" operator="greaterThan" value="1.3463957202475285E-6"/>
									<ScoreDistribution value="0" recordCount="3518"/>
									<ScoreDistribution value="1" recordCount="21257"/>
								</Node>
							</Node>
						</Node>
					</Node>
				</TreeModel>
			</Segment>
			<Segment id="3">
				<True/>
				<TreeModel functionName="classification" splitCharacteristic="binarySplit">
					<MiningSchema>
						<MiningField name="x45"/>
						<MiningField name="double(float(minMaxScaler(x29)))"/>
						<MiningField name="double(float(minMaxScaler(x5)))"/>
						<MiningField name="double(float(minMaxScaler(x4)))"/>
						<MiningField name="double(float(minMaxScaler(x24)))"/>
						<MiningField name="double(float(minMaxScaler(x70)))"/>
					</MiningSchema>
					<LocalTransformations>
						<DerivedField name="minMaxScaler(x45)" optype="continuous" dataType="double">
							<Apply function="*">
								<FieldRef field="x45"/>
								<Constant dataType="double">0.05263157894736842</Constant>
							</Apply>
						</DerivedField>
						<DerivedField name="float(minMaxScaler(x45))" optype="continuous" dataType="float">
							<FieldRef field="minMaxScaler(x45)"/>
						</DerivedField>
						<DerivedField name="double(float(minMaxScaler(x45)))" optype="continuous" dataType="double">
							<FieldRef field="float(minMaxScaler(x45))"/>
						</DerivedField>
					</LocalTransformations>
					<Node>
						<True/>
						<Node>
							<SimplePredicate field="double(float(minMaxScaler(x29)))" operator="lessOrEqual" value="0.012492302805185318"/>
							<Node>
								<SimplePredicate field="double(float(minMaxScaler(x24)))" operator="lessOrEqual" value="1.650064689329156E-7"/>
								<Node score="0" recordCount="34802">
									<SimplePredicate field="double(float(minMaxScaler(x5)))" operator="lessOrEqual" value="0.013930499088019133"/>
									<ScoreDistribution value="0" recordCount="34238"/>
									<ScoreDistribution value="1" recordCount="564"/>
								</Node>
								<Node score="1" recordCount="96739">
									<SimplePredicate field="double(float(minMaxScaler(x5)))" operator="greaterThan" value="0.013930499088019133"/>
									<ScoreDistribution value="0" recordCount="3402"/>
									<ScoreDistribution value="1" recordCount="93337"/>
								</Node>
							</Node>
							<Node>
								<SimplePredicate field="double(float(minMaxScaler(x24)))" operator="greaterThan" value="1.650064689329156E-7"/>
								<Node score="1" recordCount="34340">
									<SimplePredicate field="double(float(minMaxScaler(x70)))" operator="lessOrEqual" value="0.09521958231925964"/>
									<ScoreDistribution value="0" recordCount="741"/>
									<ScoreDistribution value="1" recordCount="33599"/>
								</Node>
								<Node score="1" recordCount="3071">
									<SimplePredicate field="double(float(minMaxScaler(x70)))" operator="greaterThan" value="0.09521958231925964"/>
									<ScoreDistribution value="0" recordCount="1258"/>
									<ScoreDistribution value="1" recordCount="1813"/>
								</Node>
							</Node>
						</Node>
						<Node>
							<SimplePredicate field="double(float(minMaxScaler(x29)))" operator="greaterThan" value="0.012492302805185318"/>
							<Node>
								<SimplePredicate field="double(float(minMaxScaler(x45)))" operator="lessOrEqual" value="1.0446832311572507E-4"/>
								<Node score="0" recordCount="91798">
									<SimplePredicate field="double(float(minMaxScaler(x4)))" operator="lessOrEqual" value="1.2198097101645544E-4"/>
									<ScoreDistribution value="0" recordCount="91798"/>
									<ScoreDistribution value="1" recordCount="0"/>
								</Node>
								<Node score="0" recordCount="12368">
									<SimplePredicate field="double(float(minMaxScaler(x4)))" operator="greaterThan" value="1.2198097101645544E-4"/>
									<ScoreDistribution value="0" recordCount="6433"/>
									<ScoreDistribution value="1" recordCount="5935"/>
								</Node>
							</Node>
							<Node>
								<SimplePredicate field="double(float(minMaxScaler(x45)))" operator="greaterThan" value="1.0446832311572507E-4"/>
								<Node score="0" recordCount="625">
									<SimplePredicate field="double(float(minMaxScaler(x4)))" operator="lessOrEqual" value="0.0012023528397548944"/>
									<ScoreDistribution value="0" recordCount="625"/>
									<ScoreDistribution value="1" recordCount="0"/>
								</Node>
								<Node score="1" recordCount="2493">
									<SimplePredicate field="double(float(minMaxScaler(x4)))" operator="greaterThan" value="0.0012023528397548944"/>
									<ScoreDistribution value="0" recordCount="46"/>
									<ScoreDistribution value="1" recordCount="2447"/>
								</Node>
							</Node>
						</Node>
					</Node>
				</TreeModel>
			</Segment>
			<Segment id="4">
				<True/>
				<TreeModel functionName="classification" splitCharacteristic="binarySplit">
					<MiningSchema>
						<MiningField name="double(float(minMaxScaler(x29)))"/>
						<MiningField name="double(float(minMaxScaler(x5)))"/>
						<MiningField name="double(float(minMaxScaler(x4)))"/>
						<MiningField name="double(float(minMaxScaler(x2)))"/>
						<MiningField name="double(float(minMaxScaler(x8)))"/>
						<MiningField name="double(float(minMaxScaler(x26)))"/>
						<MiningField name="double(float(minMaxScaler(x17)))"/>
					</MiningSchema>
					<Node>
						<True/>
						<Node>
							<SimplePredicate field="double(float(minMaxScaler(x29)))" operator="lessOrEqual" value="0.012498949654400349"/>
							<Node>
								<SimplePredicate field="double(float(minMaxScaler(x2)))" operator="lessOrEqual" value="0.13373491913080215"/>
								<Node score="1" recordCount="151350">
									<SimplePredicate field="double(float(minMaxScaler(x8)))" operator="lessOrEqual" value="0.44410736858844757"/>
									<ScoreDistribution value="0" recordCount="24851"/>
									<ScoreDistribution value="1" recordCount="126499"/>
								</Node>
								<Node score="0" recordCount="8505">
									<SimplePredicate field="double(float(minMaxScaler(x8)))" operator="greaterThan" value="0.44410736858844757"/>
									<ScoreDistribution value="0" recordCount="8072"/>
									<ScoreDistribution value="1" recordCount="433"/>
								</Node>
							</Node>
							<Node>
								<SimplePredicate field="double(float(minMaxScaler(x2)))" operator="greaterThan" value="0.13373491913080215"/>
								<Node score="0" recordCount="7103">
									<SimplePredicate field="double(float(minMaxScaler(x26)))" operator="lessOrEqual" value="1.421734214090975E-5"/>
									<ScoreDistribution value="0" recordCount="7096"/>
									<ScoreDistribution value="1" recordCount="7"/>
								</Node>
								<Node score="1" recordCount="2487">
									<SimplePredicate field="double(float(minMaxScaler(x26)))" operator="greaterThan" value="1.421734214090975E-5"/>
									<ScoreDistribution value="0" recordCount="47"/>
									<ScoreDistribution value="1" recordCount="2440"/>
								</Node>
							</Node>
						</Node>
						<Node>
							<SimplePredicate field="double(float(minMaxScaler(x29)))" operator="greaterThan" value="0.012498949654400349"/>
							<Node>
								<SimplePredicate field="double(float(minMaxScaler(x4)))" operator="lessOrEqual" value="4.946097469655797E-4"/>
								<Node score="1" recordCount="442">
									<SimplePredicate field="double(float(minMaxScaler(x17)))" operator="lessOrEqual" value="0.011472442653030157"/>
									<ScoreDistribution value="0" recordCount="119"/>
									<ScoreDistribution value="1" recordCount="323"/>
								</Node>
								<Node score="0" recordCount="93793">
									<SimplePredicate field="double(float(minMaxScaler(x17)))" operator="greaterThan" value="0.011472442653030157"/>
									<ScoreDistribution value="0" recordCount="93793"/>
									<ScoreDistribution value="1" recordCount="0"/>
								</Node>
							</Node>
							<Node>
								<SimplePredicate field="double(float(minMaxScaler(x4)))" operator="greaterThan" value="4.946097469655797E-4"/>
								<Node score="0" recordCount="1654">
									<SimplePredicate field="double(float(minMaxScaler(x5)))" operator="lessOrEqual" value="0.025730392895638943"/>
									<ScoreDistribution value="0" recordCount="1593"/>
									<ScoreDistribution value="1" recordCount="61"/>
								</Node>
								<Node score="1" recordCount="10902">
									<SimplePredicate field="double(float(minMaxScaler(x5)))" operator="greaterThan" value="0.025730392895638943"/>
									<ScoreDistribution value="0" recordCount="2695"/>
									<ScoreDistribution value="1" recordCount="8207"/>
								</Node>
							</Node>
						</Node>
					</Node>
				</TreeModel>
			</Segment>
			<Segment id="5">
				<True/>
				<TreeModel functionName="classification" splitCharacteristic="binarySplit">
					<MiningSchema>
						<MiningField name="double(float(minMaxScaler(x19)))"/>
						<MiningField name="double(float(minMaxScaler(x8)))"/>
						<MiningField name="double(float(minMaxScaler(x1)))"/>
						<MiningField name="double(float(minMaxScaler(x13)))"/>
						<MiningField name="double(float(minMaxScaler(x65)))"/>
						<MiningField name="double(float(minMaxScaler(x7)))"/>
					</MiningSchema>
					<Node>
						<True/>
						<Node>
							<SimplePredicate field="double(float(minMaxScaler(x19)))" operator="lessOrEqual" value="0.0034152271691709757"/>
							<Node>
								<SimplePredicate field="double(float(minMaxScaler(x19)))" operator="lessOrEqual" value="0.001219758007209748"/>
								<Node score="1" recordCount="23369">
									<SimplePredicate field="double(float(minMaxScaler(x8)))" operator="lessOrEqual" value="3.223851707812031E-7"/>
									<ScoreDistribution value="0" recordCount="1188"/>
									<ScoreDistribution value="1" recordCount="22181"/>
								</Node>
								<Node score="1" recordCount="36448">
									<SimplePredicate field="double(float(minMaxScaler(x8)))" operator="greaterThan" value="3.223851707812031E-7"/>
									<ScoreDistribution value="0" recordCount="7"/>
									<ScoreDistribution value="1" recordCount="36441"/>
								</Node>
							</Node>
							<Node>
								<SimplePredicate field="double(float(minMaxScaler(x19)))" operator="greaterThan" value="0.001219758007209748"/>
								<Node score="0" recordCount="12115">
									<SimplePredicate field="double(float(minMaxScaler(x1)))" operator="lessOrEqual" value="0.010872559156268835"/>
									<ScoreDistribution value="0" recordCount="10950"/>
									<ScoreDistribution value="1" recordCount="1165"/>
								</Node>
								<Node score="1" recordCount="32701">
									<SimplePredicate field="double(float(minMaxScaler(x1)))" operator="greaterThan" value="0.010872559156268835"/>
									<ScoreDistribution value="0" recordCount="1451"/>
									<ScoreDistribution value="1" recordCount="31250"/>
								</Node>
							</Node>
						</Node>
						<Node>
							<SimplePredicate field="double(float(minMaxScaler(x19)))" operator="greaterThan" value="0.0034152271691709757"/>
							<Node>
								<SimplePredicate field="double(float(minMaxScaler(x13)))" operator="lessOrEqual" value="4.577321703891357E-7"/>
								<Node score="0" recordCount="96260">
									<SimplePredicate field="double(float(minMaxScaler(x65)))" operator="lessOrEqual" value="3.7436915590660647E-5"/>
									<ScoreDistribution value="0" recordCount="90546"/>
									<ScoreDistribution value="1" recordCount="5714"/>
								</Node>
								<Node score="1" recordCount="4380">
									<SimplePredicate field="double(float(minMaxScaler(x65)))" operator="greaterThan" value="3.7436915590660647E-5"/>
									<ScoreDistribution value="0" recordCount="484"/>
									<ScoreDistribution value="1" recordCount="3896"/>
								</Node>
							</Node>
							<Node>
								<SimplePredicate field="double(float(minMaxScaler(x13)))" operator="greaterThan" value="4.577321703891357E-7"/>
								<Node score="1" recordCount="53177">
									<SimplePredicate field="double(float(minMaxScaler(x7)))" operator="lessOrEqual" value="0.3041963279247284"/>
									<ScoreDistribution value="0" recordCount="16711"/>
									<ScoreDistribution value="1" recordCount="36466"/>
								</Node>
								<Node score="0" recordCount="17786">
									<SimplePredicate field="double(float(minMaxScaler(x7)))" operator="greaterThan" value="0.3041963279247284"/>
									<ScoreDistribution value="0" recordCount="16894"/>
									<ScoreDistribution value="1" recordCount="892"/>
								</Node>
							</Node>
						</Node>
					</Node>
				</TreeModel>
			</Segment>
			<Segment id="6">
				<True/>
				<TreeModel functionName="classification" splitCharacteristic="binarySplit">
					<MiningSchema>
						<MiningField name="double(float(minMaxScaler(x5)))"/>
						<MiningField name="double(float(minMaxScaler(x4)))"/>
						<MiningField name="double(float(minMaxScaler(x30)))"/>
						<MiningField name="double(float(minMaxScaler(x6)))"/>
						<MiningField name="double(float(minMaxScaler(x55)))"/>
					</MiningSchema>
					<Node>
						<True/>
						<Node>
							<SimplePredicate field="double(float(minMaxScaler(x30)))" operator="lessOrEqual" value="0.0894792340695858"/>
							<Node>
								<SimplePredicate field="double(float(minMaxScaler(x6)))" operator="lessOrEqual" value="0.1999526098370552"/>
								<Node score="1" recordCount="52281">
									<SimplePredicate field="double(float(minMaxScaler(x6)))" operator="lessOrEqual" value="2.3349098228209186E-6"/>
									<ScoreDistribution value="0" recordCount="22907"/>
									<ScoreDistribution value="1" recordCount="29374"/>
								</Node>
								<Node score="1" recordCount="111533">
									<SimplePredicate field="double(float(minMaxScaler(x6)))" operator="greaterThan" value="2.3349098228209186E-6"/>
									<ScoreDistribution value="0" recordCount="6616"/>
									<ScoreDistribution value="1" recordCount="104917"/>
								</Node>
							</Node>
							<Node>
								<SimplePredicate field="double(float(minMaxScaler(x6)))" operator="greaterThan" value="0.1999526098370552"/>
								<Node score="0" recordCount="21533">
									<SimplePredicate field="double(float(minMaxScaler(x55)))" operator="lessOrEqual" value="1.964094117283821E-4"/>
									<ScoreDistribution value="0" recordCount="21341"/>
									<ScoreDistribution value="1" recordCount="192"/>
								</Node>
								<Node score="1" recordCount="973">
									<SimplePredicate field="double(float(minMaxScaler(x55)))" operator="greaterThan" value="1.964094117283821E-4"/>
									<ScoreDistribution value="0" recordCount="82"/>
									<ScoreDistribution value="1" recordCount="891"/>
								</Node>
							</Node>
						</Node>
						<Node>
							<SimplePredicate field="double(float(minMaxScaler(x30)))" operator="greaterThan" value="0.0894792340695858"/>
							<Node score="0" recordCount="82607">
								<SimplePredicate field="double(float(minMaxScaler(x5)))" operator="lessOrEqual" value="0.014431475661695004"/>
								<ScoreDistribution value="0" recordCount="82607"/>
								<ScoreDistribution value="1" recordCount="0"/>
							</Node>
							<Node>
								<SimplePredicate field="double(float(minMaxScaler(x5)))" operator="greaterThan" value="0.014431475661695004"/>
								<Node score="0" recordCount="4794">
									<SimplePredicate field="double(float(minMaxScaler(x4)))" operator="lessOrEqual" value="0.0026840559439733624"/>
									<ScoreDistribution value="0" recordCount="3580"/>
									<ScoreDistribution value="1" recordCount="1214"/>
								</Node>
								<Node score="1" recordCount="2515">
									<SimplePredicate field="double(float(minMaxScaler(x4)))" operator="greaterThan" value="0.0026840559439733624"/>
									<ScoreDistribution value="0" recordCount="816"/>
									<ScoreDistribution value="1" recordCount="1699"/>
								</Node>
							</Node>
						</Node>
					</Node>
				</TreeModel>
			</Segment>
			<Segment id="7">
				<True/>
				<TreeModel functionName="classification" splitCharacteristic="binarySplit">
					<MiningSchema>
						<MiningField name="double(float(minMaxScaler(x5)))"/>
						<MiningField name="double(float(minMaxScaler(x30)))"/>
						<MiningField name="double(float(minMaxScaler(x17)))"/>
						<MiningField name="double(float(minMaxScaler(x6)))"/>
						<MiningField name="double(float(minMaxScaler(x20)))"/>
					</MiningSchema>
					<Node>
						<True/>
						<Node>
							<SimplePredicate field="double(float(minMaxScaler(x30)))" operator="lessOrEqual" value="0.08953205868601799"/>
							<Node>
								<SimplePredicate field="double(float(minMaxScaler(x20)))" operator="lessOrEqual" value="0.024107180535793304"/>
								<Node score="1" recordCount="28718">
									<SimplePredicate field="double(float(minMaxScaler(x6)))" operator="lessOrEqual" value="2.3349098228209186E-6"/>
									<ScoreDistribution value="0" recordCount="5491"/>
									<ScoreDistribution value="1" recordCount="23227"/>
								</Node>
								<Node score="1" recordCount="51541">
									<SimplePredicate field="double(float(minMaxScaler(x6)))" operator="greaterThan" value="2.3349098228209186E-6"/>
									<ScoreDistribution value="0" recordCount="274"/>
									<ScoreDistribution value="1" recordCount="51267"/>
								</Node>
							</Node>
							<Node>
								<SimplePredicate field="double(float(minMaxScaler(x20)))" operator="greaterThan" value="0.024107180535793304"/>
								<Node score="1" recordCount="74769">
									<SimplePredicate field="double(float(minMaxScaler(x17)))" operator="lessOrEqual" value="0.21062003076076508"/>
									<ScoreDistribution value="0" recordCount="15698"/>
									<ScoreDistribution value="1" recordCount="59071"/>
								</Node>
								<Node score="0" recordCount="30718">
									<SimplePredicate field="double(float(minMaxScaler(x17)))" operator="greaterThan" value="0.21062003076076508"/>
									<ScoreDistribution value="0" recordCount="29274"/>
									<ScoreDistribution value="1" recordCount="1444"/>
								</Node>
							</Node>
						</Node>
						<Node>
							<SimplePredicate field="double(float(minMaxScaler(x30)))" operator="greaterThan" value="0.08953205868601799"/>
							<Node score="0" recordCount="82941">
								<SimplePredicate field="double(float(minMaxScaler(x5)))" operator="lessOrEqual" value="0.01438839826732874"/>
								<ScoreDistribution value="0" recordCount="82941"/>
								<ScoreDistribution value="1" recordCount="0"/>
							</Node>
							<Node>
								<SimplePredicate field="double(float(minMaxScaler(x5)))" operator="greaterThan" value="0.01438839826732874"/>
								<Node score="0" recordCount="5653">
									<SimplePredicate field="double(float(minMaxScaler(x5)))" operator="lessOrEqual" value="0.04342580772936344"/>
									<ScoreDistribution value="0" recordCount="4104"/>
									<ScoreDistribution value="1" recordCount="1549"/>
								</Node>
								<Node score="1" recordCount="1896">
									<SimplePredicate field="double(float(minMaxScaler(x5)))" operator="greaterThan" value="0.04342580772936344"/>
									<ScoreDistribution value="0" recordCount="514"/>
									<ScoreDistribution value="1" recordCount="1382"/>
								</Node>
							</Node>
						</Node>
					</Node>
				</TreeModel>
			</Segment>
			<Segment id="8">
				<True/>
				<TreeModel functionName="classification" splitCharacteristic="binarySplit">
					<MiningSchema>
						<MiningField name="double(float(minMaxScaler(x29)))"/>
						<MiningField name="double(float(minMaxScaler(x4)))"/>
						<MiningField name="double(float(minMaxScaler(x8)))"/>
						<MiningField name="double(float(minMaxScaler(x37)))"/>
						<MiningField name="double(float(minMaxScaler(x59)))"/>
					</MiningSchema>
					<Node>
						<True/>
						<Node>
							<SimplePredicate field="double(float(minMaxScaler(x8)))" operator="lessOrEqual" value="0.43745170533657074"/>
							<Node>
								<SimplePredicate field="double(float(minMaxScaler(x29)))" operator="lessOrEqual" value="0.012498949654400349"/>
								<Node score="1" recordCount="96170">
									<SimplePredicate field="double(float(minMaxScaler(x37)))" operator="lessOrEqual" value="3.229913829727593E-7"/>
									<ScoreDistribution value="0" recordCount="19177"/>
									<ScoreDistribution value="1" recordCount="76993"/>
								</Node>
								<Node score="1" recordCount="57534">
									<SimplePredicate field="double(float(minMaxScaler(x37)))" operator="greaterThan" value="3.229913829727593E-7"/>
									<ScoreDistribution value="0" recordCount="5500"/>
									<ScoreDistribution value="1" recordCount="52034"/>
								</Node>
							</Node>
							<Node>
								<SimplePredicate field="double(float(minMaxScaler(x29)))" operator="greaterThan" value="0.012498949654400349"/>
								<Node score="0" recordCount="64170">
									<SimplePredicate field="double(float(minMaxScaler(x59)))" operator="lessOrEqual" value="5.331112770363688E-4"/>
									<ScoreDistribution value="0" recordCount="58806"/>
									<ScoreDistribution value="1" recordCount="5364"/>
								</Node>
								<Node score="1" recordCount="2629">
									<SimplePredicate field="double(float(minMaxScaler(x59)))" operator="greaterThan" value="5.331112770363688E-4"/>
									<ScoreDistribution value="0" recordCount="59"/>
									<ScoreDistribution value="1" recordCount="2570"/>
								</Node>
							</Node>
						</Node>
						<Node>
							<SimplePredicate field="double(float(minMaxScaler(x8)))" operator="greaterThan" value="0.43745170533657074"/>
							<Node score="0" recordCount="52697">
								<SimplePredicate field="double(float(minMaxScaler(x4)))" operator="lessOrEqual" value="1.2198097101645544E-4"/>
								<ScoreDistribution value="0" recordCount="52697"/>
								<ScoreDistribution value="1" recordCount="0"/>
							</Node>
							<Node>
								<SimplePredicate field="double(float(minMaxScaler(x4)))" operator="greaterThan" value="1.2198097101645544E-4"/>
								<Node score="1" recordCount="1696">
									<SimplePredicate field="double(float(minMaxScaler(x29)))" operator="lessOrEqual" value="0.018750000279396772"/>
									<ScoreDistribution value="0" recordCount="544"/>
									<ScoreDistribution value="1" recordCount="1152"/>
								</Node>
								<Node score="0" recordCount="1340">
									<SimplePredicate field="double(float(minMaxScaler(x29)))" operator="greaterThan" value="0.018750000279396772"/>
									<ScoreDistribution value="0" recordCount="1340"/>
									<ScoreDistribution value="1" recordCount="0"/>
								</Node>
							</Node>
						</Node>
					</Node>
				</TreeModel>
			</Segment>
			<Segment id="9">
				<True/>
				<TreeModel functionName="classification" splitCharacteristic="binarySplit">
					<MiningSchema>
						<MiningField name="double(float(minMaxScaler(x5)))"/>
						<MiningField name="double(float(x56))"/>
						<MiningField name="double(float(minMaxScaler(x4)))"/>
						<MiningField name="double(float(minMaxScaler(x70)))"/>
						<MiningField name="double(float(minMaxScaler(x1)))"/>
						<MiningField name="double(float(minMaxScaler(x20)))"/>
						<MiningField name="double(float(minMaxScaler(x3)))"/>
					</MiningSchema>
					<Node>
						<True/>
						<Node>
							<SimplePredicate field="double(float(minMaxScaler(x20)))" operator="lessOrEqual" value="0.018611297942698002"/>
							<Node>
								<SimplePredicate field="double(float(minMaxScaler(x70)))" operator="lessOrEqual" value="0.22185929864645004"/>
								<Node score="1" recordCount="55220">
									<SimplePredicate field="double(float(minMaxScaler(x3)))" operator="lessOrEqual" value="0.17064714431762695"/>
									<ScoreDistribution value="0" recordCount="1246"/>
									<ScoreDistribution value="1" recordCount="53974"/>
								</Node>
								<Node score="0" recordCount="1011">
									<SimplePredicate field="double(float(minMaxScaler(x3)))" operator="greaterThan" value="0.17064714431762695"/>
									<ScoreDistribution value="0" recordCount="643"/>
									<ScoreDistribution value="1" recordCount="368"/>
								</Node>
							</Node>
							<Node>
								<SimplePredicate field="double(float(minMaxScaler(x70)))" operator="greaterThan" value="0.22185929864645004"/>
								<Node score="0" recordCount="921">
									<SimplePredicate field="double(float(minMaxScaler(x1)))" operator="lessOrEqual" value="0.009075907990336418"/>
									<ScoreDistribution value="0" recordCount="921"/>
									<ScoreDistribution value="1" recordCount="0"/>
								</Node>
								<Node score="0" recordCount="259">
									<SimplePredicate field="double(float(minMaxScaler(x1)))" operator="greaterThan" value="0.009075907990336418"/>
									<ScoreDistribution value="0" recordCount="144"/>
									<ScoreDistribution value="1" recordCount="115"/>
								</Node>
							</Node>
						</Node>
						<Node>
							<SimplePredicate field="double(float(minMaxScaler(x20)))" operator="greaterThan" value="0.018611297942698002"/>
							<Node>
								<SimplePredicate field="double(float(minMaxScaler(x5)))" operator="lessOrEqual" value="0.027146819047629833"/>
								<Node score="0" recordCount="122067">
									<SimplePredicate field="double(float(minMaxScaler(x4)))" operator="lessOrEqual" value="1.2198097101645544E-4"/>
									<ScoreDistribution value="0" recordCount="122067"/>
									<ScoreDistribution value="1" recordCount="0"/>
								</Node>
								<Node score="0" recordCount="11150">
									<SimplePredicate field="double(float(minMaxScaler(x4)))" operator="greaterThan" value="1.2198097101645544E-4"/>
									<ScoreDistribution value="0" recordCount="9020"/>
									<ScoreDistribution value="1" recordCount="2130"/>
								</Node>
							</Node>
							<Node>
								<SimplePredicate field="double(float(minMaxScaler(x5)))" operator="greaterThan" value="0.027146819047629833"/>
								<Node score="1" recordCount="31244">
									<SimplePredicate field="double(float(x56))" operator="lessOrEqual" value="3.129172228000243E-6"/>
									<ScoreDistribution value="0" recordCount="3550"/>
									<ScoreDistribution value="1" recordCount="27694"/>
								</Node>
								<Node score="1" recordCount="54364">
									<SimplePredicate field="double(float(x56))" operator="greaterThan" value="3.129172228000243E-6"/>
									<ScoreDistribution value="0" recordCount="529"/>
									<ScoreDistribution value="1" recordCount="53835"/>
								</Node>
							</Node>
						</Node>
					</Node>
				</TreeModel>
			</Segment>
			<Segment id="10">
				<True/>
				<TreeModel functionName="classification" splitCharacteristic="binarySplit">
					<MiningSchema>
						<MiningField name="double(float(minMaxScaler(x19)))"/>
						<MiningField name="double(float(minMaxScaler(x4)))"/>
						<MiningField name="double(float(minMaxScaler(x6)))"/>
						<MiningField name="double(float(minMaxScaler(x10)))"/>
					</MiningSchema>
					<Node>
						<True/>
						<Node>
							<SimplePredicate field="double(float(minMaxScaler(x4)))" operator="lessOrEqual" value="2.21835398406256E-6"/>
							<Node score="1" recordCount="475">
								<SimplePredicate field="double(float(minMaxScaler(x19)))" operator="lessOrEqual" value="2.4396194203291088E-4"/>
								<ScoreDistribution value="0" recordCount="0"/>
								<ScoreDistribution value="1" recordCount="475"/>
							</Node>
							<Node score="0" recordCount="124746">
								<SimplePredicate field="double(float(minMaxScaler(x19)))" operator="greaterThan" value="2.4396194203291088E-4"/>
								<ScoreDistribution value="0" recordCount="124746"/>
								<ScoreDistribution value="1" recordCount="0"/>
							</Node>
						</Node>
						<Node>
							<SimplePredicate field="double(float(minMaxScaler(x4)))" operator="greaterThan" value="2.21835398406256E-6"/>
							<Node>
								<SimplePredicate field="double(float(minMaxScaler(x19)))" operator="lessOrEqual" value="0.0034153368324041367"/>
								<Node score="1" recordCount="27040">
									<SimplePredicate field="double(float(minMaxScaler(x6)))" operator="lessOrEqual" value="1.3550156836572569E-6"/>
									<ScoreDistribution value="0" recordCount="538"/>
									<ScoreDistribution value="1" recordCount="26502"/>
								</Node>
								<Node score="1" recordCount="64123">
									<SimplePredicate field="double(float(minMaxScaler(x6)))" operator="greaterThan" value="1.3550156836572569E-6"/>
									<ScoreDistribution value="0" recordCount="8"/>
									<ScoreDistribution value="1" recordCount="64115"/>
								</Node>
							</Node>
							<Node>
								<SimplePredicate field="double(float(minMaxScaler(x19)))" operator="greaterThan" value="0.0034153368324041367"/>
								<Node score="0" recordCount="10148">
									<SimplePredicate field="double(float(minMaxScaler(x10)))" operator="lessOrEqual" value="1.6049754776759073E-5"/>
									<ScoreDistribution value="0" recordCount="6484"/>
									<ScoreDistribution value="1" recordCount="3664"/>
								</Node>
								<Node score="1" recordCount="49704">
									<SimplePredicate field="double(float(minMaxScaler(x10)))" operator="greaterThan" value="1.6049754776759073E-5"/>
									<ScoreDistribution value="0" recordCount="6588"/>
									<ScoreDistribution value="1" recordCount="43116"/>
								</Node>
							</Node>
						</Node>
					</Node>
				</TreeModel>
			</Segment>
			<Segment id="11">
				<True/>
				<TreeModel functionName="classification" splitCharacteristic="binarySplit">
					<MiningSchema>
						<MiningField name="double(float(minMaxScaler(x19)))"/>
						<MiningField name="double(float(minMaxScaler(x9)))"/>
						<MiningField name="double(float(minMaxScaler(x17)))"/>
						<MiningField name="double(float(minMaxScaler(x13)))"/>
						<MiningField name="double(float(minMaxScaler(x55)))"/>
						<MiningField name="double(float(minMaxScaler(x20)))"/>
						<MiningField name="double(float(minMaxScaler(x23)))"/>
					</MiningSchema>
					<Node>
						<True/>
						<Node>
							<SimplePredicate field="double(float(minMaxScaler(x20)))" operator="lessOrEqual" value="0.018610336817801"/>
							<Node>
								<SimplePredicate field="double(float(minMaxScaler(x19)))" operator="lessOrEqual" value="9.756871149875224E-4"/>
								<Node score="1" recordCount="19617">
									<SimplePredicate field="double(float(minMaxScaler(x9)))" operator="lessOrEqual" value="2.517215019204322E-7"/>
									<ScoreDistribution value="0" recordCount="600"/>
									<ScoreDistribution value="1" recordCount="19017"/>
								</Node>
								<Node score="1" recordCount="29352">
									<SimplePredicate field="double(float(minMaxScaler(x9)))" operator="greaterThan" value="2.517215019204322E-7"/>
									<ScoreDistribution value="0" recordCount="0"/>
									<ScoreDistribution value="1" recordCount="29352"/>
								</Node>
							</Node>
							<Node>
								<SimplePredicate field="double(float(minMaxScaler(x19)))" operator="greaterThan" value="9.756871149875224E-4"/>
								<Node score="1" recordCount="6013">
									<SimplePredicate field="double(float(minMaxScaler(x23)))" operator="lessOrEqual" value="1.535505180072505E-5"/>
									<ScoreDistribution value="0" recordCount="2177"/>
									<ScoreDistribution value="1" recordCount="3836"/>
								</Node>
								<Node score="1" recordCount="1941">
									<SimplePredicate field="double(float(minMaxScaler(x23)))" operator="greaterThan" value="1.535505180072505E-5"/>
									<ScoreDistribution value="0" recordCount="70"/>
									<ScoreDistribution value="1" recordCount="1871"/>
								</Node>
							</Node>
						</Node>
						<Node>
							<SimplePredicate field="double(float(minMaxScaler(x20)))" operator="greaterThan" value="0.018610336817801"/>
							<Node>
								<SimplePredicate field="double(float(minMaxScaler(x13)))" operator="lessOrEqual" value="4.577321703891357E-7"/>
								<Node score="0" recordCount="103888">
									<SimplePredicate field="double(float(minMaxScaler(x55)))" operator="lessOrEqual" value="1.4044391718925908E-5"/>
									<ScoreDistribution value="0" recordCount="97272"/>
									<ScoreDistribution value="1" recordCount="6616"/>
								</Node>
								<Node score="1" recordCount="17383">
									<SimplePredicate field="double(float(minMaxScaler(x55)))" operator="greaterThan" value="1.4044391718925908E-5"/>
									<ScoreDistribution value="0" recordCount="2601"/>
									<ScoreDistribution value="1" recordCount="14782"/>
								</Node>
							</Node>
							<Node>
								<SimplePredicate field="double(float(minMaxScaler(x13)))" operator="greaterThan" value="4.577321703891357E-7"/>
								<Node score="1" recordCount="79181">
									<SimplePredicate field="double(float(minMaxScaler(x17)))" operator="lessOrEqual" value="0.59454745054245"/>
									<ScoreDistribution value="0" recordCount="17181"/>
									<ScoreDistribution value="1" recordCount="62000"/>
								</Node>
								<Node score="0" recordCount="18861">
									<SimplePredicate field="double(float(minMaxScaler(x17)))" operator="greaterThan" value="0.59454745054245"/>
									<ScoreDistribution value="0" recordCount="18804"/>
									<ScoreDistribution value="1" recordCount="57"/>
								</Node>
							</Node>
						</Node>
					</Node>
				</TreeModel>
			</Segment>
			<Segment id="12">
				<True/>
				<TreeModel functionName="classification" splitCharacteristic="binarySplit">
					<MiningSchema>
						<MiningField name="double(float(minMaxScaler(x19)))"/>
						<MiningField name="double(float(minMaxScaler(x5)))"/>
						<MiningField name="double(float(x56))"/>
						<MiningField name="double(float(minMaxScaler(x10)))"/>
					</MiningSchema>
					<Node>
						<True/>
						<Node>
							<SimplePredicate field="double(float(minMaxScaler(x5)))" operator="lessOrEqual" value="0.014309658203274012"/>
							<Node score="1" recordCount="523">
								<SimplePredicate field="double(float(minMaxScaler(x19)))" operator="lessOrEqual" value="4.201063857180998E-4"/>
								<ScoreDistribution value="0" recordCount="0"/>
								<ScoreDistribution value="1" recordCount="523"/>
							</Node>
							<Node score="0" recordCount="128858">
								<SimplePredicate field="double(float(minMaxScaler(x19)))" operator="greaterThan" value="4.201063857180998E-4"/>
								<ScoreDistribution value="0" recordCount="128858"/>
								<ScoreDistribution value="1" recordCount="0"/>
							</Node>
						</Node>
						<Node>
							<SimplePredicate field="double(float(minMaxScaler(x5)))" operator="greaterThan" value="0.014309658203274012"/>
							<Node>
								<SimplePredicate field="double(float(x56))" operator="lessOrEqual" value="0.39993293583393097"/>
								<Node score="1" recordCount="28877">
									<SimplePredicate field="double(float(minMaxScaler(x10)))" operator="lessOrEqual" value="6.125891331976163E-7"/>
									<ScoreDistribution value="0" recordCount="4564"/>
									<ScoreDistribution value="1" recordCount="24313"/>
								</Node>
								<Node score="1" recordCount="116841">
									<SimplePredicate field="double(float(minMaxScaler(x10)))" operator="greaterThan" value="6.125891331976163E-7"/>
									<ScoreDistribution value="0" recordCount="3843"/>
									<ScoreDistribution value="1" recordCount="112998"/>
								</Node>
							</Node>
							<Node>
								<SimplePredicate field="double(float(x56))" operator="greaterThan" value="0.39993293583393097"/>
								<Node score="1" recordCount="43">
									<SimplePredicate field="double(float(minMaxScaler(x19)))" operator="lessOrEqual" value="0.0010863039933610708"/>
									<ScoreDistribution value="0" recordCount="0"/>
									<ScoreDistribution value="1" recordCount="43"/>
								</Node>
								<Node score="0" recordCount="1094">
									<SimplePredicate field="double(float(minMaxScaler(x19)))" operator="greaterThan" value="0.0010863039933610708"/>
									<ScoreDistribution value="0" recordCount="1094"/>
									<ScoreDistribution value="1" recordCount="0"/>
								</Node>
							</Node>
						</Node>
					</Node>
				</TreeModel>
			</Segment>
			<Segment id="13">
				<True/>
				<TreeModel functionName="classification" splitCharacteristic="binarySplit">
					<MiningSchema>
						<MiningField name="double(float(minMaxScaler(x29)))"/>
						<MiningField name="double(float(minMaxScaler(x16)))"/>
						<MiningField name="double(float(x56))"/>
						<MiningField name="double(float(minMaxScaler(x17)))"/>
						<MiningField name="double(float(minMaxScaler(x38)))"/>
						<MiningField name="double(float(minMaxScaler(x66)))"/>
					</MiningSchema>
					<Node>
						<True/>
						<Node>
							<SimplePredicate field="double(float(minMaxScaler(x17)))" operator="lessOrEqual" value="0.05219373293220997"/>
							<Node>
								<SimplePredicate field="double(float(minMaxScaler(x16)))" operator="lessOrEqual" value="0.01902149710804224"/>
								<Node score="1" recordCount="26467">
									<SimplePredicate field="double(float(x56))" operator="lessOrEqual" value="3.899000148521736E-5"/>
									<ScoreDistribution value="0" recordCount="997"/>
									<ScoreDistribution value="1" recordCount="25470"/>
								</Node>
								<Node score="1" recordCount="35873">
									<SimplePredicate field="double(float(x56))" operator="greaterThan" value="3.899000148521736E-5"/>
									<ScoreDistribution value="0" recordCount="1"/>
									<ScoreDistribution value="1" recordCount="35872"/>
								</Node>
							</Node>
							<Node>
								<SimplePredicate field="double(float(minMaxScaler(x16)))" operator="greaterThan" value="0.01902149710804224"/>
								<Node score="1" recordCount="48871">
									<SimplePredicate field="double(float(minMaxScaler(x38)))" operator="lessOrEqual" value="2.1768519218312576E-6"/>
									<ScoreDistribution value="0" recordCount="24348"/>
									<ScoreDistribution value="1" recordCount="24523"/>
								</Node>
								<Node score="1" recordCount="28347">
									<SimplePredicate field="double(float(minMaxScaler(x38)))" operator="greaterThan" value="2.1768519218312576E-6"/>
									<ScoreDistribution value="0" recordCount="1724"/>
									<ScoreDistribution value="1" recordCount="26623"/>
								</Node>
							</Node>
						</Node>
						<Node>
							<SimplePredicate field="double(float(minMaxScaler(x17)))" operator="greaterThan" value="0.05219373293220997"/>
							<Node>
								<SimplePredicate field="double(float(minMaxScaler(x66)))" operator="lessOrEqual" value="8.702822924533393E-6"/>
								<Node score="0" recordCount="42430">
									<SimplePredicate field="double(float(minMaxScaler(x29)))" operator="lessOrEqual" value="0.012415730394423008"/>
									<ScoreDistribution value="0" recordCount="30588"/>
									<ScoreDistribution value="1" recordCount="11842"/>
								</Node>
								<Node score="0" recordCount="80356">
									<SimplePredicate field="double(float(minMaxScaler(x29)))" operator="greaterThan" value="0.012415730394423008"/>
									<ScoreDistribution value="0" recordCount="78977"/>
									<ScoreDistribution value="1" recordCount="1379"/>
								</Node>
							</Node>
							<Node>
								<SimplePredicate field="double(float(minMaxScaler(x66)))" operator="greaterThan" value="8.702822924533393E-6"/>
								<Node score="1" recordCount="13199">
									<SimplePredicate field="double(float(minMaxScaler(x16)))" operator="lessOrEqual" value="0.4778212606906891"/>
									<ScoreDistribution value="0" recordCount="787"/>
									<ScoreDistribution value="1" recordCount="12412"/>
								</Node>
								<Node score="0" recordCount="693">
									<SimplePredicate field="double(float(minMaxScaler(x16)))" operator="greaterThan" value="0.4778212606906891"/>
									<ScoreDistribution value="0" recordCount="633"/>
									<ScoreDistribution value="1" recordCount="60"/>
								</Node>
							</Node>
						</Node>
					</Node>
				</TreeModel>
			</Segment>
			<Segment id="14">
				<True/>
				<TreeModel functionName="classification" splitCharacteristic="binarySplit">
					<MiningSchema>
						<MiningField name="double(float(minMaxScaler(x19)))"/>
						<MiningField name="double(float(x56))"/>
						<MiningField name="double(float(minMaxScaler(x4)))"/>
						<MiningField name="double(float(minMaxScaler(x8)))"/>
						<MiningField name="double(float(minMaxScaler(x20)))"/>
						<MiningField name="double(float(minMaxScaler(x69)))"/>
					</MiningSchema>
					<Node>
						<True/>
						<Node>
							<SimplePredicate field="double(float(x56))" operator="lessOrEqual" value="3.129172228000243E-6"/>
							<Node>
								<SimplePredicate field="double(float(minMaxScaler(x4)))" operator="lessOrEqual" value="6.269129698921461E-6"/>
								<Node score="0" recordCount="231">
									<SimplePredicate field="double(float(minMaxScaler(x19)))" operator="lessOrEqual" value="6.099048623582348E-4"/>
									<ScoreDistribution value="0" recordCount="228"/>
									<ScoreDistribution value="1" recordCount="3"/>
								</Node>
								<Node score="0" recordCount="124322">
									<SimplePredicate field="double(float(minMaxScaler(x19)))" operator="greaterThan" value="6.099048623582348E-4"/>
									<ScoreDistribution value="0" recordCount="124322"/>
									<ScoreDistribution value="1" recordCount="0"/>
								</Node>
							</Node>
							<Node>
								<SimplePredicate field="double(float(minMaxScaler(x4)))" operator="greaterThan" value="6.269129698921461E-6"/>
								<Node score="1" recordCount="35528">
									<SimplePredicate field="double(float(minMaxScaler(x19)))" operator="lessOrEqual" value="0.003171215415932238"/>
									<ScoreDistribution value="0" recordCount="261"/>
									<ScoreDistribution value="1" recordCount="35267"/>
								</Node>
								<Node score="1" recordCount="21225">
									<SimplePredicate field="double(float(minMaxScaler(x19)))" operator="greaterThan" value="0.003171215415932238"/>
									<ScoreDistribution value="0" recordCount="8747"/>
									<ScoreDistribution value="1" recordCount="12478"/>
								</Node>
							</Node>
						</Node>
						<Node>
							<SimplePredicate field="double(float(x56))" operator="greaterThan" value="3.129172228000243E-6"/>
							<Node>
								<SimplePredicate field="double(float(minMaxScaler(x8)))" operator="lessOrEqual" value="1.726851281969033E-7"/>
								<Node score="1" recordCount="21140">
									<SimplePredicate field="double(float(minMaxScaler(x20)))" operator="lessOrEqual" value="0.06277554854750633"/>
									<ScoreDistribution value="0" recordCount="1528"/>
									<ScoreDistribution value="1" recordCount="19612"/>
								</Node>
								<Node score="0" recordCount="2066">
									<SimplePredicate field="double(float(minMaxScaler(x20)))" operator="greaterThan" value="0.06277554854750633"/>
									<ScoreDistribution value="0" recordCount="1841"/>
									<ScoreDistribution value="1" recordCount="225"/>
								</Node>
							</Node>
							<Node>
								<SimplePredicate field="double(float(minMaxScaler(x8)))" operator="greaterThan" value="1.726851281969033E-7"/>
								<Node score="1" recordCount="66482">
									<SimplePredicate field="double(float(minMaxScaler(x69)))" operator="lessOrEqual" value="0.06665638461709023"/>
									<ScoreDistribution value="0" recordCount="426"/>
									<ScoreDistribution value="1" recordCount="66056"/>
								</Node>
								<Node score="1" recordCount="5242">
									<SimplePredicate field="double(float(minMaxScaler(x69)))" operator="greaterThan" value="0.06665638461709023"/>
									<ScoreDistribution value="0" recordCount="752"/>
									<ScoreDistribution value="1" recordCount="4490"/>
								</Node>
							</Node>
						</Node>
					</Node>
				</TreeModel>
			</Segment>
			<Segment id="15">
				<True/>
				<TreeModel functionName="classification" splitCharacteristic="binarySplit">
					<MiningSchema>
						<MiningField name="double(float(minMaxScaler(x12)))"/>
						<MiningField name="double(float(minMaxScaler(x16)))"/>
						<MiningField name="double(float(minMaxScaler(x30)))"/>
						<MiningField name="double(float(minMaxScaler(x13)))"/>
						<MiningField name="double(float(minMaxScaler(x55)))"/>
						<MiningField name="double(float(minMaxScaler(x38)))"/>
					</MiningSchema>
					<Node>
						<True/>
						<Node>
							<SimplePredicate field="double(float(minMaxScaler(x38)))" operator="lessOrEqual" value="2.0489048893068684E-6"/>
							<Node>
								<SimplePredicate field="double(float(minMaxScaler(x16)))" operator="lessOrEqual" value="0.04075564630329609"/>
								<Node score="1" recordCount="76604">
									<SimplePredicate field="double(float(minMaxScaler(x30)))" operator="lessOrEqual" value="0.12485580891370773"/>
									<ScoreDistribution value="0" recordCount="4570"/>
									<ScoreDistribution value="1" recordCount="72034"/>
								</Node>
								<Node score="0" recordCount="10709">
									<SimplePredicate field="double(float(minMaxScaler(x30)))" operator="greaterThan" value="0.12485580891370773"/>
									<ScoreDistribution value="0" recordCount="9366"/>
									<ScoreDistribution value="1" recordCount="1343"/>
								</Node>
							</Node>
							<Node>
								<SimplePredicate field="double(float(minMaxScaler(x16)))" operator="greaterThan" value="0.04075564630329609"/>
								<Node score="0" recordCount="118440">
									<SimplePredicate field="double(float(minMaxScaler(x55)))" operator="lessOrEqual" value="3.325747456983663E-5"/>
									<ScoreDistribution value="0" recordCount="116613"/>
									<ScoreDistribution value="1" recordCount="1827"/>
								</Node>
								<Node score="1" recordCount="6058">
									<SimplePredicate field="double(float(minMaxScaler(x55)))" operator="greaterThan" value="3.325747456983663E-5"/>
									<ScoreDistribution value="0" recordCount="547"/>
									<ScoreDistribution value="1" recordCount="5511"/>
								</Node>
							</Node>
						</Node>
						<Node>
							<SimplePredicate field="double(float(minMaxScaler(x38)))" operator="greaterThan" value="2.0489048893068684E-6"/>
							<Node>
								<SimplePredicate field="double(float(minMaxScaler(x38)))" operator="lessOrEqual" value="0.09374619647860527"/>
								<Node score="1" recordCount="11769">
									<SimplePredicate field="double(float(minMaxScaler(x13)))" operator="lessOrEqual" value="2.019929979724111E-6"/>
									<ScoreDistribution value="0" recordCount="1318"/>
									<ScoreDistribution value="1" recordCount="10451"/>
								</Node>
								<Node score="1" recordCount="45324">
									<SimplePredicate field="double(float(minMaxScaler(x13)))" operator="greaterThan" value="2.019929979724111E-6"/>
									<ScoreDistribution value="0" recordCount="795"/>
									<ScoreDistribution value="1" recordCount="44529"/>
								</Node>
							</Node>
							<Node>
								<SimplePredicate field="double(float(minMaxScaler(x38)))" operator="greaterThan" value="0.09374619647860527"/>
								<Node score="0" recordCount="5903">
									<SimplePredicate field="double(float(minMaxScaler(x12)))" operator="lessOrEqual" value="0.02794956136494875"/>
									<ScoreDistribution value="0" recordCount="4773"/>
									<ScoreDistribution value="1" recordCount="1130"/>
								</Node>
								<Node score="1" recordCount="1429">
									<SimplePredicate field="double(float(minMaxScaler(x12)))" operator="greaterThan" value="0.02794956136494875"/>
									<ScoreDistribution value="0" recordCount="327"/>
									<ScoreDistribution value="1" recordCount="1102"/>
								</Node>
							</Node>
						</Node>
					</Node>
				</TreeModel>
			</Segment>
			<Segment id="16">
				<True/>
				<TreeModel functionName="classification" splitCharacteristic="binarySplit">
					<MiningSchema>
						<MiningField name="double(float(minMaxScaler(x29)))"/>
						<MiningField name="double(float(minMaxScaler(x4)))"/>
						<MiningField name="double(float(minMaxScaler(x11)))"/>
						<MiningField name="double(float(minMaxScaler(x30)))"/>
						<MiningField name="double(float(minMaxScaler(x8)))"/>
						<MiningField name="double(float(minMaxScaler(x7)))"/>
					</MiningSchema>
					<Node>
						<True/>
						<Node>
							<SimplePredicate field="double(float(minMaxScaler(x4)))" operator="lessOrEqual" value="2.21835398406256E-6"/>
							<Node>
								<SimplePredicate field="double(float(minMaxScaler(x7)))" operator="lessOrEqual" value="0.021739130839705467"/>
								<Node score="0" recordCount="53276">
									<SimplePredicate field="double(float(minMaxScaler(x11)))" operator="lessOrEqual" value="0.31481482088565826"/>
									<ScoreDistribution value="0" recordCount="53276"/>
									<ScoreDistribution value="1" recordCount="0"/>
								</Node>
								<Node score="0" recordCount="2407">
									<SimplePredicate field="double(float(minMaxScaler(x11)))" operator="greaterThan" value="0.31481482088565826"/>
									<ScoreDistribution value="0" recordCount="1901"/>
									<ScoreDistribution value="1" recordCount="506"/>
								</Node>
							</Node>
							<Node score="0" recordCount="69758">
								<SimplePredicate field="double(float(minMaxScaler(x7)))" operator="greaterThan" value="0.021739130839705467"/>
								<ScoreDistribution value="0" recordCount="69758"/>
								<ScoreDistribution value="1" recordCount="0"/>
							</Node>
						</Node>
						<Node>
							<SimplePredicate field="double(float(minMaxScaler(x4)))" operator="greaterThan" value="2.21835398406256E-6"/>
							<Node>
								<SimplePredicate field="double(float(minMaxScaler(x8)))" operator="lessOrEqual" value="1.726851281969033E-7"/>
								<Node score="1" recordCount="34794">
									<SimplePredicate field="double(float(minMaxScaler(x29)))" operator="lessOrEqual" value="0.012407148256897926"/>
									<ScoreDistribution value="0" recordCount="5255"/>
									<ScoreDistribution value="1" recordCount="29539"/>
								</Node>
								<Node score="0" recordCount="3789">
									<SimplePredicate field="double(float(minMaxScaler(x29)))" operator="greaterThan" value="0.012407148256897926"/>
									<ScoreDistribution value="0" recordCount="3135"/>
									<ScoreDistribution value="1" recordCount="654"/>
								</Node>
							</Node>
							<Node>
								<SimplePredicate field="double(float(minMaxScaler(x8)))" operator="greaterThan" value="1.726851281969033E-7"/>
								<Node score="1" recordCount="107056">
									<SimplePredicate field="double(float(minMaxScaler(x30)))" operator="lessOrEqual" value="0.10225089639425278"/>
									<ScoreDistribution value="0" recordCount="1962"/>
									<ScoreDistribution value="1" recordCount="105094"/>
								</Node>
								<Node score="0" recordCount="5156">
									<SimplePredicate field="double(float(minMaxScaler(x30)))" operator="greaterThan" value="0.10225089639425278"/>
									<ScoreDistribution value="0" recordCount="3041"/>
									<ScoreDistribution value="1" recordCount="2115"/>
								</Node>
							</Node>
						</Node>
					</Node>
				</TreeModel>
			</Segment>
			<Segment id="17">
				<True/>
				<TreeModel functionName="classification" splitCharacteristic="binarySplit">
					<MiningSchema>
						<MiningField name="double(float(minMaxScaler(x19)))"/>
						<MiningField name="double(float(minMaxScaler(x5)))"/>
						<MiningField name="double(float(minMaxScaler(x8)))"/>
						<MiningField name="double(float(minMaxScaler(x55)))"/>
						<MiningField name="double(float(minMaxScaler(x37)))"/>
						<MiningField name="double(float(minMaxScaler(x38)))"/>
					</MiningSchema>
					<Node>
						<True/>
						<Node>
							<SimplePredicate field="double(float(minMaxScaler(x19)))" operator="lessOrEqual" value="0.003415328450500965"/>
							<Node>
								<SimplePredicate field="double(float(minMaxScaler(x5)))" operator="lessOrEqual" value="0.012456806842237711"/>
								<Node score="0" recordCount="13262">
									<SimplePredicate field="double(float(minMaxScaler(x37)))" operator="lessOrEqual" value="0.015197145286947489"/>
									<ScoreDistribution value="0" recordCount="12728"/>
									<ScoreDistribution value="1" recordCount="534"/>
								</Node>
								<Node score="0" recordCount="503">
									<SimplePredicate field="double(float(minMaxScaler(x37)))" operator="greaterThan" value="0.015197145286947489"/>
									<ScoreDistribution value="0" recordCount="503"/>
									<ScoreDistribution value="1" recordCount="0"/>
								</Node>
							</Node>
							<Node>
								<SimplePredicate field="double(float(minMaxScaler(x5)))" operator="greaterThan" value="0.012456806842237711"/>
								<Node score="1" recordCount="89646">
									<SimplePredicate field="double(float(minMaxScaler(x38)))" operator="lessOrEqual" value="0.09366946667432785"/>
									<ScoreDistribution value="0" recordCount="224"/>
									<ScoreDistribution value="1" recordCount="89422"/>
								</Node>
								<Node score="1" recordCount="1407">
									<SimplePredicate field="double(float(minMaxScaler(x38)))" operator="greaterThan" value="0.09366946667432785"/>
									<ScoreDistribution value="0" recordCount="206"/>
									<ScoreDistribution value="1" recordCount="1201"/>
								</Node>
							</Node>
						</Node>
						<Node>
							<SimplePredicate field="double(float(minMaxScaler(x19)))" operator="greaterThan" value="0.003415328450500965"/>
							<Node>
								<SimplePredicate field="double(float(minMaxScaler(x5)))" operator="lessOrEqual" value="0.03722637891769409"/>
								<Node score="0" recordCount="119067">
									<SimplePredicate field="double(float(minMaxScaler(x55)))" operator="lessOrEqual" value="3.7486039218492806E-4"/>
									<ScoreDistribution value="0" recordCount="118995"/>
									<ScoreDistribution value="1" recordCount="72"/>
								</Node>
								<Node score="0" recordCount="5365">
									<SimplePredicate field="double(float(minMaxScaler(x55)))" operator="greaterThan" value="3.7486039218492806E-4"/>
									<ScoreDistribution value="0" recordCount="4013"/>
									<ScoreDistribution value="1" recordCount="1352"/>
								</Node>
							</Node>
							<Node>
								<SimplePredicate field="double(float(minMaxScaler(x5)))" operator="greaterThan" value="0.03722637891769409"/>
								<Node score="1" recordCount="46341">
									<SimplePredicate field="double(float(minMaxScaler(x8)))" operator="lessOrEqual" value="0.45419250428676605"/>
									<ScoreDistribution value="0" recordCount="1471"/>
									<ScoreDistribution value="1" recordCount="44870"/>
								</Node>
								<Node score="0" recordCount="645">
									<SimplePredicate field="double(float(minMaxScaler(x8)))" operator="greaterThan" value="0.45419250428676605"/>
									<ScoreDistribution value="0" recordCount="424"/>
									<ScoreDistribution value="1" recordCount="221"/>
								</Node>
							</Node>
						</Node>
					</Node>
				</TreeModel>
			</Segment>
			<Segment id="18">
				<True/>
				<TreeModel functionName="classification" splitCharacteristic="binarySplit">
					<MiningSchema>
						<MiningField name="double(float(minMaxScaler(x12)))"/>
						<MiningField name="double(float(minMaxScaler(x4)))"/>
						<MiningField name="double(float(minMaxScaler(x11)))"/>
						<MiningField name="double(float(minMaxScaler(x17)))"/>
						<MiningField name="double(float(minMaxScaler(x38)))"/>
						<MiningField name="double(float(minMaxScaler(x69)))"/>
						<MiningField name="double(float(minMaxScaler(x25)))"/>
					</MiningSchema>
					<Node>
						<True/>
						<Node>
							<SimplePredicate field="double(float(minMaxScaler(x4)))" operator="lessOrEqual" value="2.6703833100327756E-6"/>
							<Node>
								<SimplePredicate field="double(float(minMaxScaler(x11)))" operator="lessOrEqual" value="0.31481482088565826"/>
								<Node score="0" recordCount="31">
									<SimplePredicate field="double(float(minMaxScaler(x17)))" operator="lessOrEqual" value="0.0060427370481193066"/>
									<ScoreDistribution value="0" recordCount="30"/>
									<ScoreDistribution value="1" recordCount="1"/>
								</Node>
								<Node score="0" recordCount="122818">
									<SimplePredicate field="double(float(minMaxScaler(x17)))" operator="greaterThan" value="0.0060427370481193066"/>
									<ScoreDistribution value="0" recordCount="122818"/>
									<ScoreDistribution value="1" recordCount="0"/>
								</Node>
							</Node>
							<Node>
								<SimplePredicate field="double(float(minMaxScaler(x11)))" operator="greaterThan" value="0.31481482088565826"/>
								<Node score="1" recordCount="711">
									<SimplePredicate field="double(float(minMaxScaler(x12)))" operator="lessOrEqual" value="0.013888888992369175"/>
									<ScoreDistribution value="0" recordCount="269"/>
									<ScoreDistribution value="1" recordCount="442"/>
								</Node>
								<Node score="0" recordCount="1711">
									<SimplePredicate field="double(float(minMaxScaler(x12)))" operator="greaterThan" value="0.013888888992369175"/>
									<ScoreDistribution value="0" recordCount="1711"/>
									<ScoreDistribution value="1" recordCount="0"/>
								</Node>
							</Node>
						</Node>
						<Node>
							<SimplePredicate field="double(float(minMaxScaler(x4)))" operator="greaterThan" value="2.6703833100327756E-6"/>
							<Node>
								<SimplePredicate field="double(float(minMaxScaler(x38)))" operator="lessOrEqual" value="0.09374619647860527"/>
								<Node score="1" recordCount="133418">
									<SimplePredicate field="double(float(minMaxScaler(x69)))" operator="lessOrEqual" value="0.06665638461709023"/>
									<ScoreDistribution value="0" recordCount="5318"/>
									<ScoreDistribution value="1" recordCount="128100"/>
								</Node>
								<Node score="1" recordCount="10952">
									<SimplePredicate field="double(float(minMaxScaler(x69)))" operator="greaterThan" value="0.06665638461709023"/>
									<ScoreDistribution value="0" recordCount="3724"/>
									<ScoreDistribution value="1" recordCount="7228"/>
								</Node>
							</Node>
							<Node>
								<SimplePredicate field="double(float(minMaxScaler(x38)))" operator="greaterThan" value="0.09374619647860527"/>
								<Node score="0" recordCount="5443">
									<SimplePredicate field="double(float(minMaxScaler(x25)))" operator="lessOrEqual" value="0.02049931325018406"/>
									<ScoreDistribution value="0" recordCount="4099"/>
									<ScoreDistribution value="1" recordCount="1344"/>
								</Node>
								<Node score="1" recordCount="1152">
									<SimplePredicate field="double(float(minMaxScaler(x25)))" operator="greaterThan" value="0.02049931325018406"/>
									<ScoreDistribution value="0" recordCount="352"/>
									<ScoreDistribution value="1" recordCount="800"/>
								</Node>
							</Node>
						</Node>
					</Node>
				</TreeModel>
			</Segment>
			<Segment id="19">
				<True/>
				<TreeModel functionName="classification" splitCharacteristic="binarySplit">
					<MiningSchema>
						<MiningField name="double(float(minMaxScaler(x16)))"/>
						<MiningField name="double(float(minMaxScaler(x5)))"/>
						<MiningField name="double(float(minMaxScaler(x8)))"/>
						<MiningField name="double(float(minMaxScaler(x26)))"/>
						<MiningField name="double(float(minMaxScaler(x17)))"/>
						<MiningField name="double(float(minMaxScaler(x55)))"/>
						<MiningField name="double(float(minMaxScaler(x10)))"/>
					</MiningSchema>
					<Node>
						<True/>
						<Node>
							<SimplePredicate field="double(float(minMaxScaler(x17)))" operator="lessOrEqual" value="0.05219373293220997"/>
							<Node>
								<SimplePredicate field="double(float(minMaxScaler(x8)))" operator="lessOrEqual" value="1.726851281969033E-7"/>
								<Node score="0" recordCount="22220">
									<SimplePredicate field="double(float(minMaxScaler(x10)))" operator="lessOrEqual" value="1.4132985597825609E-5"/>
									<ScoreDistribution value="0" recordCount="15360"/>
									<ScoreDistribution value="1" recordCount="6860"/>
								</Node>
								<Node score="1" recordCount="32118">
									<SimplePredicate field="double(float(minMaxScaler(x10)))" operator="greaterThan" value="1.4132985597825609E-5"/>
									<ScoreDistribution value="0" recordCount="9216"/>
									<ScoreDistribution value="1" recordCount="22902"/>
								</Node>
							</Node>
							<Node>
								<SimplePredicate field="double(float(minMaxScaler(x8)))" operator="greaterThan" value="1.726851281969033E-7"/>
								<Node score="1" recordCount="34883">
									<SimplePredicate field="double(float(minMaxScaler(x55)))" operator="lessOrEqual" value="4.689681645686505E-6"/>
									<ScoreDistribution value="0" recordCount="2624"/>
									<ScoreDistribution value="1" recordCount="32259"/>
								</Node>
								<Node score="1" recordCount="50857">
									<SimplePredicate field="double(float(minMaxScaler(x55)))" operator="greaterThan" value="4.689681645686505E-6"/>
									<ScoreDistribution value="0" recordCount="97"/>
									<ScoreDistribution value="1" recordCount="50760"/>
								</Node>
							</Node>
						</Node>
						<Node>
							<SimplePredicate field="double(float(minMaxScaler(x17)))" operator="greaterThan" value="0.05219373293220997"/>
							<Node>
								<SimplePredicate field="double(float(minMaxScaler(x26)))" operator="lessOrEqual" value="5.931065970798954E-6"/>
								<Node score="0" recordCount="17543">
									<SimplePredicate field="double(float(minMaxScaler(x16)))" operator="lessOrEqual" value="0.09230582788586617"/>
									<ScoreDistribution value="0" recordCount="14309"/>
									<ScoreDistribution value="1" recordCount="3234"/>
								</Node>
								<Node score="0" recordCount="71030">
									<SimplePredicate field="double(float(minMaxScaler(x16)))" operator="greaterThan" value="0.09230582788586617"/>
									<ScoreDistribution value="0" recordCount="70762"/>
									<ScoreDistribution value="1" recordCount="268"/>
								</Node>
							</Node>
							<Node>
								<SimplePredicate field="double(float(minMaxScaler(x26)))" operator="greaterThan" value="5.931065970798954E-6"/>
								<Node score="0" recordCount="24933">
									<SimplePredicate field="double(float(minMaxScaler(x5)))" operator="lessOrEqual" value="0.03619865141808987"/>
									<ScoreDistribution value="0" recordCount="24663"/>
									<ScoreDistribution value="1" recordCount="270"/>
								</Node>
								<Node score="1" recordCount="22652">
									<SimplePredicate field="double(float(minMaxScaler(x5)))" operator="greaterThan" value="0.03619865141808987"/>
									<ScoreDistribution value="0" recordCount="924"/>
									<ScoreDistribution value="1" recordCount="21728"/>
								</Node>
							</Node>
						</Node>
					</Node>
				</TreeModel>
			</Segment>
			<Segment id="20">
				<True/>
				<TreeModel functionName="classification" splitCharacteristic="binarySplit">
					<MiningSchema>
						<MiningField name="double(float(minMaxScaler(x29)))"/>
						<MiningField name="double(float(minMaxScaler(x16)))"/>
						<MiningField name="double(float(minMaxScaler(x5)))"/>
						<MiningField name="double(float(minMaxScaler(x24)))"/>
						<MiningField name="double(float(minMaxScaler(x2)))"/>
						<MiningField name="double(float(minMaxScaler(x8)))"/>
					</MiningSchema>
					<Node>
						<True/>
						<Node>
							<SimplePredicate field="double(float(minMaxScaler(x8)))" operator="lessOrEqual" value="0.4372277557849884"/>
